349 500
the -6.2096384e-05 0.00012649433 0.0011934246 0.0019969647 -0.0019782374 -0.0016671853 0.0013318679 0.0020654793 -0.0009488689 -0.00078569003 0.0014646293 -0.00023269339 -0.0008634049 0.0013306644 -0.0009068762 -0.0005672113 0.00028969868 6.765972e-05 -0.0016601079 -0.0018633739 0.0015327325 0.0009502362 0.0015061462 0.00017164377 0.001276152 -0.0007057404 -0.00012215228 0.0012164962 -0.0018061062 -0.0007905635 -0.0013899839 -0.00021170017 0.0019031696 -0.00151942 -0.00023945245 -0.00023575801 0.0016977611 -0.0013256236 -9.67196e-05 -0.0012173026 -0.0020229593 0.0009777115 -0.0020590322 -0.00082797866 -0.00019143213 -0.00017698332 -0.0017410603 0.002045707 0.0008937974 0.0018219964 -0.0016751136 0.00084558723 -0.00089214486 -6.14824e-05 0.0016619487 -0.0010432211 0.0010672855 -0.0014085987 -0.0007989759 0.0018623724 -0.0002565654 1.49932885e-05 -0.0008090872 -0.0015444563 -0.00046543093 0.0007349709 -0.00019600535 0.0011889607 -0.00048199372 0.0005002672 0.0010641058 0.0017342492 -0.00028435356 -0.0018668241 0.0010341274 0.00042293436 0.0013743101 -0.0002097184 -0.0004425463 -0.0017000145 -0.00022899677 0.00056567445 0.0010653357 0.0017735616 -0.0014247542 0.00054655946 0.0011621965 -0.00073837023 -0.00047324266 0.0015773161 0.0004711934 4.2854273e-05 0.00048859196 0.00019173183 0.0020624537 0.0011409553 -0.0016143643 -0.0014198583 0.00032294993 0.0012790625 -0.0017998574 0.00078609964 0.00092813076 0.0013372016 0.0015874256 -0.0012180507 0.00022873019 0.0013779146 -0.00070441805 -0.0011326818 -4.9021743e-05 -0.0017583119 -0.0010949771 0.0015954963 0.00055299496 0.0014334079 0.0014352477 0.0013713824 -0.0007677126 -0.00032397668 0.0004330297 -0.00088063144 0.0019126307 -0.0020619102 0.0014786586 0.00057800603 -0.0013076806 0.00093477615 -0.00039561462 0.0014304244 0.002213338 -0.0007415656 -0.00019552186 -0.0012483969 0.0007900551 0.00077599735 0.0013386969 0.0010950611 0.0016405589 0.0015010108 0.0017170702 -0.0014874556 -0.0017297445 -0.00017775314 -0.00047958686 0.0016243318 0.001327413 -0.00055024313 0.00037103012 0.0004988893 0.0017437313 -0.0020366441 -0.0001320342 0.0011323827 -0.00051163917 0.0017793857 0.0020004883 0.0011745957 -0.00029690357 0.0016511605 -0.0016564429 0.00058292825 -0.0010507616 -0.0011140544 0.00050267007 0.0012094442 0.0018210285 -0.0009797034 0.0015327167 0.0014969788 -0.00076582533 -0.0014571326 0.0010961846 0.001500802 -0.00016070192 -0.0015033246 -0.001477437 -0.00062038767 0.0009632459 -0.00056658126 -0.0018448336 0.00084414514 0.00092500943 -0.0012085321 0.00027216048 -0.0005055188 -0.00017163105 -0.0019796605 0.00040662498 -0.0008937874 0.00045820294 -0.00047625802 0.00047582452 -0.0016252856 -0.00044356385 0.00054466416 0.0010016414 -0.00053515704 -0.0017435255 0.0009806745 -6.049649e-06 0.000641103 -0.0011331438 -0.00038758555 0.0016276067 0.0015331763 -0.0007370724 0.00043639637 -0.0017967847 0.0011995654 -0.00092722866 -0.00088687753 0.0016911293 3.5234832e-05 0.0014649117 -0.0014709439 0.00095163786 0.0019753403 -0.0018353316 -0.0012222322 -0.0013179402 -0.0006875258 -0.00074081135 -0.0016533195 0.0016422856 -0.00096747396 0.0018613733 0.00091833493 -0.0013029195 0.0009205335 0.0010679681 -0.0015727966 -0.0014602888 -0.0004901608 -0.001733421 -0.00033998757 -8.173978e-05 0.00040677047 0.00048422653 -0.00027158306 -0.0011797282 0.00026595013 -0.00050206034 0.0016155946 0.0007465575 0.0007683831 0.00022338249 -0.00053733605 -0.00075066194 -0.00017824376 0.00030200943 -0.0008204813 -0.0013680032 -0.0017130689 -0.0018981394 -0.0010192555 -0.00030545617 -0.0005879591 -0.0015005328 -0.0007236332 0.0007376916 -0.00058617326 0.0013972846 0.0002599714 -0.0013978177 0.0019797974 0.0013868195 0.0013376063 -0.0015291339 0.001096723 0.0006430853 0.0010813054 0.0010466379 0.0002806563 -0.000744442 0.0017236776 0.001934111 0.0004874506 -0.0005995617 0.00012557191 0.00025547418 -0.0016599956 -0.0017382373 -0.00018476554 0.00058921176 -0.00128281 -0.00088201097 -0.0016184879 0.0018352094 -6.8935315e-06 -0.0010354497 0.0014818971 0.0018693064 -0.0008373928 0.0017184822 0.0012588613 0.0014695954 -0.00010243275 0.0017375248 -0.0014831388 -0.0018433211 0.00204842 -8.244811e-05 -0.0004609586 0.0009571008 -0.0009417375 0.0005473114 0.0015342592 0.0011894701 -0.0016438556 0.0018448891 0.0008208647 0.0008613204 -0.0013198118 0.0018560025 -0.00045414243 0.0018488758 -0.0011881614 -0.0015818882 0.0012936533 0.0006694935 -0.00047697625 0.001961023 0.001801154 -0.002101847 0.00036934257 0.0011666709 0.0006157692 0.00046382647 -2.4466344e-06 0.00037618593 -0.00076220965 -0.0014146079 -0.00023862689 0.0008181661 0.0016475266 0.0018407853 -0.0010628379 -0.0018989859 0.0017979224 0.0005883097 0.0011367371 0.0014726752 -0.0007243635 0.0014438572 0.000447317 0.00020647168 -0.0004006965 -0.00056837813 -0.00038690705 0.0008919502 -1.7738286e-05 -0.0020579793 -0.0017740485 -0.0013330274 0.00023341256 0.00025755286 0.0018465237 0.0009976976 -0.0009133899 -9.038851e-06 0.0011321609 0.0016355312 -0.000119050594 0.0008795655 -0.0011656809 -1.0421487e-05 0.0016544146 -0.0006227704 -0.0017816229 0.0011916583 -0.00095255586 -0.00015870544 0.0019232945 -0.00054780097 -0.0010831592 -0.0010609817 0.0014577403 -0.001251607 0.00039355314 -0.0009515813 0.0011993019 0.0010720553 0.0005811204 -0.00018995588 -0.0005117316 0.0018090573 0.0012128786 -0.00030392222 -0.001975108 -0.001518839 -0.0001481462 -0.00027179252 -0.0004276075 0.002164119 0.00017410274 0.0011529791 -0.0015835514 -0.0006190683 -0.0009995671 -0.0015235173 0.00019476925 -0.0015977583 -0.0006619199 0.0006872626 0.0008970998 0.00018722036 0.00064200425 -0.0007590259 0.0014422345 -0.0013547812 0.00066595286 -0.0017350296 0.00029252563 -0.00095703406 -0.00075520354 -0.00041620704 0.001062219 0.0014079383 -0.001201768 4.7464815e-05 -0.0016244745 0.0014955628 0.0018966849 -0.00067015423 0.0002487902 4.6546505e-05 0.001018146 -0.001852215 9.293274e-06 0.0012543007 0.000469508 0.00014085164 -0.0019318133 0.0015580148 -0.0012196465 -0.00066191534 0.0006398939 -0.00031931433 0.0002902086 0.00046067295 -0.0014487405 -0.0018235649 0.0018261583 0.0016925118 -0.0013824361 0.0008401876 0.00013737722 0.00079813786 -0.0014319681 0.0007417894 0.0009263576 0.002009565 -0.0010779245 -0.00026087763 -0.0017188467 -0.0019203876 -0.0019248168 -0.00014458389 -0.0013861285 0.0011053135 -0.0011623767 0.0005037338 0.0001080985 -0.00088324345 -0.0002505819 0.0019233042 0.0015069289 -0.00096700137 0.0019204419 -0.0012601691 0.0011465156 -0.00040924095 0.00056122773 0.00085296354 0.0015157732 -0.00031846535 0.0017548515 0.0014564999 -0.002142843 -0.0016933428 -0.0016699762 0.0004409071 -0.00035374574 -0.0012962912 -0.0015239227 0.0016314884 0.0006097153 -0.0018020738 -0.00094916485 0.0007115293 -0.001024517 0.0012493837 -0.00084569654 0.00059640856 -0.0015775278 0.0012770897 0.00077550707 7.037684e-05 0.00055218313
to -0.001690934 0.0005218222 -2.3116048e-05 -0.0016263946 -0.0020130824 -0.00054355734 0.00091512693 0.0010393186 -0.001186197 -0.0014111549 -0.0010433295 -0.0003800954 -0.0014181235 -0.0019137223 -0.00047371516 -0.0018957894 -0.0015041409 -0.0012714606 -0.00046615655 -0.0002825529 -0.0017188753 -0.00023172329 0.0017758383 0.0015462005 -0.0014436195 -0.0007491724 0.0007039753 -0.0018259182 -2.169269e-05 0.0012979286 0.0013093168 -0.0017919759 -0.0009359106 -0.0016586175 0.00022315327 0.0020262357 0.0012806628 0.00086870475 0.00087429694 -0.0009025818 0.0018041033 -0.0015072288 -0.0017849929 -0.00037767898 -0.00037219148 -0.0007960509 -0.00033225183 0.0016334675 -0.00024473752 -0.000355002 0.0004898747 -0.001745159 0.0015101476 0.0014981345 -0.0019394113 0.00030307806 0.0021533957 -0.0015849996 -0.0014927982 -0.0015890836 0.0017586235 -0.00016515 0.0018757887 -0.0016511341 0.0005507874 0.00078583456 0.00011210059 0.00056594546 -0.0014102767 -0.0018100806 0.00044468165 0.0012954491 0.0016115073 0.0010994961 3.861539e-05 0.002027633 -0.0020084735 0.00063387887 0.00014936108 0.0007993053 0.0013991981 -0.0013360474 0.0010949451 -0.0015325197 -0.00045045957 -0.001577932 -0.0010562043 0.0021012006 -0.00020297302 0.0007988767 0.0019441969 0.0017961526 -0.001867449 -0.00046253132 0.0021273652 0.0011760967 -0.00012608281 -0.0017301305 0.00071007863 -0.0013147101 0.0015094997 -0.000869053 -0.0003309283 0.0004340397 5.8242033e-05 0.00025918736 0.0011868835 0.00019880835 -0.0008025518 -0.00017935067 0.001191199 0.0002007403 -0.0001311045 0.0020480952 -0.0011213212 -0.00018539131 0.0019625647 0.0012173046 0.00030307178 -0.001992521 0.00020157374 -0.00043748211 0.0021327524 0.00016292493 0.00044760283 0.00051938964 -0.00071924843 -0.00089992164 -3.6959143e-05 -0.0003288348 0.0015703206 0.0019375267 -0.00021245277 0.0004887782 -0.0012129036 0.0005883708 -0.0014600785 -0.0018926809 -0.0014710778 -0.0022018414 0.0016386155 -0.0012553164 0.001755484 -0.0015670215 0.0008471869 0.0019759813 -0.0014022299 -0.0022701768 -0.0007804489 -0.0004002248 0.0001232772 -0.0019308823 -0.0018442718 0.0010367918 -0.0019909574 -0.0017156454 -0.00025678313 -0.0018784866 -0.0016016494 -0.0015709365 -2.1083754e-06 -0.0009658365 0.0011880508 0.00023875509 -0.000898215 0.0013552953 -0.0009168126 -0.0007536958 -0.0013762222 -0.0006939064 -0.00034363885 0.0016133096 -0.0005648041 0.0011829991 0.0013607718 -0.0016752713 0.00084091345 0.0011104333 -0.0006563103 0.0015116902 0.0012598939 -0.0012163469 -0.0014209514 0.0005838236 -0.00027849516 -0.0013205069 0.0017000587 -0.0009912977 -0.0014888595 1.3280815e-05 -0.00022692436 -7.8744066e-05 -0.00066515146 -9.6621356e-05 -2.0158588e-05 0.00016906354 0.0015754033 -0.001202921 -0.00013498413 0.0011904286 0.0016155484 -0.00085308525 0.0020141061 0.0015158226 -0.00077236304 0.00010000806 0.0008917826 -0.0008773339 -0.0012684461 -0.0013422568 -0.000108163076 -0.0003103171 0.000695889 -0.00062570407 -8.3117295e-05 0.000214745 0.00089832954 -5.703224e-06 -0.0014070123 -0.0020909123 0.00011789366 0.0016539947 0.00033623545 -0.001740746 -0.0015485239 0.0013178157 -0.0005653591 0.0011244934 -0.0013438592 0.0018149483 -0.001288599 0.00056567404 -0.0001824981 -0.0013701118 -0.0006761648 -0.0002508016 -0.0010901244 -0.0005208174 -0.0012823847 0.00042173787 0.001754216 -0.00060252514 -0.0005626223 0.0009806185 0.0016678408 -0.001324805 -0.0014182506 -0.00056548894 0.0019637733 0.00020107224 -0.0017483436 -0.00058297504 0.0019253166 -0.0016417269 -0.0011495608 0.0020484691 -0.0016904835 0.0011006077 -0.00011172622 0.001358878 0.001496132 -0.00038117083 -0.0010807649 0.0017587305 0.000512913 0.0013617089 -0.0020569514 0.002153682 -0.0004700871 -0.0012922916 0.0004310849 -3.3594635e-05 0.001130999 -0.00057320826 -0.00094828336 0.00049157086 0.0016636826 -0.0012771025 0.0004903054 -0.0014750565 -0.0013708142 -4.972167e-05 -0.0018078896 0.00041862097 0.00070426747 -0.0006302256 0.0010426556 0.0018023906 0.0018698178 -0.00039796025 0.00028693996 -0.0004567253 -0.0016289498 0.0012285091 -0.00026109486 5.8580998e-05 -6.6829045e-05 -0.0010972235 0.0009099517 -0.0009412175 -0.00212907 0.0019758968 0.0008030813 0.0017936334 0.0013586691 0.00045297347 0.001971095 -0.00071224995 -0.0013839126 0.0007346738 0.00068450195 -0.0012536633 0.0019943186 -0.00077040936 0.0020702109 0.00017832148 -0.0012014116 -0.0005543299 -0.0014149293 -0.0006704294 0.0005651289 0.0018702459 0.0019241973 -0.0014223462 0.00052408397 0.00028403045 -0.00057431014 -0.002058823 0.00028607988 -0.0017123312 0.0015503103 -0.001165457 0.0011188932 0.0021804997 -2.0959149e-05 0.0008036581 -0.00037354723 0.0016191608 0.00077362277 -0.0019742567 -0.0005924568 0.00081241754 0.00021679164 -0.00041258734 -0.00022267588 -0.0004727201 -0.00028559015 0.00088695245 -0.00080282305 -0.0006341517 1.3318278e-05 4.2931206e-05 -0.00019007815 -0.00077284046 0.00076867023 -0.0001716858 0.00027881202 7.65795e-05 0.0010986796 -0.001423748 -0.0014371809 -0.0007259617 0.0019923272 -0.00017667293 -0.0018788617 -9.002893e-05 -0.000722954 0.0012331649 -0.0020889696 0.0007723591 -0.0018222283 4.9476428e-05 0.0012444437 0.0014000894 -0.0016344588 -0.0013439247 -0.0013501592 -0.0015535173 -0.0020281977 -0.0004613068 -4.3249987e-05 -0.0015049109 0.0015974485 0.00028973742 0.0012902775 0.0003288523 0.00014754216 -0.0012942202 -0.0002974824 0.00079492416 -0.0010509178 0.000273378 0.0004400076 -0.00020271598 0.0022058033 0.0019482928 0.00045118065 0.001317356 0.0010271661 -0.0010171913 -0.0011501631 -0.0013906147 -0.0017576896 0.0014436524 -0.00046188326 -0.0016827494 -0.0008584742 0.0012652572 -0.00049673225 -0.0007567358 0.0002458477 -0.0008189538 -0.00040215263 0.000114546165 -0.00053527876 0.0018174773 0.00096343696 -0.0020589852 0.001476944 -0.0015453283 2.7422528e-05 0.0009836076 -0.0011414206 -0.00037733486 0.0014950379 -0.0007647397 -0.0016483553 0.0017496853 -0.0005756078 -0.0010563936 0.0016148031 0.0008878121 0.0007894775 0.0017989159 -0.0018569867 0.0011364529 0.0003349797 0.0007781749 0.00016474583 0.0008832599 0.0010105541 0.0011251279 -0.0004851654 -0.00093096326 0.0003967211 0.0005148078 -0.00048637154 0.0013101259 0.0006515215 0.0015453222 0.00046343188 0.0016867359 -0.000271573 0.0014167271 0.00077295175 -0.001871468 -0.00074967684 -0.0006019417 0.0010728644 -0.00031053627 -0.00043463486 0.0016568298 0.0018663276 -0.00037801944 -0.0012418457 -0.0009993486 -0.001057941 -0.002332253 0.00018427252 -0.00076772575 0.00037711518 0.0010756342 -0.0006079489 -0.0020518957 0.0005700035 -0.0011957807 0.0006684873 -0.0007595959 0.001328319 -9.305966e-05 0.0006129374 -0.00068808324 -0.000525936 0.0017725778 0.00038104237 -0.0010457921 -0.0016112796 0.00045797593 0.0014247138 0.0010986353 -0.0017205017 0.0016205693 0.001035567 0.0015309347 0.0020409892 -0.001402183 -0.0017672641 0.00096498267 0.0017868567 0.00064288615
she 0.0014788295 -0.00023812489 0.0017301636 -0.0017186996 -0.0016936711 -0.0015310218 -0.00077432976 0.0012215284 -0.0006966422 -0.0017034577 0.0016836482 -0.0006839568 0.0017564589 -0.0009460165 0.00084327883 0.0008063612 0.00025708156 -0.0006715233 0.00057480327 -0.0016254237 -0.00049062725 -0.0005685189 0.0015563633 -0.0006746447 -0.0013187014 0.0008424628 -2.475901e-05 -0.00066867284 0.0011373742 0.0007591176 -0.000673531 0.00013596262 0.0018289157 0.0015287236 0.0014575657 0.001059664 0.0005415341 -0.00048255234 -0.0013486345 -0.00026280075 -0.00038249494 -0.00012816297 -0.001488629 0.0015375259 -0.0014612719 -0.0015421008 -0.0007189143 -0.0001667546 -0.0016006216 0.00010243106 -0.0011115667 -0.00030911615 -0.0015075216 0.00021051896 0.0006336894 -0.00013875648 -0.0009942583 -0.00038996644 0.0013535256 0.0007311887 -0.0017052159 -0.0007196057 0.00049251167 0.00042614303 -0.0020454128 0.0010994629 -0.0017405904 -0.0013996011 0.00076482433 -0.0006528082 0.000708807 0.0018265378 -0.0006919263 0.0018351515 0.0004873778 0.0022312913 0.0010559013 -0.0018663609 -0.0005990973 0.0013285454 0.0010717604 0.0017606589 0.0013728708 0.0018765567 -0.0021889217 0.0009860884 -0.0010414318 0.000874341 0.0013407879 0.0010503686 0.0016163111 0.0003081725 -0.00043798244 0.0012759517 -0.0010250339 0.00012630748 0.0020297172 -0.0010913801 0.00088919926 -0.0016439216 0.0018977799 0.0016553637 0.00016568552 0.0011914447 0.00034339455 -0.0012688171 -0.000289897 0.0014594904 -0.0010266849 -0.0007167951 0.0010199861 0.000467636 -0.00037350532 -0.00044159018 0.0011138739 -0.0011554057 -0.00056980446 -0.0014190786 -0.0008427033 -0.0018852302 -0.00092218746 -0.0016929159 0.0004827768 -0.00179269 -0.001887969 -0.0016322443 -0.0016110623 0.0013966574 0.0007297847 0.00012220265 -0.00040145294 -0.0013894448 3.7580085e-05 6.4185097e-06 6.9676404e-05 0.0003479206 0.00011795738 -0.00011824762 -0.0018185531 -0.0014608422 -0.0015564392 -0.0003377047 0.00043470913 0.0014156904 -0.00028362678 -0.00043104397 0.0020159928 -0.00016457803 -0.00042997714 0.0018085337 0.00068517844 -0.0011878945 0.0012505419 0.0012516963 -0.0016624542 -1.0731973e-05 0.0003309229 0.0010341443 -0.00047301187 -0.00046417565 0.00037668113 0.00013255533 0.00013223321 -0.0005686772 -0.0013780852 0.0015819563 0.0017305096 0.0017951953 -0.0016889144 0.000666577 -0.000741118 0.0021616134 0.0005828666 0.0011029718 0.00046296805 0.0011902734 -0.001213341 0.0014741651 -0.0005314221 -0.00077976316 -0.00042044514 0.0020081762 -0.0014075655 -0.00038738135 0.001396267 -6.7436806e-05 -0.0014086331 -0.0012776366 0.0016808308 0.0013178186 0.0011691233 -0.00079020817 -0.0018005221 0.0007385047 0.0015064984 -0.001116978 -0.0016261854 -0.0006449464 -0.0008494746 -0.00040328267 -0.00042051455 -0.0010159976 0.0020449362 -0.0019443759 0.0009852237 0.0011348233 -0.0002657868 0.0017108541 0.0018469971 -0.0011213291 -0.0012067488 -0.0015561192 -0.0017085392 -0.00071622763 -0.0011525884 -0.0018807917 9.115943e-05 0.0005975812 0.0011654 -0.0006905863 -0.00079385075 0.000472797 0.00010670977 0.0016532057 7.620688e-05 0.0014550237 -0.0015087463 0.0015766335 -0.00036357317 0.0018475914 -0.0015247926 0.00028979007 0.0002490559 -8.950199e-06 -0.0010463138 -0.0018633546 -0.0014587968 -0.0018092591 0.00054936437 1.8377776e-05 -0.00039806915 0.0013581583 -0.000750631 -3.659713e-05 -0.0018253453 -0.0020871444 0.0017564398 -0.0011408447 -0.0011676495 0.0010499682 0.0013344098 -0.0015926703 0.0002084775 -0.0013085168 0.00026001735 -0.0007142493 -0.0006350202 0.00067005097 0.0015460654 0.0013717092 -0.0020538422 -0.0009779021 0.0013498039 0.00035791053 -0.0008086333 0.00018401626 0.0017964664 -2.4098174e-05 -0.0020295838 0.00026220115 0.0011196166 0.0012937415 0.0009641792 -0.0012136063 -0.00016187728 1.0879241e-05 0.00093106466 -0.001843027 -0.0016254671 0.00013055539 -0.0017094943 0.0012014156 -0.00014718011 0.0018633215 -0.0007926809 -0.0002274834 0.0015982715 -0.0009315065 -0.0008573629 0.00031862938 0.00042773192 -0.0002299491 0.0013169311 -0.0015496227 0.00076762954 0.00024364865 0.0019751259 0.0010396341 0.0014716983 0.0015137986 -0.0020789807 0.0020721513 -0.0015692334 -0.0005758035 -0.0009425427 -0.0011104769 -0.0015967201 -0.0014326494 -0.0009415925 -0.00036786913 -0.001046406 0.001127815 -0.001862975 -0.0011289894 0.0020395934 0.0013939557 0.0015774112 0.0007355136 0.00014086967 -0.0012645918 0.0014574795 0.0005099253 0.0015714829 0.0011879685 0.0014842325 0.0016161327 -0.0020455394 -0.0014949844 0.00030102162 0.0012191368 0.001671342 0.0011121944 0.0015560733 -0.000872634 0.0013332326 -0.0009116645 -0.0018242506 0.0019382845 0.0002375337 -0.0006764309 -0.00056493486 -0.0007627776 0.001149738 0.00074617757 -0.0005414355 -0.0015545086 -0.0010184719 -2.7242e-06 0.0012752772 -0.00048346622 1.0354802e-05 0.00014876846 -0.001535893 0.0005550678 -0.00039492818 0.0007955571 0.00086344755 -0.0002870402 -0.0006332619 0.0014894335 0.0009594274 0.001482631 0.00097380404 0.0018200198 0.0015073775 -0.0001957465 0.0018850187 0.0009268009 0.00094499585 -0.00014478556 -0.00039133008 -0.0010283898 -0.0016631797 0.00054048706 0.0017231321 0.0016898664 -0.00039839203 0.0012755352 0.0006708671 -0.00088333373 0.0005010395 -0.0011292201 0.001825349 0.0011320458 0.0007204057 0.0008343454 0.0017273359 0.0015846924 -7.922843e-05 -0.0015050684 0.0016565787 0.0014790219 0.0002306824 -0.0002083742 -0.0010018204 -0.0006921393 0.0017063096 -0.0007016668 -0.0013604921 0.0020473108 0.0014531492 0.0018044419 0.000104341154 -0.0018589525 0.0016201483 -0.00096587464 0.0011130894 0.0010591078 0.0020230943 -0.0018554556 0.0017577229 -0.0020500247 -0.0014515596 -0.0019073449 -0.0010707444 0.0015471762 0.0019936631 -0.0007226517 0.0009191885 -0.00089809403 0.0014968276 0.0012417579 -8.991104e-05 -0.00065993855 -0.0015550354 0.0010268354 0.00021663071 -0.000592637 0.0014723041 -0.000868868 -0.001924231 -0.00042451592 -2.6952233e-05 -0.0013842297 -0.0011952107 -0.0016671936 0.0017910348 0.0014395891 -0.00020240353 0.0014904909 0.0016801883 -0.00023215041 0.0014135623 0.00074830296 0.0013912313 0.0014561473 -0.0008214714 -0.00035595917 4.6755278e-05 0.0008371329 0.00063374854 0.0010542627 0.00092837744 -0.0018228501 -0.00061275123 -0.0016272743 0.0019424595 0.0009056603 9.0379785e-05 0.0007450361 -0.0014220179 -0.0011743028 0.0006154839 0.0012675453 0.0006307986 0.0011581318 -0.00046466067 -0.0009587382 -2.2317588e-05 -0.00055517553 -0.0012084153 -0.001592307 0.0014700522 -0.00032291573 -0.00017840578 -0.0014420687 0.002006106 0.00017501872 0.00027967125 0.00033076244 -0.0015515493 0.00021715478 0.00047490268 -0.0015505193 0.0010751195 0.0005970508 0.0014814032 0.0011962487 -0.0005305601 -0.0014104554 0.0014841617 0.00030530288 0.0012188009 0.0012764061 0.00045823894 -0.0012164046 2.1019747e-05 0.0014781338 -0.0012945476 0.0018369205
it -0.0014175805 0.00090907945 0.00052939635 0.0016200407 -0.0010576017 -0.001076838 -0.0011988382 0.0008402105 -0.00083593174 0.0016681991 -0.0008810459 -0.0017591744 -0.00094357907 0.0012917768 -0.0012142833 -0.001198731 -0.0016525346 0.0011117933 0.00067016884 0.0005997138 -0.0005888765 0.0011552313 -0.0011263038 -0.00038496454 -0.001191148 -0.00021086715 -0.00036145526 0.0017523685 -0.00018411296 -0.0017241281 -0.0009910746 -0.0014028793 0.0005249998 0.0018708494 -0.0010284819 0.0017678489 0.0017593649 -0.0015061517 -0.0018596149 0.0017220309 0.0016109303 -0.0009598382 -0.0015372232 0.001606394 0.0006162248 0.0015373937 -0.0016521377 -0.0018206942 0.00025633842 -0.001981992 -0.001013876 -0.00073537946 0.0018771944 0.0015865137 -0.0005976527 0.0010585646 0.0017532618 -0.00048232765 0.0018389362 0.00141464 0.00043990093 -0.00078755995 -0.0009911361 -0.0006192545 0.0014595868 -0.0010797202 -0.00060403225 0.001890348 0.0007440269 0.0012490886 -0.0016211554 -0.00010230826 0.0011169286 -0.00096697465 0.0016187845 0.0020808536 -0.00016118659 -0.00044772998 -7.646466e-05 -0.0011397736 -0.0017341907 -0.0002967533 -0.0005072671 0.0011098934 -0.0015518289 0.001202648 -0.001382528 -0.0014098394 0.0017988756 0.0019222248 -0.0006087426 0.0007024933 -0.0013046417 -0.001652737 -0.0009979878 0.0014392766 0.0014029993 0.0018765029 0.0014853746 0.0013407794 0.00019370366 -0.0019431723 0.0008402276 2.3651566e-05 0.0013319097 0.0003643535 -0.00062258367 0.0016826252 0.00020521646 7.8197794e-05 -0.0009056027 -0.0017553036 -0.0015331466 0.0018443275 -0.0018652363 0.0017867942 -0.0017708904 -0.00014755875 -0.00037691303 -0.0019167719 0.0016991051 0.0013662975 0.0007684396 0.0009010963 0.000115142444 0.00189124 0.0011861204 -0.001906575 -0.00093660364 -0.000207258 0.00076083094 -0.0007640036 0.00024828326 -0.0016355574 0.00056007935 0.0010885228 0.00094941707 -0.00073433586 -0.0018560408 -0.0020780272 -3.9270995e-05 -0.0015217039 -0.001290786 0.001138026 0.0015208862 0.00045447238 -0.0014827717 -0.0013059364 0.0016616896 0.00086905697 -0.0009246301 -0.0016017855 9.3580806e-05 0.0009742284 0.0002030451 0.00067674625 -0.0009865676 -0.0020639156 -0.0015122483 0.00010948132 0.0009649505 0.0008692436 0.00029421842 0.000975211 -0.00017247995 0.0009086044 -0.0016387781 0.0016528574 0.0012653624 0.0011247917 0.0014427853 0.0018831699 0.00015860856 -0.0002094678 0.00010138404 -0.0019659067 0.0016399837 -0.0013584724 0.0016544546 -0.00074432476 0.00014859153 -0.0017709645 -0.0019426408 -0.0015175141 -0.0015189883 1.3929423e-05 -0.0015707631 -0.00097319175 -0.0011600972 -0.00082460156 0.0015835632 0.00085873954 0.0017647734 0.0013966751 -0.0010678535 0.0014460188 -0.0018869893 -0.0005498027 -0.0014398509 0.00088979513 0.0003471854 0.0014325411 0.0007275256 -0.0014798271 0.0016089394 -0.0011703722 0.0018160914 0.0005314067 -0.000901263 -0.0009606466 -0.00087450055 -0.0013906873 0.0017560167 -0.00061391713 0.0015128584 -0.0021009874 0.00036304758 -0.00025218158 0.0014176749 -0.0019512784 0.0015564089 -0.0008389892 -0.0011719785 -0.0011021468 -0.0006383455 -0.0006816543 -0.00052864786 -0.0015862455 0.00013832616 -2.8876555e-05 -0.00034488758 0.00068928895 -0.0014982225 -0.00066315127 0.0010314807 0.0016816575 -0.0019707128 0.0012642911 0.001194387 -0.0008475232 0.0016819466 -0.0019135668 0.0012099517 0.0012459535 0.00021039085 -0.0011295519 -0.0008761853 -0.00066163763 0.00040160943 0.00034153683 0.0014724017 0.0018130156 0.0017892417 -0.0008918703 0.0018619158 -1.588837e-05 0.0010136601 0.00072882045 -0.00028254223 0.0007462424 -0.0011556238 -0.0010378935 -0.0017091886 0.00035580865 0.0013618382 0.0002475997 0.00015499275 0.0007965456 0.0014912437 -0.0015891832 0.00035305158 -0.0014625619 0.000859098 0.0018401283 0.0014285304 0.0013141033 0.0016033882 0.0011142856 0.0013385004 0.0018079311 -0.0009901301 0.0018701451 0.0009570441 -0.0005178532 0.0019253731 0.00092557474 0.0019596373 0.00047978768 0.0020710898 0.0002270551 0.0017358385 0.0009461938 0.0013263479 -0.00073744677 0.0014268269 0.0015603591 -0.00023577413 -0.000496897 0.0008032015 -0.0014639812 0.0018106952 -0.0018218375 -0.0013243607 0.00052091543 0.0013169391 -0.001147798 0.0005512584 0.0019250239 -0.0013850825 -0.0012938573 -0.0010247459 -0.0008073855 0.00039467527 0.0018966428 0.001393381 7.164702e-05 0.0005397758 0.0015928947 0.0018630994 0.001079722 0.0014062924 -0.001539211 -0.0007201317 -0.00120503 0.0011347672 -0.00055152335 -0.0018045251 0.0014014867 0.0017175232 -0.00072254235 0.0019840458 -0.00015214855 -0.00072110264 5.547537e-05 5.260173e-05 -0.00079863775 0.00054832513 0.0012385232 0.0013566663 -0.0018811387 -0.00051230076 -0.0010367878 0.0016582367 0.0011931948 -0.00088011887 0.00037230973 -0.0014347588 9.579108e-05 0.0019127815 -0.00044977517 -0.0010243834 -0.0014865459 -0.0006704231 -5.5716264e-05 0.00064578844 0.0021087932 -0.00077158277 0.00035094918 0.0018707395 0.00025688097 0.00015612846 0.002062067 0.001923413 0.0016149734 -0.001232923 0.0020198594 0.0012808595 0.0018330554 -0.00050348084 0.0007868568 0.0013898592 -0.0008899983 0.0013663078 0.00045545236 0.0017904796 -0.0006929141 -0.0006146226 0.0012752559 -0.001900608 -0.0014761483 -0.0012306164 -0.00017190533 -0.00032660336 0.001401851 0.0019201557 -0.00015715194 0.00028221548 0.00051441847 -0.00032035692 -0.0016485761 0.0014640196 -0.0008316258 0.0008305171 0.0018808682 0.0007516897 0.0008021845 0.00080369966 -0.00059169007 0.0006791776 0.000136737 0.001057468 0.0010647458 0.00023692899 0.0009974303 -0.0018389339 0.0011107987 0.0018271529 -0.00069991394 0.00037071187 -0.0010462425 0.00015126054 0.00039682668 0.0015636869 3.998796e-05 0.0005399883 0.00033258114 0.0017964923 -0.0011837262 -0.0011036263 -0.0008615416 -0.0005271018 0.0010826299 -0.0016922109 -0.0005432933 -0.0017380295 0.0010806107 -0.00058066164 -0.0018590044 0.00070853403 0.0017317764 -0.0006775222 -0.0011424252 0.0005351063 -0.00012190786 -0.0020920883 0.0017276705 -0.0015174515 -0.0010244093 -0.0006485212 -0.0010953331 0.00042396286 0.0018761049 0.000997962 0.0016174486 0.00020755008 0.00013699282 -0.00042819564 -0.0016964319 0.0005876724 0.00041153966 -0.0019302726 -0.00095381297 -0.0019416517 -0.0012563587 0.00083617005 0.0015625126 0.00081703305 0.00041116145 0.0016685079 -0.00029598267 -0.00017987363 -0.001689087 -1.8625815e-05 -0.00054232794 -5.4641037e-05 0.0014293174 -0.0014714121 -0.0010219199 -0.0013893617 -0.0006391626 -0.00073578535 0.000397173 0.0008002412 -0.00108025 -0.0007472899 0.00032534674 0.0011866818 0.001088904 -0.0006530931 -0.0009931297 -0.0011681598 -0.00018322903 0.00028468037 0.0004464549 0.0015299303 -0.00046592532 -3.571949e-05 -0.0009796568 -0.00017030383 -0.0015322916 -0.00013822435 0.0001997354 -0.0015873917 0.0017483664 -0.0017851797 -0.0018918915 -0.0016755259 0.001331338 0.0010229504 0.0018057774
and 0.00055172894 0.0002274072 -0.00041498634 0.0020380502 0.0004606791 0.0006586163 -0.00021063237 0.00036384 0.0013866146 -0.00015706253 0.0006637669 -8.162571e-05 0.0010829371 0.000750944 0.00055616803 -0.0012067158 -0.00111474 0.00077525707 -0.0011783289 -2.006862e-06 -7.702058e-05 0.00066395086 -0.0016031924 0.0017685472 -0.000293388 -0.0010896452 0.0008500072 -0.00033363004 -0.0017427327 -0.0008973145 -3.5509306e-06 -0.0018177972 0.00010859594 0.00048121472 -0.0005167677 0.00061856513 0.0005538774 0.0019155808 0.00021188754 0.0002478059 0.0004981614 -0.00042663654 -0.0019425518 0.0016542221 -0.0005220361 -0.0020213744 -0.0014522019 -0.00069293217 0.000736611 0.0009708869 0.0011670677 -0.0013819704 0.00011249981 -0.00069605117 -0.0010510801 0.0012942442 0.00088799355 -0.0006531522 -0.0017063963 -0.0010505066 -0.00010592701 0.0015230491 0.0012240355 -0.0017053401 -0.0020410898 0.0015837655 -0.00047044412 -0.0006808893 0.0011959675 -0.0011212613 0.0010103168 -1.6631915e-05 -0.0013528339 -0.00010401948 0.0013707964 0.0020800333 0.0003658617 0.0009668625 -0.0009499268 -0.00014735812 -0.0010948495 0.00024307039 -0.00037745901 -0.00049345905 -0.0015880167 0.0020310637 0.0005654311 -0.00032260158 -0.00073344854 0.0016845057 -0.00120978 0.00063138315 1.902767e-05 0.0017710739 0.0014552155 -0.0005048506 0.00063128636 -0.00032997993 -0.0018059321 -0.00052943063 0.00022284497 0.0013278178 0.001936995 0.0019490881 -0.0015606446 0.001331025 -0.0011482734 -9.08039e-05 3.8581607e-06 0.0013946492 0.0009040742 0.0008600736 0.0018941999 0.00018650293 -0.0012882099 -0.0012786376 0.0013509573 -0.0011261575 -0.0005694766 0.00068600464 -0.0004825631 -0.001189192 -0.00031766453 0.00018148491 0.0005212216 0.0012191202 -0.0012473755 0.00066327426 0.0014175966 0.00049739884 0.0012285501 -0.00088470103 0.0011776345 -0.0015866006 0.00073378324 -0.0017172638 -0.000535452 -0.0019024902 -0.0005041872 -0.0013024381 -0.0006782009 0.00016244533 0.0006178549 -0.0003680341 -0.0015485015 -0.0011576001 0.00027572984 -0.0009408212 -0.0018325088 -7.321706e-05 0.0014475303 0.0011019112 -0.0020480375 0.00091196183 -0.0014001286 -0.0017763238 0.00017393491 -0.00014721879 -0.0014966133 -0.0011786629 -0.00045443422 0.0013998399 -0.0016021952 0.0015092666 -0.00023247534 0.0003083086 0.0020697757 0.0010719864 -0.0006861183 0.0008622075 0.000695408 0.0014422934 2.6084017e-05 -0.0007638404 0.0002512654 -0.0012069665 0.00023815638 0.0009085314 0.0010059986 0.0019390631 -0.001503993 -0.0010514266 0.0012500884 0.0003257153 -0.0013065105 0.00011851083 0.00042875236 -0.0004826588 -0.0010727036 0.0010320814 0.0021116326 -0.0015841281 5.547058e-06 -0.0005284304 -0.0012091367 -0.00025966144 -0.001097278 0.0017866055 -0.0010473753 0.00077036064 -5.0065904e-05 0.0008605274 0.0005601374 0.0019349817 0.00017738772 -0.0010573074 -0.00020687345 0.0003560452 -0.0007787129 -0.0015840483 -0.0011161268 -0.001499757 0.0011572657 0.00068996666 0.0016132778 0.0011381746 -0.0012640129 0.0005378638 0.0016142006 0.00016484516 0.00069659017 0.0013432996 -0.0017303271 0.001849329 0.0013851875 0.0016993943 -0.0015388351 0.0011655631 0.0013307993 -0.00018402882 -0.0012431387 0.0009963879 -0.0013552075 -0.0010632104 0.00067952345 0.001606306 0.001741813 -0.0010520511 -0.001708953 0.0018672568 0.0012047429 -0.0008586363 -0.0018991985 -0.00077304326 -0.0008373202 -0.0007079733 0.00014456312 -4.052973e-05 -0.0005421877 -0.0011739979 0.0018776387 -0.0011182834 -0.0014503519 0.0014336895 0.00045859048 0.0018346538 -0.0008319849 -0.001199498 4.367029e-05 -0.00021591225 -0.001973663 -0.00022249066 0.00043547887 0.0012931572 0.0013958078 0.0006948396 -0.0009825556 -0.0002209663 -0.0008965286 0.0011131766 -0.0013626687 0.00045261421 -0.00016975617 -0.0012151485 -0.0015283545 0.0011920625 -0.0016647746 -0.00032026187 0.0005384013 0.0016140263 -0.0014427509 0.00069924316 0.0019346529 -0.0014810316 -0.00048562838 0.000929876 0.0010709445 0.00022540038 0.001694936 0.0001545375 0.00029454767 -0.00011562307 -0.0016108052 0.000640419 0.00047226157 -0.0016186154 5.2659605e-05 -8.857985e-05 5.7454356e-05 0.0016836958 -0.00063869875 -0.0010612808 0.0014707572 -0.0014871311 -0.0017632688 -0.0004496157 -0.0016796136 0.00017588747 0.00036959237 -0.00056901464 -0.0013120987 -0.00014108985 -0.00019277437 0.00067026576 0.0017296635 0.0011701266 0.00171633 -0.0018897249 0.0019273584 -0.0005283554 0.0019545022 0.0004492441 0.0007551648 -0.0019827622 -0.0019991216 0.001701945 -0.0006203382 0.0004437642 0.0013276613 -0.00010292563 0.0021107567 -0.00019330652 -0.001918073 -0.0012949244 -0.00019873661 -0.0018004247 0.0014927135 0.0008107733 -0.0017640739 0.001591687 0.0017291809 0.0012249467 0.0015303714 -0.0020340323 9.009502e-05 -0.0019178342 -0.00097436405 9.791237e-05 -1.3116401e-05 0.0003608768 0.0006656863 0.00040777746 0.0009561393 0.0016125251 -0.0012599179 0.0017655026 0.0011014264 0.0019522978 0.000862058 -0.0007102145 -0.000768749 -2.823002e-05 -0.000268605 0.0020613335 0.00023858466 0.0008124204 0.0007798124 -0.0017729301 0.0012261252 0.0017527628 -0.00032153554 0.0003498771 -0.0012664378 -0.0012715892 0.001598526 -0.00069611444 0.0013721312 0.00033186728 -0.0004627998 0.00059971306 -0.00074058777 -0.00038765135 0.0004192322 0.001029368 -0.00020180926 0.0001430262 -0.001589412 0.002006343 -0.0016776569 0.0013577531 0.00075824244 -0.0013733755 -0.0011422248 -0.0015319725 -0.0008919659 0.0015909115 0.0019131143 0.00037542175 3.709063e-05 0.0019696786 -0.0010640899 -0.00028586492 0.00055863004 -0.0014203003 -0.0019891732 -0.0020337033 0.0017898546 0.0012265003 -0.00089524046 -0.0016689197 0.00019662577 0.000416125 -0.00029798035 0.00019814624 -0.00083705416 0.0010017247 0.00042011932 0.0017291633 -0.0018484654 -0.001174325 -0.0018965369 -9.1200167e-07 -0.001630541 0.0010381604 -0.001350286 -0.0011337748 0.00095945393 -0.0016853516 0.00020561685 -0.0015137214 0.0019052426 0.001746424 0.00030062645 0.0011176515 0.00085042825 -0.0011726023 0.0019035694 -0.0019783708 0.0014960347 0.0005746732 -0.00053052773 -0.0007556551 0.0018923924 -0.0010918748 0.0019241642 -0.0011999173 0.0017873179 -3.067846e-05 0.0014721112 -0.00063837814 0.0011635831 0.0018067282 0.00052423816 0.00015866868 0.0010169806 0.0014588251 0.0017191968 0.0016277885 0.0014602884 0.0015165191 0.0018069765 4.8633294e-05 -0.00021752175 0.00029805597 -0.0001198383 9.990981e-05 -0.0017741267 -0.0021474713 -0.00051390356 0.001843485 -0.0008144403 -0.0014203673 0.0011145214 0.00012307124 0.00052979833 0.0008160426 0.00083347113 0.0011329327 0.00017917808 4.6373345e-05 0.0017276192 0.00045720788 -0.0010406954 0.0014358187 0.0010991391 0.000648312 -0.0006333546 0.0008158412 0.0013319844 0.0014206253 0.00024207984 -0.0017875292 0.00018510659 8.5146756e-05 0.0008382784 -0.0018579081 0.0019535923 -0.0015248009 0.0010968727 -0.0019141295
was 0.0019722916 0.0015234716 0.0003365499 -0.0005602666 -0.00014222148 -6.617944e-05 -0.0012486369 0.0013134121 0.00052082597 0.00074357213 -0.0014622426 0.0017519699 0.00012703314 -2.8289249e-05 -0.0017842056 0.00068661635 0.0011839815 0.0013887252 -0.0012734944 -0.00154069 -0.0010620586 -0.00016533953 -0.0015720682 -0.001637184 -0.00038830322 0.0002308535 -0.0018682451 -0.0006967899 -4.8475493e-05 0.0013824865 0.00043393904 -0.00015274162 -0.0015104834 -0.0013569952 -2.418328e-05 0.0015737964 0.0011246699 -0.00037048664 0.00017721242 -0.002071895 -0.00032066152 -0.0009455927 0.0010016455 -0.00043661575 -0.0010693623 -0.001979304 -0.00036005126 -0.0013641627 -0.0003985258 -0.00083791086 -0.00051788904 -0.00070029206 -0.0016509889 -0.00036784887 0.00032376024 -0.00089761603 -0.0014288755 -0.0007280207 -0.0018661898 -0.00016625316 0.0012147622 -0.0006113199 0.00066435506 0.0009838009 0.0015880135 0.0012528105 0.0018747984 -0.0018714451 -0.0015404724 -0.0013201648 -0.0015194813 -0.0015574157 -0.0015449916 -0.0006047332 0.00037728625 -0.00038153573 -0.0018405967 0.000983724 0.00023211693 0.0009586672 0.001417313 0.0015357884 -0.00015683389 0.00092666555 -0.0011872172 0.00048684498 0.0008953785 0.0020987378 -0.0005458551 0.0006792025 -0.0010694214 -0.00042009345 0.0015140777 -0.00070416543 -0.00015313314 -0.00178993 -0.0017924588 0.0017791464 -0.0010804876 0.00101167 -0.0014536168 -0.00047196474 -0.0016602369 0.0016151972 0.0012804699 0.001065402 0.0016536744 -3.14744e-05 -0.0019478977 0.0018812686 -0.0009677894 0.001522761 0.0011139676 -0.00012362235 -0.0015998302 -0.00029644385 0.001300478 -0.0014760575 0.00026757145 -0.0016992281 0.0017370716 -0.00056026893 0.002020252 -0.0011932082 -0.0018700835 -0.001710677 -0.0010013697 0.0009914491 -0.00010094777 0.001894652 0.0007593517 0.0008492119 0.00055754307 0.0015701533 -0.0004728476 0.001617128 -0.0019541602 0.00049553777 -0.00028524897 -0.00012104031 0.0014556535 -0.0006233363 -0.00040120605 -7.738882e-05 -2.5264888e-05 -0.0006805253 0.0013312448 -0.001454238 0.0016317979 8.372974e-05 0.00061678526 0.0005542086 -0.0001250072 0.00058726233 -0.0008265402 0.000999067 0.00016308784 -0.00073796825 -0.0018408884 -0.0019425895 8.983536e-05 -0.0011745224 -0.0002827943 -0.000880449 -0.0018526755 0.00029108574 0.0013416072 -0.0003445767 -0.0014058118 0.000721873 -6.791697e-05 -0.0009359009 -0.0002155826 -2.3179346e-05 -0.0006454659 -0.0020839646 0.0015023667 0.00067882135 -0.00054321793 0.0015506583 0.00011225393 0.0014648587 -0.00033486186 0.001545357 -1.5529138e-06 -0.001262364 -0.0010596084 0.0019362725 3.8099606e-05 0.00022692986 0.0018512466 -0.0013608588 -0.00032603074 -0.0016515868 -0.0012841328 -0.0017220997 0.000754806 0.0005111178 0.0012229721 0.0005465499 0.00041006325 0.0011603365 -0.00030960707 0.00056277897 0.0017465521 0.000103967825 0.0012936316 -0.0013995846 0.0012290684 0.0009380954 0.0010332919 -0.0021308237 -0.00017866067 0.0005650554 -0.001209285 -0.0014715131 0.0012405087 -0.0013537256 -0.0011226115 0.0014879204 -0.001351745 0.0018818318 0.00015564659 0.0009002662 -0.00056958204 -0.0010873282 -0.0016918612 -0.00020027047 -0.0010039211 -0.00053744105 0.0016279103 -0.0015887809 -0.0012373453 -0.0010539348 -0.0013239972 -0.0017879598 -0.00022441884 0.0017409318 0.0017353578 -0.0011179821 -0.001656754 -0.0005052953 -0.0020525833 -0.00084681786 -0.0012258446 0.0005277045 -0.001539851 0.00027219683 0.0005232198 0.0010998887 -0.00040617955 -0.0021043157 0.0010735262 -0.0012422726 0.0009296102 0.00050103216 0.0018108515 0.00046314375 -0.000495948 0.0013211372 -0.0015022233 -0.0015923273 0.00059828046 -0.00053468515 -0.0008004039 -0.00033761747 -0.0020552995 0.0001959777 -0.0003033745 -0.0006319251 0.00041741531 0.0009567897 0.0013720578 -0.0016412316 -0.0010689436 -0.0017321209 -0.0017978932 -0.0009031585 -0.0002745549 -0.0015756296 -0.0010867405 -0.00040698846 0.0012235068 0.000224114 0.0018679063 -0.0017606573 -0.0008891568 -0.00023473447 0.0018536535 0.00020676121 0.00024780407 0.00043523422 0.0005878118 -0.0018838487 0.0007236962 0.0011983863 0.0012130798 0.0007797072 -0.0015551108 -0.000861018 0.0015558164 -7.6158713e-06 -0.001916831 0.0009269275 -0.0011989543 0.0012453244 0.0010848108 -0.0009274412 0.0004968256 0.0010118629 -0.0007408928 -0.00037249547 0.0018689989 0.00178977 -0.0017970655 0.0015308296 0.002004986 -0.00063929433 0.00052664976 -0.0006148635 0.0019162793 -5.6251454e-05 0.001160407 0.0017704491 0.0007210447 -0.001507351 -0.00043023346 8.655951e-05 0.0004434765 0.000552988 0.0020360297 0.0008764409 0.0020074146 -0.0016248139 -0.0011295048 0.00032794333 0.00072361337 -0.000116305244 -0.0014113408 -0.00074457756 -0.0017695529 0.0019371497 0.00087895134 -0.0016750703 0.0006282995 0.0007666224 -0.0013458651 -0.0011530246 0.0002443885 0.0018617229 -0.0019186679 -1.581905e-05 -0.001475179 -8.3257786e-05 0.0005591797 -0.00086191064 -0.0006329431 0.00010614633 -0.0013284825 0.0014332685 0.000834619 -0.0016215086 -0.0003806792 0.00072069705 -0.0016613821 -0.0013991563 -0.0016045616 -0.0010963851 0.0016667636 0.001531425 0.0005851473 -0.0018261936 0.0011977827 0.0008960932 -3.028627e-05 -0.0018338305 -0.00036707488 6.638489e-05 -0.0016134587 0.00047961136 0.0001586143 -0.0014301778 -0.001520336 0.0012509812 -0.0016051834 -0.0010936962 0.0011091535 -5.004011e-06 -0.00055426493 -0.0010771282 -0.00026657787 0.0010968484 -0.0012618812 -0.0009233545 -0.00085911807 -0.0008108368 -0.001619981 -0.002003406 0.001440046 0.0016561021 -0.00092160556 -0.0018804956 -0.0004816582 -0.0008610749 0.0017745834 0.00041817327 -0.001207983 -0.0005473657 -0.0019210542 0.00038630597 -0.00084391015 -0.0006734592 0.0009859784 0.0014658477 0.0009237945 -0.0013018138 0.0014508803 -0.0019785217 -0.0012803611 -0.0016986931 -0.00052421866 0.0001648914 -0.00083410204 0.00039888255 0.0017834629 0.0013733258 -0.0002787258 0.001782493 0.00022484399 -0.00046266662 -0.0013738901 0.0013030269 -0.0018681312 -0.00041054396 0.0014675494 -0.00047660462 0.00026721685 -0.001500997 0.0009053075 0.0014707942 -0.001797181 -0.00070889696 0.0016457731 0.000576552 0.00026143162 6.984629e-05 -0.0018940273 0.0020520356 -0.0004965854 -0.0009866706 0.00052878616 0.00023292958 -0.001180676 0.0010708641 -0.00047266672 -0.0013666372 0.0014607827 0.0012321835 0.0017923784 0.00017971196 0.00018141682 -0.001526536 0.00092352944 0.0018668309 -0.00024045083 -0.00037306565 -0.00082437956 -0.00030739896 -0.0015705382 0.0011975899 0.00023050114 0.0018415591 -0.0011644724 -0.0011052577 -0.0011067608 -0.0013722441 0.0006419847 0.0009683453 0.00022894419 0.00059509004 -0.0019360486 -0.00028703202 -0.0016578963 0.0007001951 -0.0004846717 0.0018355455 -0.00071225275 0.0014796582 0.00087709795 0.00027282978 4.499668e-05 0.0015642403 0.00060567015 0.0016654244 0.0007224503 0.0011081853 0.0010450296 -0.0016343995 -0.0012137843 0.00020672008
. 6.875369e-05 0.00045176884 0.0002648506 0.001612734 -0.00094065105 -4.2218708e-05 0.0014090426 0.000568423 0.0008813568 0.0008581623 -0.0002547359 -0.0016325539 0.000613139 -0.0017548522 -0.0005230894 -0.0019650327 -0.00020898349 -0.0016164179 0.0014831264 -0.00095899595 0.0020257034 -0.0018379529 -0.0008073312 0.0003974843 -0.0005966368 0.00028203314 -0.0007051301 -0.00015819872 -0.0012547384 -0.0019764113 0.00132571 6.404128e-05 0.0013007779 -0.0015102037 0.0008127294 -0.0019217125 0.001541884 0.0011447256 -0.0012691225 0.0015432854 -0.0011413478 -0.0017090484 0.00018848326 0.00065885665 -0.0017051196 -0.0018423502 0.0017565131 0.0003927443 0.00014968296 0.00048025348 -0.0007331515 0.0003151029 0.00037772846 0.0018643057 -0.0011249044 0.0003958306 0.0013262423 -0.001356073 -0.0018055467 0.0017266077 0.0014007605 -0.00083205773 0.0011599822 0.0001586774 -0.001079987 -0.00018389862 -0.0009823896 0.0012690013 0.0004231904 -0.0016359477 -3.8151655e-05 -0.0005163957 0.0013277784 -0.00024773422 0.0016091873 0.00052422157 -0.0008206523 0.0016093543 0.0006211277 -0.00076409365 -0.0011323761 -0.0006051355 -0.0010342347 0.0008104833 -0.0019743615 -0.0011115826 0.00064798683 0.00012342582 0.0012489681 -0.00063424534 5.714543e-05 0.0004902273 0.0010072489 0.00037986238 0.0020133783 0.0007910001 -0.0013725486 -0.00028451323 -0.0016124807 -0.0010732092 -0.00046135663 -0.001927855 0.0018183088 0.00048279125 -0.00019404615 -0.0010966649 -0.0017262469 -0.0019113785 0.0017245957 -0.00045261893 0.0009250681 -0.00092161965 0.001991841 0.00079236424 0.00015245043 -0.00081700715 0.00027744274 -0.00057874795 0.0014701674 0.0008127539 0.00019218845 0.0007011656 0.00084360153 -0.0013941078 0.0018239174 0.00034183348 -0.0012837846 0.0017513849 -0.00027271698 0.0016652425 -0.00022142581 0.0014527832 0.0005232807 -0.0009331919 -0.00072751165 0.0019210146 0.00029022605 -0.0012517634 -3.5518216e-05 -0.000540234 0.0003886136 -0.001581698 0.0015191453 0.00023591708 0.001638594 0.0009049914 -0.00082533376 0.0006507666 -0.00010064653 -0.0019128685 0.0017177286 0.0018772773 0.0018855614 -0.00058564375 -0.001818511 0.0010009327 -0.0014412928 0.0016609179 0.0004912527 0.0011635863 0.0012414956 7.147692e-05 -0.0004663963 0.00013104042 0.0018767911 -0.0013643665 -0.00019214863 -0.00039541032 0.0009854913 0.0013660266 -0.00084437005 0.0008466634 -0.0009014899 0.00073773594 0.0016161858 0.0006510803 -0.00095016824 -0.00063875364 0.0015591974 0.001985566 0.0011648049 -0.0006326165 -0.0003882159 -0.0012202413 -0.0008403668 0.00065389404 -0.0013652308 -0.0013137263 0.0015756317 0.0019390628 0.0017358024 0.0002311084 -0.0017490875 -0.0015453867 0.00035126586 -0.0018960979 -0.0015233821 0.00036979117 -0.0005235668 -0.0018131763 0.0012840213 -0.0017828624 -0.0013864805 -0.0003771618 0.00036317197 -0.00017581282 -0.0010161137 0.0012722928 0.001683028 -0.0014838199 0.0019550903 0.0013688114 -0.0015563943 -0.0004300455 0.0008376445 0.001315117 -0.00075283385 -0.0014013017 0.0008931003 -0.0019028557 -0.0011127583 -0.00013798496 0.0011216924 -0.0011169871 0.0009753657 -7.585447e-05 0.0005920044 0.0012362502 0.00027635178 0.0015777276 -7.2722796e-05 -0.001700036 0.0018465564 -0.000970235 0.00095038407 -0.0007890767 -0.0014751351 -0.0014081534 0.001019333 -0.00016907601 0.00026623512 -0.0018335751 -0.0011601063 -0.0010971153 0.0016646165 -0.0017810928 0.00097360514 -0.00016253913 7.97922e-05 0.0017769282 -0.00071330543 -0.0015050911 0.00015738752 0.0014865546 0.0017989044 -0.0006805862 0.00058063684 0.001094164 -0.0011580857 0.0013843274 -0.0013642906 0.00048419827 0.0008113749 0.0008633218 -0.0009117298 0.00056274247 0.0014049571 0.0018182641 -0.001972774 0.0010927168 0.00092572736 -0.00030737324 0.0019167748 -0.00086972746 -0.0003986199 -0.0013785443 -0.0007523297 -6.376041e-05 -0.00066821155 -0.001039737 0.0013171051 -0.0010231027 -0.0012907762 0.0014786075 0.002071702 0.0007393373 2.3334102e-05 0.00010092554 -0.00013251838 0.001363702 -0.0013047572 0.00022510295 0.0008721179 -0.00043427228 0.00023003563 0.00081994844 0.0020514014 0.00037021135 0.0019334729 -0.0011987549 0.00088134944 -0.0006526599 -0.0008773445 0.00022826483 -0.00080088206 -0.0011878023 0.0006382642 0.0017250989 -0.0013243019 -0.0018813382 -0.0006775796 0.0014516511 -0.001928635 0.001903985 -8.725815e-06 0.0004639888 -0.00035061748 -0.0012124678 0.00064566854 0.0012151251 -0.0012895935 -0.0002332878 0.0003342703 0.0008085769 0.0013823329 -0.00076779386 0.0014192346 -0.0011935554 -0.00041248734 0.0017886 0.0011749282 -0.0017022836 -0.00032394123 -0.0017020705 -0.00032780578 0.0011035472 -0.0014836997 0.0011746546 0.0012126977 -0.0008231696 -0.0019671407 -0.0004599397 -0.00041906137 0.00068250095 0.0017797045 0.00035831777 -0.00057530595 0.000624152 -0.001345816 -0.0002134035 -0.00029133764 0.0019054406 -0.0012165027 -0.0013353367 0.000426432 0.0006301742 -0.0014732888 -0.0011986819 -0.0002709193 -0.00067164714 -0.0018188136 -0.0007410999 -0.0005691729 0.0013503436 0.00020164851 0.00032186147 0.00012257509 -0.0006771328 0.0005498536 0.00021025418 0.0012047469 -0.0002341536 -0.0017567487 0.00014622232 0.001965476 -0.0011018743 -0.001035619 -0.00047816834 0.0016669047 -0.00018171871 0.0019134079 -0.001691679 0.0018827756 -0.0019203897 0.0018850587 0.0003922492 0.00052760204 -0.0011159902 0.0017397769 0.0011856201 -0.0011135389 -0.001882288 0.0013577722 -0.0010589845 -0.0017904979 0.0006309342 -0.0010148733 -0.0015071828 0.0019003317 -0.0002797444 -0.0003533049 -0.0008351981 -0.00093839545 -0.0010144513 -0.0011450506 -0.0011635217 -0.001618802 0.001996708 0.001304033 -0.0007253954 0.00045490562 -0.0016280866 0.0014828759 0.0016240774 0.00017769492 -0.0013300253 -0.00052313315 0.0009171116 -0.00051449455 0.00055688946 0.0018409679 0.00091470487 -0.0010796019 0.0011186114 -0.00063714065 -0.0012499202 0.0013666826 -0.0019011227 -0.00027875908 -0.00031519815 -0.001741001 -0.00021065363 0.0010917579 -0.0010777587 -0.00144979 0.0012647659 -0.00071580964 -0.0015922848 -1.1161979e-05 1.0450487e-05 0.0015656973 7.674666e-05 0.0016225647 -0.0019763196 0.0009841324 0.0012526097 0.00026718545 -0.0005257857 0.00013819031 -0.00018111135 -0.0016337108 -0.00134013 0.00025257084 -0.0004788663 0.0019121674 -0.00027007255 0.0012140488 0.00035611689 0.0016515224 -0.0018960348 0.00053033954 -0.00025852124 0.0004253169 -6.6610155e-05 -0.0013967904 0.0017980756 -0.00060544815 0.00024753276 -0.0013320246 0.00076350954 0.0019560708 -0.00025381843 0.0013956975 -8.3299274e-05 0.0016892387 0.001973887 -4.050475e-06 -0.00035118827 -0.0019463996 0.0018989703 -0.00054943335 0.0003811611 -0.00040810526 0.0017544731 0.0016937259 0.00035623525 0.0005613668 0.0013752695 0.00048937654 0.0012886609 7.405048e-05 -0.0005112005 0.0011403185 -0.0006571596 -0.00049469096 0.0017634518 -0.0018244092 -0.0007597091 -0.0006277611 0.001113939
of 0.0016417567 -0.0012180938 0.0013267349 0.00018177391 -0.0019341852 -0.0007491359 -0.00027938845 -0.0006129938 -0.00012324993 -0.001076246 0.001175307 0.0019502103 -0.00030101952 0.0007000694 -0.000107518485 -0.00036519757 -0.0016830757 0.00015042466 0.00079474726 0.0013976009 0.0013788558 0.0006442642 0.0010718163 -0.0014804653 -0.00025481626 -0.0011718675 0.0014245019 0.0016119081 -0.0011531238 0.0002332813 0.001128323 0.0003222175 0.0001580081 -0.0014078576 0.0021870881 -0.0013219983 -0.0011084387 -0.0012660009 -0.0013788005 -0.00097476545 -0.0019762982 0.00018915682 -0.001085811 -0.00042881462 0.0009566458 0.00057691685 0.00015514401 -0.000115991905 0.0018921837 2.5074145e-05 0.00094323716 0.0017539882 -0.0020158025 -0.0020477434 0.0019562414 0.00038459152 -0.00022538942 0.00089400896 -0.0009459866 -0.0012979781 -0.0015898041 0.0013884304 -0.000455424 -0.0015205505 -0.0013651076 0.0014689604 -0.000516628 -0.0011365493 -0.00024595868 -0.00024190659 -0.00067990104 -0.00035724396 0.0008395951 0.00024942955 -0.0005022439 0.00086655875 0.0009332805 -0.0018967915 -0.0014152995 0.0013071666 -0.0018552894 0.00014939914 -0.0018142961 0.0020127308 -0.0011400362 -0.0011551258 -0.00032186578 3.874066e-06 0.0016502683 0.0020388674 7.377167e-05 0.000532726 0.000744256 0.00017246803 -0.0010161329 2.0056994e-05 0.0006013752 0.0016424177 -0.00056047493 -0.0019752446 0.0010007876 0.0020082062 -0.0014959063 9.341854e-05 -0.0009268353 0.0013183496 0.0019173428 0.00012264201 0.00088880083 0.0014124191 0.0009010676 -0.0016807033 0.00063692237 -0.00012309047 -0.0005501012 0.0010777519 -0.00017715516 0.0018452583 -0.00015965034 -0.00014807475 -0.0004915972 -0.0016800442 -0.0017287586 0.0009003282 -0.0012080894 0.00059039035 0.00021561663 -0.001322413 -0.0006835602 -0.0010579006 -0.0014811313 0.00014715864 0.0018672574 -0.001445894 -0.00085455086 0.001911224 0.0018216793 0.0018324454 -0.0022366159 0.0006511601 -0.0011575213 0.0012731531 0.0013187889 -0.0007641186 0.0015223165 -0.0015331239 0.0010710459 0.0006606439 0.0012619707 0.0013116021 -0.00033654002 0.00064789556 -0.0013159538 -0.0008528118 0.000216309 -0.0017946811 0.00013800597 8.583243e-05 0.0014508666 -0.0012942662 -0.00039590843 -0.00087796914 -0.0011620241 -0.00019380088 0.000700848 -0.0008689127 -5.2557272e-05 0.0019148333 -0.00020227939 -0.00053854607 0.0014467959 0.00053848565 -4.167851e-05 0.002094391 0.0016077575 0.0005074573 0.0005823187 -0.000566214 0.0015569614 0.0011725106 -0.0010665176 -0.0011423882 -0.000172893 -0.001503255 0.00070648885 -0.0019171392 -0.0005013795 0.00067553547 0.00046660195 0.00069594756 -0.0015614744 0.0005124305 0.0010994619 0.0006420605 0.0016379862 0.0003334822 0.0011809599 0.0017181793 -3.1882926e-05 -9.925811e-05 0.00042412573 -0.0014610129 0.0013369293 -0.0011032254 -0.0005476171 -0.00031194772 0.0016657675 0.00037495102 -0.00031942237 -0.0006172843 -0.00039987522 -0.0005179272 -0.0011836576 -0.00096231134 1.9714425e-06 0.0006413606 0.0002849054 0.001374638 -2.6936246e-05 -0.0008538606 -0.0013940498 0.0014790283 0.0014322385 -0.0011529204 0.0009985956 0.001905973 -0.0010786015 -0.00070801337 -0.0018281582 0.00077224534 -0.00069713633 0.0003211813 0.0018996693 -0.0016748761 -0.0018705482 0.00032885466 -0.00161758 -0.0020744426 -0.00164974 -0.00015735356 -0.00029437177 4.295989e-05 -0.0005799082 0.0020820461 0.0017078359 -0.001396387 0.0016745345 -0.0017701957 -0.0001508302 0.00053620635 -3.4496486e-05 -0.0010500754 0.000116240975 5.9385005e-05 -0.0019537027 -0.00081067876 -0.0014495249 0.0010366659 -0.00041290512 -0.0014500509 0.0010018761 0.00020088632 0.0002587687 0.0010462727 -0.0008038414 0.0016697372 -0.0017377512 -0.0004174906 -0.001658003 0.00014362448 -0.0016203218 0.0018654154 0.0013122458 -0.0015410486 0.001088279 0.0013746571 -0.0014536406 0.00065744005 -0.0015735542 0.0019712944 0.0009500993 4.7596777e-06 -0.0018708392 -0.00033071765 0.00031631064 4.1460764e-05 0.0017888112 -0.00071178115 -0.0015532577 -0.0018019559 -0.00033359104 0.00061143294 5.2275347e-05 -0.00046385813 0.001839078 0.00021180925 0.0015893542 0.0006091517 -0.0013595448 -0.00050858693 -0.0017486691 -0.0011614198 -0.0006617651 0.0012735177 -0.0001281115 0.0016328812 -0.000451848 -0.0009000377 0.0007495696 0.00032056592 -9.0210895e-05 -0.0006237629 -0.0011412567 0.00074323034 -0.0013577959 -0.0017877952 -0.0017673433 0.0015415461 0.0008740155 0.0013661904 0.0022988888 -0.0014720032 0.0008595996 0.00045253517 0.0010826788 -0.00082044647 0.0017945803 -0.0013252719 0.0014834295 0.0013024627 0.00016920787 0.0010200585 0.0013439575 0.0004600585 0.001495262 0.00038785415 -0.00032085102 0.0016005504 0.0009099563 -0.00078838627 0.000244963 6.493466e-05 0.0012124166 -0.0012631428 -0.00083579525 -0.0003056378 0.00039339683 -0.0012669567 0.001625023 -0.00052653 0.0011893581 0.00053450756 0.0012189593 -0.0007145716 -0.00075438264 0.00086141896 -0.0006981257 0.0011468618 -0.0012959525 0.00049059803 -0.0001842448 1.7008197e-05 0.00058934034 -0.00033099623 -0.0008359839 -0.0016819771 0.00063954433 0.0010744395 -0.0013534742 0.001989449 0.00083472533 -0.0012017059 -0.00020787466 0.0007084778 -0.0014984129 0.00029475454 0.0011110387 0.0013137959 0.00096894323 0.0006864249 -0.00043932538 -0.0012496839 0.0018405507 -0.0013918524 -0.00022211518 -0.00060656713 0.001299796 -0.0010858063 0.0008050807 0.00032308482 -0.0008538006 -0.0015879716 -0.0017201266 0.0007830408 -0.0016877389 0.0014134271 -0.00061359257 -0.0019295871 -0.0011507592 0.0016585237 -0.00045996928 0.001230115 -0.00203099 -0.0020712786 -0.0010989308 -9.8994984e-05 -0.0014666298 -0.0016626585 -0.0017115875 -0.00010782155 0.0013949958 -0.0019175869 -0.0011518662 0.0001932202 0.0007011703 -0.0016021131 0.0017625656 -0.0017053761 0.0011844666 0.0016865402 0.0010219528 0.0013175249 0.0015484166 0.00073981617 -0.0015510716 0.0012067265 -0.0017569705 -0.0012143846 0.0010402076 -0.0016945145 -0.0012954273 -0.00067425857 0.0005925556 0.0009790964 0.00026504244 0.0010831798 -0.00060675445 0.0008200192 -0.0015738913 -0.000329185 -0.0014459628 -5.165579e-05 0.0010645587 0.0009698318 -0.0004753199 0.00037091237 0.0017229638 -0.0010004299 -0.0009121976 -0.00012294603 -0.0009856088 0.001804884 0.0015287402 0.0016647624 0.0018807568 -0.0019451879 -7.444792e-05 -0.001628311 -0.0008802722 -0.0018824909 0.00081505545 8.863379e-05 -0.0013703953 0.0015667666 -1.7335846e-05 9.880503e-07 -0.0008025567 -0.0010058964 -0.00060822035 0.0016409893 0.0003567351 -0.0010561323 0.0011682194 4.9099872e-05 -0.00029482562 0.0016882017 -0.0006235491 0.001474643 -0.0009207347 -0.0016922088 -0.0009881235 -0.000938746 -0.00030573833 -0.00014293098 0.001116884 0.0012006797 -0.00039171535 0.00095000264 -0.00032675528 0.00015638306 -0.00018926659 -0.0005871383 -0.00071116106 -0.00083367724 0.00011187082 0.00038615716 -0.0018794923 0.0010288237 -0.00042783478 -0.000659913
i -0.00091678015 -0.00081703166 -0.00088353676 -0.0018087787 -0.00023589675 -0.0017301424 -0.0009405361 -0.0012555268 0.00204005 -0.0002938972 -0.001575278 0.0011632517 -0.0016033803 -0.0003847578 0.00057605305 -0.0015601277 -0.0019356696 -0.001439467 0.0014752684 0.0018328389 0.00083185657 0.00044180133 0.0009424034 -0.0007995526 0.001958244 0.0013625738 0.0008632463 0.0018418401 -0.0018828855 0.00018714636 0.0018747511 -0.00022432432 -0.0013490418 -0.00048172675 -0.00041950642 -0.00037705325 -0.00030353322 0.0013653598 -0.00014515343 0.00067061593 -0.00082493824 0.0016240999 -0.0015078749 -0.0018297578 -0.0009785729 -0.0015614466 -0.0011203338 0.00018012268 0.00041532973 0.00034781854 0.00097049447 -0.0003236595 0.0004155008 -5.9098067e-05 0.0015437109 0.0015021802 -0.00029597591 0.00022893822 -0.0012660178 -0.00096831884 -0.0013544933 -2.1360696e-05 -0.0009731994 -0.0008218128 0.0001634574 0.0006856803 -0.0018413468 0.0004143114 0.0010854076 0.00086359895 -0.0005982817 0.0019620494 0.0018948938 -2.1182826e-05 0.0002918783 -0.0016244585 -0.0010454103 -3.7119644e-05 0.0008443047 5.9786427e-05 -0.0017920713 0.0011855897 -0.0014760774 0.0019533269 0.0009060463 -0.0012465155 0.0005504335 0.0016972801 -0.0011126967 -0.0011657792 0.0019364252 0.00037801903 0.0018264942 -0.0018857166 -0.00019609662 0.0014762993 -0.00017380987 -0.00035901216 -0.0013439663 -0.0011255641 -0.0013465073 0.0018114271 -0.00036743027 -0.0015106215 0.0016838379 -0.0005729932 -0.00027888318 -3.930686e-06 0.0004684482 -0.0008970031 -3.6423167e-05 -0.00063672103 0.0017700198 0.0014967312 0.0001268228 -0.0012288734 0.00070640125 0.00013413551 -0.0012238832 -0.0012845428 -0.000650337 0.00049137586 -0.0014532086 -0.0010555475 0.0017059118 -0.0007427947 0.0013717209 0.00016831231 -0.0011603574 -0.0009502151 0.00010767027 0.001008899 -0.0012519398 -0.0011789082 -0.0013615317 0.0015112382 -0.0005323187 0.0007006229 -0.0004955929 -0.0017338652 -0.00014525956 2.7842292e-05 0.00079962704 -0.0018022713 -0.0012697411 -0.0012613178 0.00070573116 -0.00093271956 0.00025582738 0.0009391777 0.0010213387 0.00036470656 -0.00064918835 0.00042145388 -0.0013057037 -0.001202294 0.0018884578 -0.0008979313 -0.0019892186 0.00081913837 0.0017293827 -6.7892805e-05 0.00037483516 -0.00077317265 -0.0009917474 -0.0016413289 -0.0013780349 -0.0016994801 -0.001167408 0.0018104939 0.0018950929 -0.00015704196 9.685151e-06 0.0017113645 0.0002429018 -0.0011448842 0.00047857678 0.00028982753 -0.0007779143 -0.0008784866 0.0019545779 0.0015733605 -0.0017574307 -0.0010490665 0.00032090663 0.00013076603 -0.0017840764 0.0018761676 -0.0011707841 0.00095236424 0.0020337673 0.00011075879 0.00087290315 -0.000570622 -0.0018641133 0.00011917964 -0.00025250745 -0.0020267316 0.0015117782 -0.0014435016 0.0010089513 -0.00085997285 -0.0016856075 -0.0018980015 0.0013128936 -0.0010019747 0.0010869617 -0.00036169347 0.0018493392 0.0014170614 0.0019838081 0.0015068578 -0.0016812717 -0.0020020802 -0.0011526163 -0.00033970666 0.0009495036 0.00072717934 -0.00050915853 0.00086442643 -0.0006079401 -0.001159236 0.0009707302 -0.0019489543 0.00021924588 -0.0009970939 0.0016334628 -0.0008281762 0.00056094857 -0.0011574031 0.0019184838 -0.00117152 0.000726398 0.00064365665 0.001778614 -0.001141117 -0.0008879495 -0.0014193696 0.0013624815 -0.0009996737 0.0009279699 -0.00024286877 0.0012057835 -0.001022602 -7.284335e-05 -0.00011265217 -0.0017368657 0.0017499528 -0.00035762144 0.0013021544 2.1441805e-05 0.00080069964 0.0004626227 0.0016752145 -0.001711859 0.001809253 0.0017774452 0.00041767003 0.0007363524 0.0007863269 0.00071133085 -0.0004910106 0.0003827705 0.00013567488 0.0010117042 0.0017683373 -0.0016576229 0.00018271766 -0.0018821111 -0.00036245276 -0.0019163518 0.00067531783 -0.00019524296 -0.00020026781 0.0011991007 -0.0016105284 0.00022659144 -0.0006645828 -0.0007805897 -0.0013789856 -0.001615229 0.001689386 -0.0015459284 0.00087816996 -0.00053413503 -0.00034301408 0.00060370733 -0.0018181887 -0.0010174512 -0.0015562855 -0.0019530522 -0.0007335517 -0.00062588946 8.531299e-05 -5.6685578e-05 -0.0014651786 -0.0005666961 -0.0006768946 -0.0012223404 -0.0013440571 -0.000661191 -0.0014578964 -0.0016815357 -0.0015528535 0.0007397831 -0.0015930672 -0.0007236972 0.0014262276 0.0014567781 -0.0013536552 0.0013333216 -0.0016344264 5.5762255e-05 0.0012889326 -0.0004664636 0.0018558967 3.5067947e-06 0.0008294124 0.0014344974 -0.0017369073 -0.0009992059 -0.0014618621 -0.00019711874 -0.0014897058 -8.080265e-05 -0.0017028386 3.9010607e-05 -0.00020355948 0.0013278384 -0.0018468002 -0.0004533099 0.0011909908 0.0018499497 -0.0002283685 0.00017463366 -0.0012935238 0.00016069262 -0.0015206289 -0.0015618145 0.00018412893 -7.770581e-05 0.00117012 -0.0017932774 0.00021258235 0.00029222318 -0.0011461629 -0.00024019094 0.0012523994 -0.0012861959 0.00012747545 0.00079115067 0.00033825487 0.00047913185 0.001754363 0.0012641655 0.0008706654 0.0015115658 -0.0015711173 0.0014407138 0.0007382958 -0.0012312493 -0.00072663254 0.0013355975 0.0012481435 -0.0019654324 0.0002755871 3.7454258e-05 0.00018128421 0.001319053 -0.0013078962 0.0019567457 -0.0020194768 0.0012788028 0.0018603249 -0.00083696755 -0.001965811 0.0012566244 -0.0017536936 -0.0017461634 -0.00017937638 -0.001251694 0.0017226862 0.0017148058 0.00022852885 0.0016824647 0.0020074423 0.0010468239 0.0009758098 0.00114513 0.0012298154 0.00092702475 0.0013206295 -0.0015635649 0.0018375737 0.0017948 0.0020549537 -0.0018138553 -0.00076151564 -0.00015355022 0.0009021821 -0.0017238683 -1.04186975e-05 0.0010765409 0.0017663611 -0.0006171486 0.00017155292 0.0012426226 -0.00024080272 0.00044577004 -0.0018785694 8.2805826e-05 0.000757392 0.00084624183 -0.0020116982 -0.0010006228 0.000669129 0.00042806304 -0.0009917847 0.0013209119 0.0005791304 -0.0016447771 0.0020272434 -0.001615534 -0.00058865297 0.0018552631 0.00029658212 -0.001185872 0.00017275497 -0.00090535067 -0.0014286748 -0.0016239266 0.0009759405 -0.0018605164 0.0007960213 -0.001197602 0.0011216629 -0.0009190138 -0.0011551821 0.0011689592 -0.0017456968 0.0003392498 -0.00047960898 -0.0012601913 -0.0015386692 0.0016583794 -0.00088259665 0.0010131259 -0.0018616277 0.0002880003 -0.00040697638 -0.0012009863 -0.0005091749 -0.0017209993 -0.000816436 -0.00050244643 -0.00062717206 -0.0010159252 -0.0019220089 0.0011202218 -0.0003302479 0.0013140296 0.00065976015 0.0017054506 -0.00071249 -0.0019169833 0.00023596246 -0.0018578904 0.00097522396 0.0016258913 0.00016244191 0.0014539254 0.0016791871 0.0009858878 0.0010000183 0.001980669 0.00031052958 -0.0015553763 -0.001666885 -0.00041458852 -0.00027452942 0.0017095002 -0.0019544717 -0.00062468415 0.0019732863 -0.00022191457 -0.0017595892 0.0003761936 -0.0010190647 -0.001036855 -0.0012604006 9.580945e-05 0.0013738623 0.0009900309 0.0016638257 0.0018386033 0.00091595476 -0.001180111 0.0012929129 -0.0019707247 -0.0009841816
a 0.0016568662 0.0016285052 -0.0009743785 -0.0014351897 0.0015152987 -0.0009711738 -0.0008007618 0.0016668587 0.0011280734 0.00074292393 -0.00026022113 0.0018033448 0.0017122497 0.0014053719 0.0018568891 -0.0013309623 -2.640048e-05 -0.00042772625 0.001258717 0.0019811199 0.0011002253 0.00076632947 0.0014236162 0.0011810433 5.3031537e-05 -0.0016873004 -0.00038576545 0.0018561009 -0.0012544591 0.00019098345 0.0010667271 -0.0014062333 0.00164015 0.00025066352 0.00065649825 0.0017751013 0.00036369206 7.8610465e-05 -0.0019770928 0.0017709789 -0.0020519774 0.0016894646 0.00075922796 4.971835e-05 -0.0017313637 0.0017684102 -0.00043269552 0.0011990191 -0.0006726306 -0.0010018285 -2.9742718e-05 -0.0016504602 -0.0013706948 -0.0020734891 0.001045887 -3.3426742e-05 -7.474421e-05 0.00097396673 -0.0004617438 -0.0015045711 0.0006222663 -0.0012237385 0.00013059398 0.0018910512 -0.00034344444 0.0014194603 0.00088688056 -0.00064595114 -0.0009923383 0.0018184528 0.00041033683 -3.439541e-05 0.00020414595 -0.0010236037 0.00085384847 -0.0003587654 0.0007558106 -0.00096464745 -8.7828754e-05 0.0008229451 -0.0014813086 -0.00048231747 -0.0017398688 0.00058253517 0.00018183076 0.0006118673 0.00017986495 0.00019069934 0.00056489883 -2.9970166e-05 0.0012886036 -0.00058915565 -0.001191666 -0.00095425313 -0.0018318907 -0.001529808 0.0005650458 0.0007958826 -0.0010497936 -0.0019417662 -0.0012874393 0.00096036383 -0.0018893348 0.001187865 0.0013358629 0.001253502 -0.0015365444 0.0006961646 -0.0011805707 0.0018993316 -0.0008385675 -0.00053281005 0.001056722 -2.8018461e-05 0.0009223888 -0.000856564 0.0010782833 -0.0020538166 0.0012194016 -0.0004183099 -0.00115332 6.781818e-06 -7.065082e-05 -0.00020568624 -0.00025925596 -0.001862179 -0.0018238785 -0.0012990499 -0.0017714034 -0.0008350987 0.0020232515 -0.00026308995 -0.0015656799 -0.0012695679 0.0007324837 -0.00035707533 -0.00034796205 -0.0009545437 0.000986968 -0.0018454378 -0.0013625715 0.0014381955 -0.0013128903 0.0003684076 0.00018497556 0.0019843052 0.0009765829 0.00022177302 0.0006113629 0.00056665414 0.00060307013 -0.00064487744 0.00074833835 0.0015656288 0.001536666 -7.69761e-05 -7.428017e-05 0.0012004705 -0.0018214141 -4.4192788e-05 -0.0012862636 0.0009041564 -0.0018791591 0.0005962493 0.0016351192 -0.0003225337 -0.0015557645 -0.0015054779 0.0006972301 -0.000930272 0.0012602381 -1.8251732e-05 0.001573666 5.5614226e-05 -0.0012567502 -0.0012876587 8.6647175e-05 -0.0010493608 0.0012842547 -0.0005602396 -0.0011210946 0.00024999562 -0.0010098787 -0.0015943112 -0.0010188066 -0.00043598618 -4.884804e-05 0.00072628295 0.001265041 0.0013899695 0.0013880482 -6.611742e-05 -0.0011323743 0.0017759226 -5.9621158e-05 0.00095768465 -0.0003571902 0.0011274521 0.0011804301 -0.0014168058 -0.0005620563 5.3974978e-05 0.0005748888 -0.001947953 0.0010356312 0.0007276044 -1.2800374e-05 -0.0007825057 -0.0016393034 0.0014768926 -0.0017152376 -0.001679502 0.00075271004 -0.0018042143 -0.00069467624 -0.00062726735 -0.00045017165 -0.0013736595 0.0007527331 3.0629806e-05 0.0008011289 -5.717335e-05 0.0014283524 -0.0018625964 0.0012284488 -0.0010169916 0.0004936795 -0.0014884153 -0.0005240089 -0.0011950356 -0.0006719757 0.0018772356 0.0005532163 0.00031717255 -0.0012255479 0.0010991788 -0.0016225537 -0.0006691352 -0.0011169988 -0.0013643204 0.00041299552 -0.0007347634 0.00023948165 0.001004649 -0.001301181 -0.00043778986 -0.000606632 -0.001946038 -0.0018723303 0.00024600912 0.0008678633 -0.00016863315 -0.00097058096 0.0006312857 0.0002771298 -0.0017643041 0.0014880516 0.0017864296 -0.0017443064 -0.00014074409 0.0011060812 -0.0004353942 -0.000280341 -0.0008789664 0.0012414 0.0014751863 0.00030128978 -0.0007426405 -0.0005125152 -0.00084480556 -0.0020765734 0.0016092062 3.91175e-05 -0.00018613468 0.0013341716 -0.0017723949 0.0012951494 -0.0017192614 -0.001124057 0.0010974413 -0.00069320516 -0.00065004756 -0.0013375438 -0.0008957583 -0.00024821633 -0.000938933 0.0019377448 0.0017641973 5.648366e-05 -8.7981105e-05 -0.0012283804 0.0018496917 -0.00097008375 0.0011697648 0.0019279127 0.0013025034 5.3449658e-05 0.0009805356 0.0014594675 -0.0008608262 -3.51743e-05 0.0014461228 0.0011462674 -6.973732e-05 0.00050023705 -0.0014135555 -0.0018691025 -0.00088099414 -0.0010927549 2.098796e-05 -0.0008193818 -0.0001737751 0.0015761709 0.0019050236 0.0016930477 0.000469886 -0.000487353 0.00036685154 -0.0004732682 -0.0018314755 0.0016341625 -0.0017522624 0.00079967076 -0.0008639128 -0.0012211379 -0.0003216787 -0.0013506021 0.001575238 -0.0013213347 -0.0018772518 0.0013303511 0.00089636934 0.0009595654 0.0006149381 -0.0007369828 -0.0011114139 0.00034699278 0.0017800321 -0.0011426449 -0.0005999663 0.0002918077 0.0014226198 -0.0011006884 -0.0010424758 -0.0005408347 0.00018600785 0.0007829377 0.001148043 -0.0016995663 0.0015261759 -0.0004711775 -0.0005982508 -0.0018803441 -0.001017121 0.0017975552 0.0008244121 -0.0017343346 0.00053866394 -0.0015143746 -0.0018532622 0.00072965183 0.0005176555 0.00031041767 0.0018439718 0.0012616714 -0.0010016229 0.0006715761 0.0005314309 0.00035891533 0.0018025918 -0.0013654582 -0.0005972587 0.0002398816 0.0012247977 -0.00022125164 0.0014850114 -0.00091943034 -0.0017579071 -0.0014979491 -0.00084551645 0.0020130794 -0.001062484 -0.0008016646 0.0016718361 -0.0014200176 0.00043561446 0.0011643284 -0.0013596391 5.5083736e-05 -0.0005579932 0.0010891391 -0.0008729533 -0.0014126016 0.0020510815 -0.0007727334 0.0017359725 -0.0017040848 0.0013165575 -0.0007892346 -0.0014815542 -0.0003181521 -0.0005107822 -0.0005088837 -0.0004222387 -0.0013469358 -0.000930472 -0.00067541114 0.0017188506 0.0012156545 -0.0001837626 -0.0010306077 0.00086586655 -0.0018462016 0.00025885346 0.00081696484 -0.00033618597 -0.0007609765 -0.0016884732 -0.0014675894 0.0012775735 0.00064121105 -2.1977745e-05 0.0018782273 -0.001664026 1.9552557e-05 -4.3077143e-05 -0.0016899622 -0.0018833021 0.0013294445 -0.00081856974 -0.0016631143 0.0016286183 -0.0013084746 -0.00067478407 0.00023568326 -0.00063627533 -0.0016497135 -0.0008302647 -0.001949819 0.00028637133 -0.00083659025 -6.990705e-05 0.00065519795 -0.00047821508 0.0021131947 0.001409514 1.7327886e-05 -5.597454e-05 6.1629624e-05 0.0013492391 0.0017679611 -0.0003231239 -0.00030221167 -0.00074406306 0.00011884293 -0.0015017354 -0.0003590714 -0.0018326329 0.00021098914 0.00020296486 0.0008347938 -0.00050565286 0.0011851287 -0.0014419385 0.0017971402 8.0671685e-05 0.00039883796 0.00059904344 2.3254226e-05 0.00059827097 0.00022669704 -0.0019502518 -0.00046359288 -0.0006157336 -0.0016785248 0.0008108354 0.0010798887 -0.0004204459 0.0014250593 -0.00039722904 -0.00012136862 0.0010575164 -0.0018146816 -0.001211165 0.0015300406 -0.0012322728 0.0016631108 0.0012334813 -0.0015305339 0.0016948764 0.0013349918 -0.0014233616 -0.0015032517 -0.001758928 0.00082801364 0.001302071 -0.00040742615 0.00012477383 -0.0017509932 -0.0010730005
down 0.0009897487 -0.0017798676 -0.001779541 0.00032834694 -0.0017824693 -0.001552842 0.0009741598 0.0017745205 -0.0014331153 0.0016028777 0.0018772662 0.0009951126 -0.0008648573 0.0019739221 -0.0015220077 -0.0009066857 0.00021987913 -0.0015998017 -0.0019760372 0.0005897629 0.0016997772 -0.0010578036 -0.0007829198 0.0007954594 0.00015277845 -0.0017186705 0.0013452787 -0.00058217184 0.00055046787 0.0006203236 0.0018500015 0.0017254071 0.0014751864 -0.0016737549 0.00037311326 -9.915829e-05 0.0002074446 0.0017142509 0.0008977158 -0.0019309708 0.0019235776 -0.00017260952 -6.8966794e-05 0.0010307975 -0.0013550507 -0.0001526505 0.00014791965 0.0015020813 0.0008142404 -0.0004066073 -0.0017406499 -0.0008240762 0.0017433492 -0.0020348239 0.0019604953 -0.000111468726 -0.00013872255 0.0018968316 0.0018735991 0.001637741 0.0018434188 -0.0020256373 0.0015109103 -0.0018698563 -0.001668169 -0.001641752 0.00042100647 0.0015040878 -0.0012095963 -0.00052079424 -0.0004888085 -0.00086261285 -0.0002540458 0.0009551855 0.00084644736 -0.0004561191 -0.00079752505 -0.0004919816 -0.0006138276 0.0008236896 0.0019196011 0.0015846511 -0.0015173053 -0.0010924557 -0.0019904666 -0.0010795164 0.0006909527 -0.0010856698 0.00042722258 0.0018977452 0.00074973353 0.00023926371 0.0016577814 0.0013671261 -0.0002082004 -0.0011677281 -0.00011745268 0.0014516198 0.0015714479 -0.0008132753 0.0019598503 0.00049420516 0.0009836744 -0.0010143677 0.0009348664 6.783179e-05 -0.0019446578 0.0011170856 -0.001882557 -0.0012401451 0.0005654101 0.001811171 -0.00042833775 0.0014999851 0.00095519575 0.00080850546 -0.0011859057 0.00092063914 -0.0016701331 -0.0009849971 0.0010717878 -0.0016351917 0.0012856438 -0.00075421535 6.725231e-05 -0.0014854266 -0.00143125 -0.000621338 0.001698212 0.0011198508 -0.0018100401 -0.0012476237 0.000644823 -0.0017816058 0.0013328702 0.0013556427 -0.0019009901 0.001662168 0.0014363409 -0.00056742877 0.00044571178 -0.0011888337 0.0013022975 0.0015045652 0.000889409 -0.0017412574 0.0010829223 -0.0007458966 -0.0004061683 0.0012997349 0.00047908313 0.0008471915 -0.0013244931 0.0013012257 -0.00089274824 -2.3311806e-05 0.0013836155 0.0007566213 0.0014035993 -0.0007283826 0.0007249112 0.0014415592 -0.0007378745 0.0011215034 -0.0020052965 0.0018554853 0.0009153064 0.0011555763 0.00096062466 0.0010227453 -0.00067223323 -0.001076538 -0.00045380517 0.00040103993 -0.0006048752 -0.0017986078 -0.0013047543 0.0016029266 0.0018421672 0.0012801016 -0.0008158552 0.00018695676 -0.0017386744 0.0013673118 0.00011175797 0.0014391408 -0.001183194 -0.00057385373 0.0005214121 0.0007381338 -0.0011650189 -0.0015814409 0.00043242163 -0.0018262746 0.0012019987 0.0011096392 -0.00080647564 -0.0011726863 -0.0015847301 -0.00035222893 0.0013743519 -2.2480139e-05 -0.0014748957 0.0017262446 -0.0016638958 0.0011558824 0.0013124053 0.00014083722 -0.0018286175 0.0012317611 -0.0015884441 -0.0011578917 0.0018382582 -0.001738328 -0.0015499085 -0.001130723 0.0006427135 0.00037647702 -0.001194658 -0.0007899767 0.0017833906 0.0021013238 0.0020217316 0.00021869097 0.0008554205 0.00027523818 0.00042163316 0.00090333115 0.00044006432 0.00011490293 -0.0006403149 -0.001359083 0.0016311683 -0.0011974745 0.00056124676 -0.00020633372 -0.00073247694 -0.0011383026 0.0007469835 -0.0012301505 -0.00153218 -0.0005861608 0.00075036375 0.001375672 -0.00032998453 0.00139505 -0.0015619774 -0.000934203 -0.0015126102 -0.0011831108 0.0014700477 -0.0020180116 -0.0017243155 -0.0020491388 0.0017980833 -0.00043300385 0.0002329173 -0.0010720222 -0.00064128893 3.3708708e-05 -0.00059268245 -0.0013975487 -0.0013961311 0.00047897044 -0.0018767988 0.00028282427 -0.0004834059 0.001805811 -0.00019004165 0.001203842 -0.0015153561 -0.0014988218 0.0012124314 0.00013946327 -0.001095034 -0.0005223522 0.0017680294 -0.0019976604 -0.00076160126 0.00026458298 -4.4333876e-05 0.0019519632 -0.00044649543 -0.0015140619 -0.0013410712 -0.0020627934 -0.0015330712 -0.0012909303 -0.0010955996 -0.00028761668 -0.0001688042 -0.00075982086 0.00044196748 0.00075554586 0.001879693 -0.00082253414 0.0011868208 0.0013548755 -0.0006867911 -0.0015358644 -0.00078482763 -0.0012658391 0.0012738759 0.0018455838 0.0016732679 -0.0018068927 0.0010137567 0.0010958766 0.0011095456 -0.0017503237 -1.2762787e-05 -0.0014359549 -0.0017565002 0.00046785688 0.0020940118 0.0013011934 -0.0013819586 0.00039182932 -0.0007493862 0.0019468305 -0.001580802 0.0019501499 -0.0012701681 -0.0014661883 0.0002355489 -0.00021075546 -0.0017592524 -0.00022977035 -3.515318e-05 -0.0013089387 0.0012900541 0.0006303834 0.0016927511 0.0015786771 -0.0013137656 0.00090017414 0.0011350648 0.0012412532 0.001013024 -0.0010371566 0.00080512936 0.00031836523 0.00014817501 -0.001387608 0.00028892155 0.0009879291 -0.0020649869 0.0017570446 0.00065215316 4.860838e-05 -0.0006588543 3.8238104e-05 0.0011289107 0.0010589864 -0.0012643398 0.0017232989 -0.00019775695 -0.0016563326 0.0017190101 0.0009835567 0.0007039159 0.0016762929 -0.0014658783 -0.001095863 -0.0003900177 -0.00080084306 -0.0002230212 -0.00012575055 -0.0017769432 0.0004766113 0.0005235229 -0.00027109505 0.0010238113 0.0002576621 0.0011704485 -0.0005041305 0.0017136085 -0.0002730293 0.00054435845 -0.00077759364 0.0012821027 0.00058280054 0.00022876507 0.0017968806 -0.0014985964 0.0019779294 0.00015558765 -0.0003531326 -0.0007599641 -0.0018624037 -0.00046611208 0.0005669621 0.0012561424 0.0018765063 -0.0016321602 0.0019560363 -0.001792638 0.00069028354 0.0015510132 -0.00044764657 -0.0016363986 -0.0016999159 0.00013851636 -0.00029412744 -0.0019406189 0.00045192984 0.0004289315 0.0010320566 0.0009467113 0.00064532325 -0.0020239654 0.0010179655 0.0008012613 -0.0016120238 -0.00040468606 0.00013887772 -2.8932758e-05 -0.00023414307 -0.0009921181 -0.00011258476 0.0008129825 -8.303118e-05 0.00010662925 0.00046989677 -0.0008788251 -0.0015461439 0.0017847385 -0.002013019 -0.0005695073 -0.00030246895 -0.0016065371 0.00036902135 0.0015561575 -0.00034215604 0.0015591698 6.9983e-05 -0.0012074134 -0.00044846686 -0.0002478984 0.001267755 0.0015029163 0.0011920729 -0.0011361991 -0.0014033284 0.0014751942 0.00049986364 0.0011506531 0.00015298935 0.0015032701 -0.0017861387 0.0019607795 -0.0016330414 -0.00033097184 0.0011541024 -0.0018402917 0.00074024446 -0.0013886399 -0.0014442453 0.00049292983 0.00030374023 -0.00048929866 0.001624988 -0.0014190632 6.9986156e-05 0.0016538083 0.00037588048 -0.001430268 0.0005171118 -0.0010549732 0.00017358606 0.00049015845 0.0014936194 0.0015994839 -0.0010442022 0.0020428004 -0.0010269411 0.0016267721 -0.0016064385 -0.0016162236 -0.00032644102 -0.001684313 -0.00076193694 -0.00019738781 0.0001108943 -0.0019551828 -0.0012370627 -0.0014881685 5.0983796e-05 0.0010813319 -1.6648247e-06 0.002055443 -0.00084523443 0.0017285203 0.0012210436 0.0017000196 4.862566e-07 -5.763357e-05 0.00025408657 -0.0020537886 0.001782982
! -0.0004521377 0.0015405997 0.00045575708 0.00068147643 -0.0003126841 -0.0020796964 0.0002858762 0.00069713 -0.001925345 -0.00080034125 -0.00048408707 -0.00097271596 0.0007945862 0.00043178056 0.0008908768 -0.0013895399 -0.001316451 0.00090065226 0.0013499123 0.0011114866 0.0010041811 -0.0014831676 0.0016803306 -0.001392783 -0.0015242468 0.0016858662 -0.00046247893 -0.0018550745 -0.00071955 0.0011821471 -0.0005212531 0.0009732854 5.77738e-06 0.0007861649 0.00030820415 -0.0017985665 -0.0007025983 0.0017217743 0.00025675737 -0.0012761647 0.0013652215 0.0014761585 0.0013276235 3.4232653e-05 -0.0019146126 -0.0007647416 0.0009591931 -0.0012410982 0.0019162123 -0.0019627267 -0.0016619469 -0.0010998779 0.0011789609 -0.0016113225 0.001724627 -0.0020447234 0.00075951515 0.0006390107 -1.279817e-05 0.0018984807 0.0010442024 4.892165e-05 0.0009877835 0.0012764917 0.0005270767 0.001966755 -0.00026855138 -0.0016423092 -0.0008699549 -0.00028708804 -0.0014539937 -0.00028927074 0.0015933162 -0.0010177904 0.0010941903 0.0010059696 -0.00018448118 0.00019019483 0.0011712883 -0.0013200521 0.0007601621 0.0017910874 -0.000698305 -0.0013998238 -0.0019455375 -0.0017513781 0.0007598232 0.0011052343 0.0014621171 -0.00020278976 0.00024190788 0.0006079299 -0.002057173 -0.0018302606 0.00097370794 -0.0016346773 -0.00056585384 -0.00086664926 0.001250518 -0.00068504893 0.001968697 0.00012008969 -0.0010573454 -0.00063956215 0.00028189356 -0.0010498437 0.0014533176 0.0018766226 0.0007936768 -0.001422156 -0.0011833633 -1.9395928e-05 -0.00020751658 -0.0010294217 0.0015322787 0.001237669 -0.00078454765 0.00043257253 0.0010326861 0.00039645142 0.0016992929 -0.00025377792 -0.0012140495 -0.0001950594 -0.0016205021 0.0019692294 -0.0018540823 -0.00026104934 -0.0005994425 0.0006506869 0.001077207 -0.0016066302 -0.000906102 5.054422e-05 0.00080922677 0.0011196865 -0.00030610216 -0.00017561173 -0.0016799698 0.0007582689 -0.001449114 0.0006191782 -0.0006442432 -0.0015963934 0.001439313 -6.898383e-05 -0.0018506341 -0.0019837727 0.00015139155 -0.0015916391 0.0008147767 0.0006231952 0.00062388496 -0.00095181976 0.0014719433 -0.001772897 0.0015794833 -0.00017442151 -0.00036639144 0.0008404145 -0.00046493424 -0.00090797694 -0.0005313641 -0.0012484431 -0.00016338646 -0.0010221286 0.0010242311 -0.0018492275 -0.00085832947 -0.0017658498 -0.0019297594 -2.6289144e-05 -0.0016220034 -0.0010735953 0.0005465317 -0.00035915853 0.00059003546 0.0016033739 -0.0019309598 0.0012797372 -0.0015812269 0.0013380558 0.0014650763 0.001753975 -0.0015630135 0.0006413441 -0.0016252105 -0.00023515381 -0.0011119571 -0.0016903962 0.0010972018 0.0008231635 -0.00080046686 -0.0015587029 0.0007559721 -0.00078372296 -0.0018079374 -0.0009100239 -0.0003738639 0.0017753846 -0.0013089116 0.0014797595 0.0013068093 -0.001023189 -0.0003244113 -0.00047863115 0.00064112403 -0.00012427063 -0.00062122644 -0.0018149614 0.0012974375 -0.0020229174 -0.0018026067 0.0002166767 0.0005757883 -0.00010983979 6.174722e-05 0.00052722025 0.0003028168 0.0014330657 -0.0006478696 -0.0013409265 -0.001559717 0.0015981136 0.00040670385 -0.0011447006 0.0013529812 0.00163535 0.001574219 -0.001329684 -0.0010275943 -0.00044336688 -0.001312238 0.00093851757 0.00113853 -0.0012160401 0.0014395704 -0.0016427814 0.0013197372 -0.0009552309 0.00036367212 -0.0006989643 0.00054162607 0.0016555525 -0.00030664526 -0.001033761 -0.0017359208 0.00073102704 0.00089182844 0.0013448822 -0.0008566178 -0.002060959 0.0013550309 -0.000957517 0.00085730216 0.0016788439 -0.00074488035 0.00045152672 -0.00081147545 -0.0013097752 -0.0012104894 3.2376047e-05 -0.0016123528 -0.00041623265 -0.00047283812 0.0013809401 0.00020390109 0.0012551651 0.00069814123 -0.0007256847 -0.0010851085 0.0019470906 0.0014868132 -0.0018390435 0.000986034 0.0016387835 0.0018421984 -0.0017183339 -0.00041901934 0.00027105544 0.00056705665 -0.00029049235 -0.0009560572 0.0012449201 0.0015360647 -0.00012645665 -0.0011617857 -0.0009281272 -0.0009612197 0.00083609525 6.9250214e-05 -0.00035258252 -0.0018170818 -0.0002967664 0.0013338617 0.0013339401 0.00094116456 -0.0006462823 0.0018406337 8.854667e-05 0.00013948626 0.001304657 -0.0013314117 0.0012871061 0.0019745936 0.00067699264 0.0006906007 0.0008919524 -0.00039770125 -0.0016618605 0.0002672048 0.00012219562 -0.0013394674 0.00036809855 0.0011427258 -0.0014329631 0.00051937543 0.0014925832 -0.0017027549 0.0006902246 -0.0015906449 -0.0015890948 0.0014257471 -0.001549874 -0.00033262745 -0.0016464702 -0.0016078012 -0.0015025552 0.00010218946 0.00032510498 -0.0014811301 -0.0016092793 -0.0006343283 -0.0002971408 -0.0012315351 -0.00087716174 0.00071532384 0.00067515083 0.001322806 0.0007877825 -0.00021161127 0.0005933127 0.0019012495 0.00032730802 0.00036573136 0.00017068243 -0.0019959 0.0010925449 0.0010176982 4.9790036e-05 0.0018565559 -0.0011490462 0.0006148035 -0.0014848787 -0.0018330623 0.0004930353 0.00091022707 0.0012001127 -0.0017722776 0.00085550005 0.000457129 0.00089340314 -0.000105244624 0.001150706 0.0014724475 -0.0016672655 -0.0019219547 0.001421211 -0.00026377934 -0.0018089295 -0.0008091769 0.00016228066 0.0017077663 -0.00037366615 -0.00023653987 -0.0015110543 -0.0015280561 0.00030528478 -0.00013900126 -0.0015670236 0.00021770895 -0.0018146605 -0.00041006465 0.0008710728 0.00027325074 0.0015941915 0.0013219593 -0.00017402496 0.0010312655 0.0011892446 0.0017383458 0.0018385754 0.00094231806 0.0009617886 0.0015123088 -0.00020875479 -0.001154636 0.0017373048 0.00018453934 -0.0009740131 -0.00021990764 -0.0010682459 0.0017542166 0.00059176725 0.00081787293 0.0011957801 0.0016324125 -0.0008671598 -0.0012439756 -0.0007352974 -0.00077167456 -0.0019779631 -0.00014437606 -0.0016645041 0.0019673214 -0.00063586415 -0.0011989308 -0.0016494013 -0.00063027133 -0.0019761547 0.000106350504 0.0011192948 -0.00061999727 0.0015446248 -0.00044219077 -0.0014340566 -0.00066225074 -0.0006778744 -0.0014647485 -0.001973386 -0.00084194785 -0.00030731523 0.0009719252 -0.0015300495 -0.0010603353 0.0003138967 -0.00036386948 0.0006877778 -0.00043158792 0.00086167856 0.001644806 -0.0016296849 0.000805196 0.0011892095 6.9538204e-05 0.001361969 -0.0010305138 -0.0008750457 -0.0016347672 0.0018754249 -0.0019066557 -0.00061692036 -8.005432e-05 -0.001047647 0.001896142 -0.0014659008 -0.0015939878 0.0017925546 -0.0016249656 0.0018752794 -0.0007825094 0.0011525813 -8.6033004e-05 -0.00081844814 -0.0015683832 -0.0012681518 0.0013239923 0.0011210425 -7.313435e-06 0.0013035471 0.0007289542 0.000754579 0.000606949 -0.0020031342 0.0019526023 -0.0015897775 -0.0005462599 0.00027393422 0.0010150394 -0.0019227708 0.00030550756 0.001221817 -0.001813119 0.0020059287 -0.0010150105 0.0019489721 -0.0013401497 0.0013893574 0.0019243855 -0.0018500026 7.99466e-05 -0.0015887759 0.0017150115 0.0019302132 -0.001174158 0.0001941453 -0.00044367588 -0.0016299898 0.0001246513 -0.0019940457
her 0.0005711606 -0.0014896691 0.0012291046 0.001662581 -0.00059875223 -0.0009719079 -0.001899225 0.0011839988 0.0006271644 0.0017192822 0.00066796085 -0.00052301463 0.00072814117 0.0017503059 0.0018904355 0.0013905129 -0.0019111071 -0.0016033812 0.001452493 -0.0014540514 0.00070396665 0.0015646894 -0.00053667923 0.0013622547 -0.0016165565 0.0012861663 0.0011568343 0.0007198237 -0.0018180734 0.0018256963 0.0017264454 -0.00033075956 0.0008119012 0.0012435776 -0.00020774313 0.0012024672 -0.00074140227 -0.00034084782 -0.00031268716 -0.0010247444 -0.00020133602 -0.0015659919 0.0005238417 0.0018495475 0.0008219315 0.0012007303 -0.0010904293 0.0010706653 -0.001398204 -0.0010286919 0.0019284085 0.0012392509 -0.0010360673 -0.0013705031 0.0014364381 0.00043898326 0.0014238303 -0.0013721004 -0.00024754327 -0.00020212807 -1.6153303e-05 0.0004211314 -0.0013275812 0.00086837943 -0.00066295324 0.001830159 -0.00021578577 0.0019104853 -0.000116792835 0.00108111 -0.0015447807 -0.0017822437 -7.074155e-05 -0.00047615872 0.002121653 0.001124522 -0.0011834529 0.0014475868 0.00016412024 -0.0019018315 0.0011022729 -0.00038301677 -0.0018838686 0.0019963004 0.0012635303 0.0018330842 4.5355268e-05 0.001684521 0.0011347112 -0.0012418324 0.0019459099 -0.0007029397 -0.0020917724 0.0018225465 -0.00095362955 0.0017781275 -0.0014576311 0.0018719544 -0.0010845973 0.0008078248 0.0019026964 0.0008610045 -0.000497312 -0.0008565383 -0.0018724974 0.00085905625 0.001469348 -0.0008226566 0.0010902352 0.0014344958 -0.0017856414 0.00036397733 -0.0013573982 -0.0007508091 0.000108197266 -0.001412972 -0.000755145 -0.0016054888 -0.0014114681 -0.0015434648 0.0019690862 0.0016606441 0.00013638077 -0.00059645786 0.0013413192 0.00026912882 -0.0020141515 -0.0013540895 0.00018200993 0.0016461427 0.000789331 0.0020460794 0.0012760209 -2.4997888e-05 0.0017388996 0.0019562321 0.0015868811 0.0018032192 -0.0020405985 0.00046739122 -0.0014654188 -0.0014881681 -0.0016398587 0.00058671087 7.499976e-05 -0.0012389371 0.0012200065 0.0014114814 0.00091317133 0.0016620351 -0.000717043 -0.0013947428 0.00072575244 -0.00028548797 -0.0016508775 0.00081025576 -0.0005276737 -0.0011256048 0.000432663 0.0014471508 0.0013218025 8.148988e-07 0.0016382396 0.00055339443 0.0011551136 -7.5966935e-05 0.0006051077 0.0013531568 -0.0019398293 0.0012813993 0.000265871 0.0014007653 -0.00028262642 -0.00040787095 -0.0011406214 -0.0006940586 -0.00055905257 -0.001104188 0.00016730382 0.0017066313 0.0010460175 -0.00147726 -0.0015074741 -0.0005129841 0.00081986404 -0.0019240805 0.0011065558 0.0006232094 -0.00065579894 0.0018689204 0.0017899778 1.9701587e-05 0.0009908272 -0.0018942318 -0.0016905623 -0.00058339635 0.0018051353 0.00060177624 0.001218317 -0.0013131644 0.0008397687 0.00010623334 -3.741918e-05 -0.0007376553 0.0010656486 -0.0017821725 0.0010336606 0.0010871853 -0.0005920019 -0.0008512336 -0.0014793994 -0.0014571823 -0.0011315292 0.0005221799 -0.0009912198 -0.0004148833 -0.0018384556 -0.0006983495 -0.00025421448 -0.0017405541 0.0007213044 0.002132452 0.0009109341 0.00039580304 -0.0009095606 -0.00023652845 0.0005693065 0.0002690952 0.0017683989 -9.701992e-05 0.0013981281 0.0010992454 0.0006286817 0.0014541028 -0.0009903818 -0.0008176803 0.0013808375 0.0015485195 0.00076985516 -0.0009155876 0.0014899496 0.0004729746 -0.00026977595 0.001961179 0.0008244865 0.0007111022 -4.8115693e-05 -0.0017750161 -0.00055919314 0.0005030143 -0.0011125703 0.0012249245 0.0015087483 -0.0018867251 -0.0011254222 -0.0010893602 -7.5410855e-05 -0.00017457937 -0.00055197376 -0.00043058328 0.0006167544 0.0020338425 -0.0011001278 -0.0016819532 0.0007719535 -0.001211917 0.0012357279 0.00070758146 -0.0016975757 -0.0016052516 -0.0019628003 0.0005023553 0.0006792316 0.00045919447 -5.6387136e-05 0.00024084412 0.0006274946 -0.0005109013 -0.0016255033 -4.196839e-05 0.00073976 -0.0004937248 -0.0004689563 -0.0005490207 0.0016861068 -0.00071290287 0.001912408 -0.00088865357 -0.0018806724 -0.0013157533 -0.00095263607 0.00047666611 0.0010352068 0.00042232792 0.0019040316 0.0003177658 0.0013303768 -8.5730404e-05 -0.00035823602 0.0011780792 0.0002546034 0.00177614 -0.0016862992 -0.0018096453 -7.698478e-05 -0.0004638029 -0.0004694784 -1.7564102e-05 -0.0010226335 -0.0016952637 0.0016358551 -0.00074550416 -0.00053788634 -0.00037746457 -0.00011337826 -0.0018367372 -0.00030525622 -0.00036461774 0.0017648179 -0.0016221352 -0.00072256854 -0.00038514318 0.0006223496 -0.001266411 -0.0012148356 -0.0016747845 0.0010640342 -0.0018694181 -0.0006145442 -2.8146933e-06 0.0004720806 -0.001996159 0.0017397904 -0.0002891909 7.936845e-05 -0.001829895 -0.0016391139 0.0008462589 0.0007872656 0.00048976415 0.0011012114 -0.0013088664 -9.178816e-05 -0.0006527238 -0.00029716996 0.0008083101 1.4881125e-06 -0.0014384503 0.00069808913 0.0013119458 -0.0011896177 0.0006295897 -0.0009571863 0.0018746989 0.00075854233 0.00057509646 -0.0003023146 -0.0018523572 0.0016553588 -0.00040081932 0.0014418311 0.0008633438 -0.0015830928 -5.8409994e-05 0.000574366 -0.0004967764 0.0020477283 -0.00097550603 -0.0015310845 0.00086854293 -0.0007001447 -0.0014987232 0.00045308782 0.0010178399 -0.0011610407 -0.00097346876 -0.0014276925 0.00034424642 -0.0010316639 0.0016588159 0.0002117243 0.00034668267 -0.00052565336 0.0015349953 -7.448314e-05 -0.0016070728 -0.0014504356 0.00016466896 0.0016338557 0.000561077 -0.0010891507 -0.0013005887 -0.0020336881 0.00084614794 -0.0017651326 0.00082412286 0.0003166035 -0.00022959305 -0.0020861586 0.0012431514 -9.50187e-05 -0.0020265894 -0.0016304225 0.0015516256 0.00032928702 -0.0018327021 -0.00018698309 0.0012335526 -0.0018036836 -0.0013742623 -0.00027390904 -0.0021252404 3.7586917e-05 0.0003105628 0.001741082 0.00026821537 0.00039201425 0.0009331424 -0.0007140703 0.0013211367 -5.023651e-05 -7.4394186e-05 -0.0019936056 0.00013159575 0.0012698681 0.0004033179 -0.0016868573 -0.0007151194 -0.0013052301 0.001125373 -0.0013822621 0.0010731687 -0.0011116542 -0.0013989527 -0.0016020642 0.00078352814 -0.0018230092 -0.0011782743 -0.0015265172 -0.0008406563 -0.00073073053 0.00023986843 0.0013744743 -0.00024156862 -0.0007942858 0.00032047223 0.0012348435 -0.0009912864 -0.0011468132 0.0010260217 0.0012107816 -0.0015180877 0.0016647205 -0.0020888548 -0.0014826831 -0.0013531307 0.0003648723 -7.297762e-05 0.00074941566 0.0013307045 0.0010528637 -0.00058905204 -0.0012955122 -0.0016775924 -0.00023069879 0.0019167027 -0.0016048179 0.00050686614 0.00081842596 -0.0007990983 -0.0014897415 -0.0011120966 -0.00085970556 -0.0014933653 0.0013555442 -0.0014593506 -0.00046921335 0.00087575265 -3.3179655e-05 -0.0016929539 -0.0010082182 0.00062606344 0.00041753385 -0.0002580042 -9.114561e-05 0.0005687937 0.00025833817 -0.00039167277 0.0011236209 -0.001535497 0.0013476412 -0.0020702523 -0.0003063658 0.0013395854 -0.00065515045 0.0013195568 0.0011222766 -0.0016049659 -0.000118644195 -0.00094089925
very -0.0015719079 -8.706094e-05 0.0014477397 0.001992052 -0.001135149 -0.0008046584 -0.0011681124 0.0005150511 0.0006242616 -0.002008408 0.0004515412 -0.0016810154 0.000119248405 0.0009655658 -0.0009665887 -0.00019098324 -0.0007315909 -0.0018751129 -0.00047362715 0.0009135428 -0.0016424477 -0.0012796381 4.9254937e-05 0.0016087311 0.0002837018 0.0019399652 -0.001464889 0.0018862599 -0.0012560289 -0.0012762578 -0.0014422111 0.00034001374 -0.0005779772 0.0014806383 9.766014e-05 0.0006467999 0.0012699105 -0.0018909635 -0.0005211347 -0.0012250309 -0.0018375716 0.00066108134 0.00018885008 -0.00041890133 -0.00058296026 -0.00149646 -0.00084592705 0.00039520173 0.0014699262 0.0013960855 -0.0007849729 0.0006554334 -0.0005683449 -0.0011580067 -0.0007551708 -0.0014084692 0.0008612277 -0.0015948173 -0.0015899317 -0.00091730384 0.0015261796 0.00032140748 0.0011409181 0.0016225998 -0.0014313466 -0.00068344316 0.0015083035 0.0010756796 0.0010273426 0.0018577722 0.0017346212 -0.00048415535 0.0002375374 0.0010501703 0.00195225 0.0023250196 -0.0017466265 -0.001082129 0.0010905778 0.00022705046 -4.0716626e-05 0.0015179906 0.0012817349 -0.0010921168 -0.00080675655 -0.0015359253 0.0013639298 0.00078801246 -0.00029392363 0.0005798122 0.0016656766 0.0016466475 0.0010147194 0.00077095046 0.00046588163 0.0017685321 0.00045455145 5.973287e-05 -0.001770997 0.00048907095 -0.0017946687 0.0013071212 -0.0012730624 -0.00012861879 0.00027970065 -0.0003423504 -0.0018229609 0.0009978357 -0.0014639454 -0.0016560177 0.00081320823 -0.0002476184 0.0013163667 -0.0012350221 2.269491e-05 -0.0001361675 0.0012552298 -0.002078749 0.0011815642 -0.0019896806 -0.0015864415 0.00016895456 -0.0003038537 -0.00087349775 -0.00094802544 0.00084848993 -0.0022006505 0.00032541674 0.00076081447 1.52683e-05 0.00014479762 0.0015778876 -0.001977301 -0.001915893 0.0008964649 0.001977361 -0.0016361134 -0.0018128577 -0.00041620457 -0.0021832306 0.0005845331 0.0017397482 -0.0011148022 -0.0014460961 0.0019444225 -9.824696e-05 -0.0006229497 -0.00080033473 -0.0016700901 -0.0008106076 -0.0006337087 -0.00013376301 4.0327086e-05 0.0019560948 0.0010356614 -0.00023902093 -0.0017960223 0.00039185997 -0.0013896333 0.0019382398 0.00080622383 -0.00025780196 0.0011961861 -0.000777451 -0.00096880354 8.266935e-05 0.001956054 0.0013405053 0.00035354478 0.0009225517 -0.0006114891 0.0021715579 -0.0014284865 -0.00045436755 -0.0010646366 0.001583682 -0.0006928605 -0.00061854423 0.0013855082 -0.0017912943 -0.0005784114 0.0006584776 -0.0013084877 0.0018523432 0.00028438598 -0.0011496848 0.00079217745 0.0016260466 3.9054532e-05 0.001406528 -0.0010978759 -0.00090061023 0.0020289011 0.0010990159 0.00041923037 -0.0007108704 0.0008120063 0.0004523328 0.0018356148 6.958159e-05 0.0016937393 -0.0011357219 -0.0013027756 -0.0004097013 0.000719126 -0.0003412702 0.0012298264 -0.0017724803 -0.0019671365 0.0014767615 0.0012995857 -0.0010644937 -0.0009791987 -0.00086109614 -6.894383e-05 0.0015393147 0.00012796238 -0.00039207263 -0.0008338302 -0.00063061883 -0.0017534564 0.0016343334 -0.0017847077 -0.00056893827 -0.001381403 0.001811048 0.0013453048 -0.00022888355 0.0007921682 -0.00034621236 0.0019584608 -0.00082766754 0.0009966047 -0.00078326924 0.0019128857 0.0018799917 0.0012452226 -0.00032762592 -0.0001310176 -0.001843308 0.0018142823 -0.0018065389 -0.001667265 0.001393506 -0.0005274883 0.0014549586 -0.0016211148 0.0018546712 0.0005885817 -0.0016823238 0.00077968667 -0.0012722927 0.0012952439 0.0011783077 -0.0018406286 0.0014749576 0.0011267164 0.0016103799 -0.0016387292 -0.0012790827 -0.0019319769 0.0012213878 -0.001087414 0.0009075509 0.0010297915 0.0017121282 0.000309321 2.723827e-05 0.00012523706 0.0005376567 -0.0018899486 -0.0011468104 -1.5759047e-06 0.00087076356 -0.00016590129 -0.0019073981 -0.00013333424 0.001147586 0.001235025 0.0008306209 -0.00091171765 -0.0007063843 -0.0004978248 -0.0013500515 -0.0013469167 -0.00025349835 0.00039724886 0.00081363344 0.0008741691 0.001668633 -0.0014635082 0.0022022694 -0.00066025305 0.0001422222 -0.0007458522 -0.00062021986 -2.4722753e-05 -0.0016986371 0.0019144624 0.0008327367 -0.00066055136 0.0005701533 0.0015339148 -0.001180653 0.00078904774 6.3569646e-06 0.0005725294 -0.00028858575 -0.0020072258 0.0010697137 -0.00032058198 -0.001781679 0.00019038322 -0.00130499 0.0017061038 -0.0012953266 -0.0002558361 -0.00022626785 -0.0008021409 -0.0007462145 0.0018181256 0.00033961993 -0.0018343427 -0.00017862255 -0.0020625894 -0.0007840984 0.00092005247 0.0005518116 -0.001079029 0.00024214914 0.0014094865 -0.0015124282 -0.00065442093 -0.00031768437 -0.0017688852 0.00029187702 0.0012637465 0.00062984886 0.0004618987 -0.00033014093 -0.00026929725 -0.0011607248 0.0001261909 0.0011654404 0.00058780715 -4.17899e-05 0.0011885514 0.0006316788 -0.0014249585 0.0015609984 0.0019648776 -0.001836718 0.001291609 -0.0013491517 -0.00017114308 0.0011803141 -0.001286074 -0.0016174797 -0.0015604577 -0.0020313794 -0.0013944708 0.0020678164 0.00068001973 -0.0016825334 0.0017316212 0.0014775116 0.0017452502 0.0019590564 -0.0019183786 -0.0002608242 0.0004623778 0.00030465188 0.0010165314 -0.0016272692 0.00087911286 0.0018781173 -0.0017968968 0.0016365271 0.0005125901 -0.0008742908 -0.00018681191 -0.0017395186 -0.0012835945 0.0011575891 -0.00050824607 0.0020443567 -0.001625458 -0.0012542149 0.0013500837 0.0014916486 0.00071019866 0.0015138452 0.0011699552 -0.0010676169 0.0019672536 -0.0010085775 -0.0006164885 -0.0012951888 0.0010749133 -0.00078635616 0.0005106773 -0.00033931213 -0.00042204856 -0.0013956443 -0.0012151506 -0.0010273317 2.9431285e-05 0.0005234553 -0.0005583503 0.00037548153 -0.0012038054 0.001743194 -0.00024127732 -0.0015043765 -0.00031343312 0.0016843436 -3.7410493e-05 -0.001109658 -0.001394132 -0.0013537128 -0.0007580237 0.0016615469 -0.0015572412 0.00032471708 -0.00015282816 0.00087312324 -0.001690909 0.0015068669 -0.000688332 0.0009546988 -0.0019970913 0.0010227527 -0.0017330342 -0.00070605864 -0.00040130297 -0.0006563044 -0.00021990969 -6.35886e-05 0.0007240606 -0.00044901506 -0.00070199306 -0.0013496663 0.0018069509 0.00089354103 0.002298828 0.001125837 -0.00076042867 0.0017454708 -0.0015494905 0.0006066465 -0.00075180654 0.00012662837 0.00076777104 -0.00074448687 -0.0008287513 -0.00065401825 0.0001316842 0.0011777533 -0.0011184791 0.0007922174 -0.0005977582 -0.0015149273 -0.0010993048 0.00034370337 0.0015606756 0.001532227 0.0017479202 0.0010239237 -0.0006493364 -0.00038646717 0.0016387819 0.0012704544 0.0013911119 0.0012503805 0.00059459667 0.0006231391 -0.001489654 0.0015224947 0.0017937478 -0.0016504345 0.00016201587 0.0016092067 0.00056751666 0.0016037575 0.0016335811 -0.00027568857 0.001708189 0.0013961378 -0.00028001485 2.2216564e-05 0.00202594 0.0010629391 -0.0011162626 -0.0006784346 -0.00062058837 0.00069908204 0.00023570351 -0.0019236828 0.00035499758 0.0018533436
