349 500
the 0.00025922834 0.0008383905 0.002327633 0.003259574 -0.0030711559 -0.0033656682 0.0014245596 0.003912063 -0.00028366505 -0.00034987912 0.0012486712 2.7583892e-05 -0.00077978044 0.0013553846 -0.00067236123 -0.0018405012 -0.0014765674 -0.0005700278 -0.0018436783 -0.0017909466 0.0018683424 0.00058720517 0.0022548498 0.0005402451 0.0012244931 -0.0009990237 0.00039799884 0.0018495929 -0.003801523 -0.0010650537 -0.00022668693 -0.0005699538 0.0017268268 -0.001599224 0.0010999134 0.0010537116 0.0020883246 -0.0019951335 -0.000858338 -0.002400861 -0.003104241 0.00081360503 -0.0039174394 -0.00021096529 -0.0012925859 -0.0010382119 -0.002990678 0.0028406188 0.00053852 0.001801716 -0.0017386009 0.0007534069 -0.0013639148 -0.00094686705 0.0016547806 -0.002002953 0.0019984879 -0.0018003369 -0.0014926214 0.0015021684 -0.00022393063 -8.8054076e-05 -0.0009321537 -0.0016438152 -0.0016926966 0.0020958472 -0.0003073922 0.0015864908 2.266411e-05 0.00075744453 0.0012039815 0.0025733265 -0.00015809589 -0.0018909271 0.0025544742 0.0024803537 0.00032909447 -0.00031211408 -0.00024437724 -0.001258721 -0.000798857 0.0007449588 0.001140378 0.004268947 -0.003404509 0.0013755928 0.00096590153 0.0007892126 0.0004634266 0.0028979778 0.00137285 0.000285612 -0.0007162346 0.000691093 0.0029885 0.0021873359 -0.00058105646 -0.0015303636 0.00076250354 0.0011719341 -0.00195966 0.0013585098 0.0011097118 0.0029509387 0.002238962 -0.0011018562 -0.00017339588 0.0030969437 -0.0011855236 -0.00027306165 0.00010939398 -0.0024145017 -0.00094311 0.0025806907 -0.00030259127 0.0015678273 0.0019626566 -2.5502586e-05 -0.0010132507 -0.0013853156 0.00028923264 -0.00045387165 0.003476279 -0.0023995803 0.0017687065 0.000950916 -0.0032994552 0.0012139705 -0.0010317696 0.0016915584 0.0039819903 6.328577e-05 -0.0005144275 -0.0020871663 0.00077005173 0.0022957872 0.00061982666 -0.00016674548 -4.5986053e-05 -0.0011613917 0.0026055602 -0.001988192 -0.0014892723 -0.0009953366 0.00033247194 0.0022634042 0.0020077846 -0.0020285188 0.0007014842 0.0011721506 0.00228273 -0.0031397413 -0.00083702325 0.003697036 -0.002705328 0.0024782547 0.003185867 0.00014666274 -0.001250738 0.0018487215 -0.0013024054 0.000621641 -0.0017459859 -0.0014630028 -0.0009286341 0.002032961 0.0034587719 0.00042748472 0.001993144 0.0026895332 -0.0006882859 0.00018867245 0.0010180924 0.0028931515 -2.727484e-05 -0.0026370063 -0.0018479904 -0.0013710178 0.0005998682 0.00045592213 -0.0020824843 0.0012061839 0.0007248628 -0.0007560258 0.00036872717 -0.00089172716 -0.0011435627 -0.0017169666 -0.00028649755 -0.0005631 0.0022407474 -0.001328909 0.00095084024 -0.0019943856 0.0003669933 0.00079080346 0.00049890956 -0.0007768871 -0.00056776823 0.0011688907 -0.00016670098 0.0005026803 0.00031456677 -0.0010372765 0.0023571607 0.0015547917 -0.00046177718 -0.00043189555 -0.0027895626 0.0010614914 -0.00095146685 -0.002422514 0.00046901975 -0.00070200843 0.0017616258 -0.0030305746 0.0005341418 0.002198652 -0.0029815238 -0.0028045396 -0.0008368447 0.0013992591 -0.0006052391 -0.001523986 0.002258764 -0.00095280143 0.002947208 0.000390994 -0.0014589862 0.0016079559 0.0007369832 -0.0025631571 -0.0012286998 -0.00053894334 -0.0018562005 -0.00053663104 -0.00075685146 -0.0010591816 0.0020337454 -0.0009048111 -0.0012897416 -0.00030001297 -0.0022708585 0.002862529 0.00021030496 -0.000177689 0.00019542202 -0.00034611954 -0.0002397233 0.00012546542 0.00038112185 -0.0024579533 -0.00075250154 -0.0023306408 -0.0024488803 -4.549819e-06 -0.00012526689 0.0011066545 -0.0030429545 -2.1836918e-06 0.00012665473 0.000143167 0.0001304429 0.00029969902 -0.0005510727 0.0030258605 0.00035866132 0.0025608265 -0.002649437 0.000971557 -0.00034735975 0.0017839409 0.0020319743 -1.6513146e-05 -0.0017465629 0.0022051546 0.0014631455 -0.0009959515 -0.0012327875 0.0007823304 -0.00043294873 -0.0012170777 -0.002030554 -0.0012147854 0.0027142696 -0.0020525358 -8.2944876e-05 -0.0020509027 0.003096707 6.4089334e-05 -0.0017530167 0.00344765 0.0021392768 -0.0013495968 0.0027292718 0.0024139725 0.003267218 -0.0014034641 0.0026131328 -0.0020539335 -0.0030664674 0.0029611625 -0.00048348223 -0.0008131445 0.0014312699 -0.0020229137 0.0006599514 0.0024987387 0.00049622566 -0.002206429 0.0015334439 0.0001867299 0.0013056594 -0.0020295775 0.0029937546 -0.00041801477 0.0023863292 -0.0020772512 -0.0011674772 0.000866185 0.0024965855 -0.0006072786 0.0020465825 0.0014419832 -0.0028792762 -0.00026765958 0.0010351811 -0.0006512452 0.0011242648 -0.0004235481 0.0024181036 -0.0010434176 -0.001232103 0.0009924212 0.0009682882 0.00096434297 0.0013678953 0.00025245125 -0.0022094457 0.0007061621 0.0001796641 0.0019085605 0.0030882156 -0.0015878411 0.0010212305 -0.00012217237 -0.0021861808 -0.00012724799 -0.0004735282 0.0005650409 0.0011759783 -0.00025697518 -0.0031534738 -0.0005781657 -0.001964214 0.0021616835 -0.00020954401 0.0015821494 0.0007704824 -0.0013178317 -0.0007752184 0.0022854498 0.0018663334 0.0010232095 0.0005967656 -0.0011355157 0.0009898581 0.0018388665 -0.0020523695 -0.00068390474 0.0014409139 -0.002444513 8.8713976e-05 0.0018538987 -0.00089638797 -0.002074724 -0.0006323914 0.0018525276 -0.001980305 0.00020866247 -0.00034425984 0.0007723675 0.0023861977 0.00128548 0.0006952757 -0.0002661151 0.0016432084 0.0023273951 0.00068445934 -0.0019630648 -0.0019510041 0.00019436238 -0.0014252962 0.0003180856 0.0035262173 0.0015900484 0.0010868096 -0.0026858004 -0.0010993731 -4.450229e-05 -0.0022705053 4.428552e-05 -0.0025854886 -0.002142572 0.0007934979 -0.00093148777 6.772221e-05 0.0022384007 -6.322921e-05 0.0012210498 -0.0017498641 -0.00041932438 -0.0024385278 -0.00025389512 -0.00045916077 0.00054192106 0.00074738835 0.00010911655 0.002352074 -0.002324879 -0.0003639917 -0.00040822863 0.00070564536 0.0021490124 -0.0010644743 0.0013171213 -0.00081627927 0.00038886844 -0.0029020922 -0.0004886879 0.0005706279 0.00063049345 -9.992297e-05 -0.0016448367 0.00096927583 -0.0007721568 -0.0011091914 0.00044064433 -0.0012466608 0.0005874499 0.001228505 -0.0017722903 -0.0010733466 0.0018811692 0.00430152 -0.0012463763 0.0017096382 0.0008491842 0.0002904803 -0.0015794665 0.00073347683 0.0010310211 0.0017108489 -0.0019205634 -0.00033194243 -0.002713195 -0.0016367871 -0.0026124616 0.0002379616 -0.002078355 0.0021100845 -0.0012376823 0.00043031463 -3.8012076e-05 -0.0019942634 -0.0005369062 0.001089949 -0.00037383565 -0.0019184562 0.0022350173 -0.0024644232 0.00093144627 0.0007412901 -0.00027375846 0.001981709 0.0024722887 0.0006936213 0.0019168411 0.00076759857 -0.0032196583 -0.0023293437 -0.0025904446 -0.00045245016 0.0010849909 -0.00075031177 -0.00056336075 0.0015971609 0.0021046412 -0.0017540049 -0.00063319015 0.0009837591 -0.0016342867 0.001991601 -0.00074794807 0.0015226018 -0.0015700201 0.0013071499 0.0001359822 -0.0002040966 -4.8409227e-05
to -0.001248191 0.0013254433 0.0013083243 -9.4761686e-05 -0.0032744312 -0.0026659174 0.0011418752 0.0034062318 -0.0003707324 -0.00092654553 -0.0013118326 -9.6727035e-06 -0.0014359081 -0.0019137395 -0.0003100836 -0.003346605 -0.0036352824 -0.0020362039 -0.00078125787 -0.00013362832 -0.001365991 -0.0006183781 0.0026467827 0.0020815548 -0.0014155952 -0.0011547693 0.0014233469 -0.0010230463 -0.002531128 0.00094900886 0.0027072632 -0.0021821437 -0.0010628725 -0.0016574049 0.0018533677 0.003731887 0.0017038619 6.7138935e-05 -4.0112945e-07 -0.00232267 0.00055341766 -0.0016883239 -0.0040859017 0.00033485523 -0.0016693748 -0.0016419049 -0.0018378774 0.0026028927 -0.00056087284 -0.0005118883 0.00043339212 -0.0018855575 0.0009834239 0.00047350084 -0.0019496514 -0.0007746996 0.0032573873 -0.0019644152 -0.002247568 -0.0020604448 0.0018702853 -0.00033148148 0.0017018691 -0.0017222124 -0.0009097589 0.0024741914 0.00013536857 0.0010768095 -0.0009022333 -0.0015167341 0.0006682709 0.0024565752 0.0017574119 0.0011128989 0.0017920799 0.004543857 -0.0033119456 0.0005397965 0.0003483088 0.0014158841 0.0006695873 -0.0012414582 0.0013024795 0.001553321 -0.0028341338 -0.0006439765 -0.0011891255 0.0039446265 0.0009923127 0.002473175 0.0031074674 0.0021068635 -0.0032953192 0.00023835083 0.0032780208 0.0025667932 0.001057523 -0.0017816825 0.0012456455 -0.0013215377 0.0015245718 -9.124784e-05 -0.0001748061 0.0024053883 0.0010470367 0.00034610656 0.00076294737 0.0023202032 -0.0014120342 0.00086369936 0.0013096675 -0.00060616306 3.2272856e-05 0.0032609708 -0.0021224665 7.2812754e-06 0.0026589348 -0.0005687799 -0.00015541342 -0.0033578624 2.0106938e-05 1.3670295e-05 0.0040700766 -0.000296124 0.0007430482 0.0009985495 -0.0031336085 -0.00066195714 -0.00066172646 2.4132092e-05 0.0037469822 0.0029319793 -0.00052788155 -0.00047534818 -0.0011880171 0.002307828 -0.0024200869 -0.003377324 -0.0034516314 -0.005505489 0.0026637358 -0.0017294214 0.0019886766 -0.0025458045 0.0018144988 0.0027544347 -0.00056604797 -0.004051446 -0.00021472764 0.00038111454 0.00070524955 -0.0033449305 -0.0028722363 0.0041986024 -0.004737642 -0.00076647766 0.0013528515 -0.003208352 -0.002800654 -0.0013469432 0.00054568256 -0.00087290665 0.00033718997 -0.00017185637 -0.0026903609 0.002243266 0.0009940688 0.0009944678 -0.0008497814 0.0006847291 -0.0001723897 0.0035798466 -0.0006336815 0.0028791258 0.0014282316 -0.0031841272 0.00048148242 0.00022106494 -0.0012309974 0.0028303154 0.0010621458 -0.00072464865 -0.0017742977 0.0011451077 -0.00010155949 -0.0017558427 0.0006371515 -0.00066886743 -0.0023802558 0.0004954957 0.0018418066 -0.0011402097 -9.539389e-05 -0.0004906013 0.00097353646 0.0006431515 0.0011019097 -0.0014656906 0.0012982372 0.001428284 0.0014078668 -0.0009328608 0.0036804676 0.0006646563 1.5197853e-05 0.0002036002 0.0013423888 -0.0017580007 -0.0024393299 -0.0016157221 -0.00016066339 -0.00224301 -0.00075295975 -0.001445674 0.00039787687 -0.0016835738 0.000488241 0.00025360784 -0.0028818212 -0.0040388675 0.00085886545 0.0042796433 0.0006521063 -0.0017507314 -0.00069839816 0.0013116976 0.00084430363 0.0004423279 -0.0016274442 0.0026291583 -0.001635545 -0.0006415195 0.00014883687 -0.0014026659 -0.0008817786 -0.00051438395 -0.0019068769 -0.0022604172 0.00060483103 -0.00038325 0.0016025188 -0.0012389454 -0.002717733 0.0024874557 0.0010031017 -0.0025489004 -0.0015390512 -0.00035278648 0.0025165726 0.0006460826 -0.0016606888 -0.0025165605 0.0026896459 -0.0024369098 -0.0018925512 0.003290804 -0.0015275293 0.0032078077 -0.0020416793 0.0023084928 0.0007607947 0.00047729703 -0.0026086967 0.0017475372 0.0016496254 0.0026965288 -0.0034364949 0.0036195528 -0.001883731 -0.0015372497 -0.00085711107 0.00091526937 0.0023357053 -0.001006138 -0.0023970308 0.0011325009 0.0010992928 -0.0030872629 -0.00029718506 -0.0005557282 -0.0022540693 0.00051736005 -0.0021439434 -0.0008395809 0.0032380458 -0.0016744197 0.0020116307 0.0013601054 0.0036181833 -0.00021945458 -0.0005306881 0.0020520494 -0.0013569137 0.0005971842 0.00090312754 0.0015274329 0.002104725 -0.0026992334 0.0019976513 -0.0017148601 -0.0035106868 0.0031931892 0.00028516178 0.0014434376 0.0021133348 -0.0008840661 0.0023102693 0.00045789153 -0.0022209152 3.8840506e-05 0.00037103044 -0.0020902206 0.0025222036 -0.001741422 0.0034570175 0.0002753596 -0.00052173267 -0.0016284405 -0.0010086907 -0.0011377526 0.0028021794 0.001812061 0.0020153883 -0.001937261 -0.00052224105 -0.0005351626 -0.0008241507 -0.0036744638 0.0009886841 -0.0023977577 0.0040833238 -0.001417838 0.0014159626 0.0036636668 0.00015621599 5.8569552e-05 -0.0009425412 0.0032328935 0.00032851106 -0.0033570991 -0.0010327375 0.0018093638 0.00222516 -0.0013414759 -0.0007630353 -0.0011955935 -0.003153754 0.0012668527 -0.00069750217 0.00051590195 0.00038686334 -0.00026347142 -0.0014187312 0.0007027373 1.0946345e-05 0.0021815903 -0.00032431408 -0.00025594613 0.0009016597 -0.0019783927 -0.0024162019 0.00064218475 0.002261126 0.0011682207 -0.0022612498 -0.00016898339 0.0005539611 0.0014767533 -0.003940453 0.0020678318 -0.0014981185 -0.0017433842 0.0016423786 0.0012785638 -0.0020960548 -0.0025456226 -0.00084043026 -0.0011175422 -0.003053321 -0.0006498001 0.00072617637 -0.0021557256 0.0031115154 0.0012537189 0.0022694704 0.00057808997 -4.9018807e-05 0.00013633336 0.00085274846 0.0008004751 -0.0015743996 0.00076127483 -0.0011914466 0.00070953264 0.0038547295 0.0037116446 0.00025876542 2.7268634e-05 0.00043636243 4.0380786e-05 -0.002071827 -0.0016516013 -0.002929773 -0.00023461341 -0.00036188704 -0.0038662907 -0.001071998 0.0031938797 0.0003110081 -0.00097031106 -0.00019695089 -0.0022278572 -0.001350118 -0.000632316 0.00010374665 0.0034935458 0.002392159 -0.003265788 0.0025739174 -0.0028982451 -0.0004616658 0.0025407812 -0.0020816764 -0.00010265737 0.0011033552 0.00060521736 -0.0027052152 0.0011060092 -0.0018546939 -0.0016790465 0.00077116623 0.0011111639 0.00068719103 0.0022857077 -0.0025350354 0.0018078075 -0.0002530989 0.00046392955 -0.0010242654 0.0012009285 0.001934782 0.00073258375 0.00041033304 -0.0008357122 0.0035485663 0.0005353838 0.00054419605 0.0021945087 -1.3249519e-07 0.0012994095 0.0005042944 0.0017703222 -0.00065698114 0.00046633868 0.0006229688 -0.0029956892 -0.0005045709 -0.0014360327 0.0016082573 -0.0010547282 0.0007341754 0.0015547748 0.0017583512 -0.00072446326 -0.0025987176 -0.0013817876 -0.0021060067 -0.004669201 -0.0009968773 -0.00036159152 -0.001119092 0.00077761256 0.0008279413 -0.0031184251 0.0019179777 -6.2230743e-06 0.0018900972 -0.0005200271 0.0004919029 -0.0014705359 -0.00021080377 -0.0017144007 -0.0015820132 0.0035211525 0.0010685965 0.00013567353 -0.0016205655 0.0024195279 0.00155425 0.001479894 -0.0013123911 0.00081249553 0.0019611393 0.0016457185 0.0032062263 -0.0015360032 -0.0017176011 0.00022092213 0.0015102332 -0.0001246959
she 0.0017867365 0.0002828856 0.0027321468 -0.00066086743 -0.0025900544 -0.0029350552 -0.00068639894 0.0027809718 -0.00016417628 -0.0013832799 0.0015594127 -0.0005446094 0.0018663987 -0.0009422717 0.0010527765 -0.0002790524 -0.0011817853 -0.0011253358 0.00043207247 -0.0015388759 -0.00022307907 -0.0008259673 0.0022119174 -0.0003629867 -0.0013464373 0.0005979626 0.00040291648 -0.00016202073 -0.00062980386 0.00055410404 0.0002450551 -0.00016822478 0.0016596875 0.0014742928 0.0025890442 0.0021319282 0.00076403754 -0.00097583584 -0.0019546177 -0.001201246 -0.0012676204 -0.00027525696 -0.0030924901 0.0020712723 -0.0023601102 -0.002129903 -0.0018045389 0.0005161554 -0.0018444661 0.00012747668 -0.0011966504 -0.00038605309 -0.0018908898 -0.0005737936 0.00056538923 -0.0009876855 -0.00018180876 -0.0006622324 0.0007832414 0.0003924132 -0.0017105207 -0.0008017319 0.00041076646 0.00035485422 -0.0030089612 0.0022830039 -0.001797454 -0.0010913122 0.0011041904 -0.0004357419 0.0008372102 0.0026171503 -0.00056238496 0.0018540939 0.0016607789 0.003972029 0.00017458966 -0.0018865413 -0.00047870606 0.0017310246 0.00062296406 0.0018394375 0.0014833701 0.0039723255 -0.0038257139 0.0015975682 -0.0011760002 0.002211707 0.0020748072 0.0021803281 0.0023855888 0.0005028088 -0.0014767005 0.0017573544 -0.00024748757 0.001031304 0.0028729662 -0.0012099294 0.0012795764 -0.0017203542 0.0018236041 0.0021568749 0.00026385908 0.0025054887 0.0008549441 -0.0011920887 -0.00048601715 0.002828848 -0.0014194221 7.5231015e-05 0.0011179359 -7.9157675e-05 -0.00028198006 0.0003772451 0.00036493535 -0.0010331727 -0.00012434451 -0.0025726203 -0.001060202 -0.0028765497 -0.0010812846 -0.0014293053 0.0017622557 -0.0021015215 -0.0016889349 -0.0012890917 -0.003211908 0.0016707383 0.0003159976 0.00033776707 0.0011214175 -0.0006919402 -0.00021811572 -0.0005915027 5.731566e-05 0.0015478765 -0.00045388896 -0.0011276378 -0.0032848017 -0.0036824977 -0.00083437416 -0.00075431936 0.00062191096 0.00078573334 0.0003431527 0.00014595441 0.002655478 -0.0013421949 -0.00012799032 0.0023347556 0.001091558 -0.0021038514 0.0006806355 0.0033515221 -0.003535822 0.000561535 0.0013203725 0.000119539094 -0.0012548743 -0.00030435846 0.0006339934 0.00013445852 -0.00046615003 -0.00084013207 -0.002603402 0.0022558635 0.0030882298 0.0030341626 -0.0012826525 0.001523429 -0.00067863456 0.0035004169 0.0005445493 0.0022838458 0.0005952278 0.00025830054 -0.001426604 0.00084079185 -0.00084293284 0.00018252492 -0.0005808222 0.0022890042 -0.0016028062 7.417288e-05 0.0014764412 -0.00045122657 -0.0020928443 -0.0010078945 0.0011158483 0.0016121762 0.0025994706 -0.0015086981 -0.0014334565 0.00046001445 0.0022290172 -0.0008710404 -0.0020229407 -0.0007950081 0.00022981389 -0.00015155079 -0.000554498 -0.0011843018 0.003219272 -0.002462211 0.0015951648 0.0011658653 -3.1381426e-06 0.0010325956 0.0009894164 -0.0013027701 -0.0012281485 -0.002828773 -0.002743447 -0.0013020916 -0.0008161435 -0.0031108316 -0.00027687984 0.0008057035 0.00011789665 -0.0020723904 -0.00038023366 0.0022537732 0.00025703904 0.0016470702 0.00058072427 0.0015159553 -0.0005928001 0.001182227 -0.0005101667 0.002445791 -0.0017573982 -0.00047543473 0.00048785747 3.4954068e-05 -0.0011861925 -0.0019795967 -0.0019761582 -0.0030357456 0.0017210887 -0.00046455342 -0.000505812 0.00085679785 -0.0022201377 0.0010358499 -0.0022029707 -0.0028640572 0.0017257759 -0.0010190029 -0.00071343 0.0013430618 0.0013302317 -0.0029448355 0.00074803375 -0.0018514242 -0.00025125474 0.00012791147 -0.00051549653 0.0021303534 0.00020377414 0.0019695451 -0.0024932919 -0.00031238372 0.00035254442 0.00044602415 -0.00011308538 0.001088215 0.00088984316 0.00088317774 -0.002997949 8.847761e-05 0.00021953677 0.0019336881 0.001872556 -0.0015093336 -0.0010553697 0.0004915828 0.0005293416 -0.003022844 -0.0021810217 0.00066228764 -0.0021722503 0.0015424468 -0.00034262007 0.0010314095 0.0009906323 -0.000915735 0.0022738934 -0.0012730885 0.00028567505 0.00032728256 -0.00015839019 0.0014054992 0.0015211205 -0.0020045654 0.0016209824 0.0012687375 0.0034698443 -7.6774406e-05 0.002157217 0.0010906121 -0.0029600174 0.0028072044 -0.0019694653 -0.0008496905 -0.00048250996 -0.0019775482 -0.0014738028 -0.00069592125 -0.001476184 -0.0008467397 -0.0013039536 0.00057379506 -0.0014399607 -0.0017306034 0.0029796094 0.0013800072 0.0020587235 6.0189373e-06 0.00041531652 -0.0016136259 0.0030134742 0.00040863163 0.0017073643 0.0008611962 0.00082435407 0.001091052 -0.0020396183 -0.002618192 0.000844424 0.00081358664 0.0033562216 0.00087978493 0.0017145782 0.00017128195 0.0014535799 -0.0014649866 -0.0022299734 0.002998708 3.7336704e-06 -0.0016041355 -0.00089300855 -7.642588e-05 0.0024957343 1.956549e-05 -0.0008294645 -0.0020611538 -0.0029269308 0.00020144793 0.001234385 0.0003140981 0.00027700703 -5.5945384e-05 -0.0024719269 0.0014703398 -0.0009976136 0.002377532 0.00039530266 -0.0005037811 -0.00082397717 0.0010806189 0.0003076646 0.0023710274 0.0012137853 0.002701881 0.0013035868 -0.00028539714 0.0026860202 0.0011154505 -0.0002766423 0.00078365626 -0.00018269448 -0.002228597 -0.001453139 0.00046275012 0.0014005861 0.00084130146 -0.00013792879 0.0015021245 2.6582908e-05 -0.001035719 0.0010439896 -0.0015836692 0.0029230155 0.0017234574 0.0015221672 0.0010084762 0.0016190526 0.0025426156 0.0007156749 -0.0015171425 0.0012341937 0.0017569108 -0.0008450643 0.00041096553 0.00012457627 0.00048789856 0.0016260645 -0.0015353496 -0.0018036118 0.0028059422 0.00086796307 0.0016359418 -0.0007641421 -0.0030255904 0.0016054772 -0.002477568 0.0009333167 0.0024137136 0.0026025155 -0.0020358844 0.0014055033 -0.0030557883 -0.002172755 -0.0023422563 -0.0007255109 0.002578673 0.003022216 -0.001525391 0.0017397605 -0.0017747366 0.0011922612 0.0021958738 -0.00062675576 -0.00047925644 -0.0017755434 0.0018809878 -0.0005165831 -0.0011437492 0.0006118577 -0.0013106747 -0.0024650637 -0.00024400237 -0.00018190584 -0.0010688549 -0.001676808 -0.0012489904 0.001411834 0.0012118593 -0.0009490114 0.0018230028 0.0022994524 -0.00042458758 0.002088481 0.0008463863 0.003526245 0.0015411469 -0.00010169719 0.00025562107 -0.00044298897 0.000721558 0.0006215129 0.0011323452 0.00076262053 -0.0025488622 -0.0007414159 -0.0024422035 0.002160305 0.0003631462 0.00043416437 0.00013138194 -0.00059156923 -0.0012552021 0.00050906354 0.0010483427 -0.00025818773 0.0007835854 -0.0011368057 -0.0025435202 -0.0007448093 -0.0002362672 -0.0021779917 -0.0018526949 0.0023947111 -0.001015728 0.0008422083 -0.00066895375 0.0028772266 0.0003223066 -0.0002537867 -0.0005794055 -0.0021019035 -0.00051038276 -0.00019708647 -0.00040448888 0.0015118096 0.0013878669 0.0015133396 0.0024622912 -0.0004385012 -0.001151916 0.0017060384 -0.00026384037 0.0018194084 0.0013628164 0.0011866807 -0.0012015583 4.1014722e-05 0.0009660073 -0.0014401979 0.0012974768
it -0.0011775832 0.0014057015 0.0014628161 0.002488706 -0.001901057 -0.002410699 -0.0011136082 0.0022588084 -0.00035513795 0.0018921824 -0.0010281928 -0.0015880386 -0.00088280236 0.0012460169 -0.0010211355 -0.00211082 -0.0029705868 0.0006050943 0.00056877534 0.0006958864 -0.00029651943 0.0008409452 -0.0005671788 -7.488366e-05 -0.0012551093 -0.00036025254 2.4898512e-05 0.0021799898 -0.0017552831 -0.0019855595 -9.414686e-05 -0.0017030542 0.00043967043 0.0018910598 0.00010758629 0.0027651999 0.0020565514 -0.0019412409 -0.002504651 0.00090749736 0.00085106865 -0.0011033494 -0.003112046 0.0021649103 -0.0002279065 0.0008726922 -0.0026116732 -0.0011594837 -3.406967e-05 -0.0019713694 -0.0010413852 -0.0008137563 0.0015840256 0.0008571748 -0.0006372485 0.00034709673 0.0024860522 -0.00075022737 0.0013566246 0.0011244095 0.00041965052 -0.00086436747 -0.0012006002 -0.0006770515 0.00053068006 1.3606867e-05 -0.0007269525 0.0022196737 0.0011318204 0.0014716517 -0.001450943 0.00065061083 0.001266044 -0.0009419327 0.0027159937 0.003620068 -0.0010026519 -0.00050675136 5.1416473e-06 -0.00074342196 -0.0021706733 -0.0002446764 -0.00047509483 0.0031399142 -0.003053168 0.0017820803 -0.001491387 -0.00028474836 0.0025754115 0.002969915 6.781048e-05 0.0008411143 -0.0022128858 -0.001207277 -0.00037052657 0.0022891036 0.0021434135 0.0017559029 0.0018527203 0.001285356 0.00014693296 -0.0014709625 0.0010411395 0.0012331208 0.001753525 0.0004147845 -0.00087051734 0.0029354054 -0.00013564886 0.0008032009 -0.00075848907 -0.0022539299 -0.001340077 0.0025987453 -0.002541336 0.0018286242 -0.0013796735 -0.0012618031 -0.0006755477 -0.002772563 0.0015748882 0.0017002003 0.0019419685 0.0006701885 0.000337154 0.0022290377 -0.0003562106 -0.0017215512 -0.0013674481 3.814109e-05 0.0021023946 -0.0001848052 -8.004136e-06 -0.0021762194 0.0005870288 0.0021823477 0.00045256503 -0.0016330938 -0.0031827006 -0.0041135023 0.0005905859 -0.0018964786 -0.001123899 0.0005276259 0.00206264 0.0009624912 -0.00090576574 -0.0023481501 0.0019630475 0.0014208411 -0.000585949 -0.0024306406 -0.0004484139 0.0029059951 -0.0015115143 0.0012722014 -9.601505e-05 -0.00283845 -0.0022744767 0.00028611498 0.0012592578 0.0008381381 -0.00024316068 0.0007207705 -0.0012592038 0.0014856822 -0.00044574065 0.0027602424 0.0016495159 0.0019805762 0.0015623614 0.0031791432 0.00015361024 0.00082967716 0.0002458536 -0.0027783012 0.0013559007 -0.0018856152 0.0013101416 0.00017789136 7.1086586e-05 -0.0015295639 -0.0021150645 -0.00114931 -0.0014624974 -0.00029484296 -0.0022826209 -0.00081726746 -0.0017184677 -0.0005208009 0.0029093274 0.00022369428 0.0020309056 0.0011796663 -0.0004282851 0.0016637687 -0.0022846728 -0.00073631917 -0.00055777625 0.0010584453 0.00017810507 0.0013324913 0.0018518363 -0.0019494862 0.0021357515 -0.001227268 0.0020539153 -9.593883e-05 -0.0016600572 -0.0011282566 -0.0009727746 -0.002564446 0.00073552097 -0.0011993821 0.0018460234 -0.00324868 -2.0401962e-05 -3.1628428e-05 0.00045620033 -0.0031727173 0.0019933877 0.0007664167 -0.0010326375 -0.0010348287 -0.00014619641 -0.0006512984 0.00032700232 -0.0019009716 -9.73798e-06 0.00046987412 -0.0005956267 -2.6260133e-05 -0.0012684865 -0.0006384732 0.00094721577 0.0015820815 -0.0024457143 0.00010199894 0.0023036131 -0.0012986918 0.0015597674 -0.0022840125 -0.00017782237 0.0021739793 -0.00023131882 -0.0019250518 -0.00081540784 -0.0006094375 0.0008126574 0.0005959045 0.0014952425 0.0005298481 0.0023264969 -0.0013560427 0.0014511639 0.00075107685 0.0011392559 0.0020162193 -0.001425618 0.0013710649 -0.0016427798 -0.000463685 -0.0026309264 0.000499224 0.002027191 0.0010170982 -0.0006824269 0.0016468483 0.0006460851 -0.0017365947 -0.0004378838 -0.00078917213 0.0016724764 0.0016195601 0.0006030305 0.001757731 0.0012551878 6.905046e-05 0.0009049447 0.002235821 -0.0014877896 0.0023087268 0.00071885553 -0.0012281184 0.003547489 0.000283242 0.0026241587 0.0001449731 0.0031398654 0.00024921037 0.0011670768 0.0024630534 0.0015674658 -0.0011533196 0.0022325346 0.002461663 0.0012007671 -0.0015344076 0.0014799286 -0.0018462291 0.0009524386 -0.0011031561 -0.0016050485 0.00023657104 0.0017039778 -0.0019826456 0.0007239732 0.0025858893 -0.0019033271 -0.0018504628 -0.0012178232 -0.0013459303 0.0007986478 0.0013835101 0.002233189 0.00012252592 0.0009595692 0.00091110886 0.002142922 0.0008043778 0.0028054707 -0.0016268875 -0.0006638632 -0.0014432657 0.00059577805 -0.0010620602 -0.001997646 0.00043397673 0.0021551226 -0.0011530985 0.0035015868 -0.00025107595 -0.00059995 0.0010251922 0.00019882018 -0.0013411223 0.00016636755 0.002179314 0.0011785496 -0.0026945886 -0.0008377691 -0.0003860615 0.0028438023 0.0005769545 -0.0011694179 -0.000116050665 -0.003259064 0.0003053956 0.0019912722 0.00025523503 -0.0008257981 -0.0015864728 -0.0015026054 0.00090859266 0.00011150008 0.0036191067 -0.0010747246 0.00014437744 0.0017131589 -8.391614e-05 -0.00048108428 0.0028805363 0.0020765206 0.0024870676 -0.0014981731 0.0019983498 0.002039508 0.001959249 -0.0015739681 0.0016094056 0.001579538 -0.0020230792 0.0015635856 0.00036838918 0.0014223368 -0.0014621549 -0.0002400612 0.0015576116 -0.0024462629 -0.0015379986 -0.00075145415 -0.00052276475 0.00064597407 0.0020085084 0.0026447435 -1.3033653e-05 0.00016815132 0.0013971744 0.0004383167 -0.0017224158 0.0010427475 -0.00055146974 -0.00012407791 0.002433906 0.0017578339 0.0018453487 0.00075919303 -0.0013666485 0.00029298014 0.00087764376 0.0005679793 0.00097314036 -0.0005172602 9.222261e-06 -0.0018184212 -0.00021143339 0.0017413952 0.0005027089 0.00095931755 -0.001250256 -8.370385e-05 -0.000550753 0.0009897491 -0.00036016104 0.00087792386 0.0013250809 0.0026802854 -0.0019209668 -0.0003126263 -0.0016471344 -0.00083759974 0.0019322371 -0.0022610635 -0.0003964702 -0.0019701042 0.00183684 -0.0013428491 -0.0023783303 -0.00010088178 0.0013137474 -0.0011541808 -0.0010117062 0.0003175544 0.00011953122 -0.0025566877 0.0020555567 -0.0018509108 -0.0012695948 -0.0012932575 -0.0008375579 0.0010290038 0.0017103188 0.0016285068 0.001751693 0.0021654067 0.00025113483 0.00021576483 -0.001133335 0.00012162378 0.00030664328 -0.0019328706 -0.0008756662 -0.00214387 -0.0019375884 0.00064510637 0.00083729974 0.0010350457 -7.036913e-05 0.002056026 -0.0007663872 0.0005106355 -0.0017465521 -9.214769e-05 -0.0007086195 -0.00091839366 0.0011392954 -0.0021301305 -0.0025493195 -0.0021273366 -0.00036032323 -0.0016528382 0.00019982782 0.0017046904 -0.0018041848 0.00013888438 0.0009955529 0.0020169094 0.0011649171 -0.0011580583 -0.0017487931 -0.0016873276 -0.00088539143 -0.0003208528 0.001511775 0.0019036713 0.0002757684 -5.5892917e-05 0.00017630572 -0.00010722243 -0.0013769717 9.547318e-05 -0.00030345694 -0.00096268364 0.0017912275 -0.0011290227 -0.0019359709 -0.001674395 0.0009244728 0.0009053817 0.0013154672
and 0.0007748106 0.00074255955 0.00041955916 0.0028299065 -8.5264095e-05 -0.0004758021 -0.00011517761 0.0015545551 0.0018242073 0.00013701626 0.00049515825 0.000115144314 0.0010384547 0.00067629264 0.00072356395 -0.0020207479 -0.002221571 0.00032047 -0.0012409199 0.00013379264 0.00015552038 0.00051634747 -0.0011828553 0.0020117664 -0.00030667332 -0.0012767931 0.0011883551 5.185366e-05 -0.003114503 -0.0010325983 0.0007977366 -0.0020548955 2.6661344e-05 0.00046915642 0.00042601142 0.0014984619 0.0007597122 0.0014978858 -0.00029274894 -0.00044139408 -0.00023285508 -0.0005862083 -0.0031973172 0.002096339 -0.0012933105 -0.002436737 -0.0023020534 -0.000104923456 0.0004884681 0.0009568045 0.0012104092 -0.0014934237 -0.0001429342 -0.0012825873 -0.0010926542 0.0007048402 0.0015176135 -0.0008607863 -0.0021056512 -0.0013781111 -0.00011779781 0.0014387061 0.001013635 -0.0017865737 -0.0028070603 0.0024952835 -0.00057009654 -0.00045351853 0.0015221576 -0.00092739327 0.0011329334 0.0006220821 -0.0011720981 -0.00013396547 0.0023533695 0.0033617308 -0.00025737382 0.0009059979 -0.00084735145 0.00021041841 -0.0015757923 0.00032823466 -0.0003037793 0.0012022702 -0.0028532273 0.002510465 0.00043229442 0.0007346717 -5.5185403e-05 0.0026017968 -0.0005861519 0.0007663468 -0.000811056 0.002174834 0.0021036477 0.00023818821 0.0013119967 -0.00039370643 -0.0015412322 -0.0006304747 0.00015853782 0.0017523951 0.0020329547 0.002938069 -0.0010690929 0.0013350347 -0.0013935168 0.00109132 -0.00027665836 0.0019911919 0.001028153 0.00040735223 0.0019584845 0.0008265384 -0.0019252718 -0.001193915 0.0016676862 -0.0021864763 -0.0007180609 -5.097819e-05 -0.0005726574 -0.0008087696 0.000628612 7.757542e-06 0.00064950687 0.0014912823 -0.002514744 0.0008560943 0.0010181137 0.0006693723 0.0024332274 -0.00035972253 0.00097453763 -0.0020346562 0.00067582144 -0.00080528966 -0.0010409023 -0.002766076 -0.0016426061 -0.0031143827 -0.00015301039 -0.00018416574 0.00079015753 -0.0009111304 -0.0009967332 -0.0006686692 0.0006803253 -0.0018546316 -0.0015704697 0.00031897528 0.0016288224 0.00037882812 -0.0024715795 0.002595249 -0.0028405099 -0.0012916184 0.0009484294 -0.0009449196 -0.0022133703 -0.0010741119 -0.00023661766 0.001472344 -0.0020963796 0.0012932584 -0.0011940743 0.0008457443 0.0031026646 0.002041424 -0.00032892314 0.0015933269 0.0007960286 0.0024716016 2.0542506e-05 0.00015421328 0.0003530849 -0.0019422265 -4.598548e-06 0.00038697952 0.0006537875 0.0026755105 -0.0016371162 -0.0007490735 0.0011200266 0.0006321889 -0.0012658217 -4.5198187e-05 -0.00019408253 -0.000317956 -0.0015413731 0.001274896 0.003215139 -0.0021051469 0.0002700407 -0.00062065775 -0.0006746774 3.4118384e-05 -0.0014391415 0.0016401879 -0.00019140985 0.00091322075 -0.00019131105 0.00075323466 0.0014451331 0.001432057 0.0007070395 -0.0009942496 3.3548577e-07 -0.0002602715 -0.001468626 -0.0018182317 -0.0012077027 -0.0024624385 0.00032309143 0.00025007816 0.0019566717 0.00014524712 -0.0015984279 0.00062705186 0.0008047443 -0.0008823281 0.0010921502 0.0026689267 -0.0016572468 0.0018862879 0.0018212718 0.0016645123 -0.00083674747 0.0008012276 0.0011830232 0.00025059146 -0.0014100757 0.00036630098 -0.0011621588 -0.0010545513 0.0006102385 0.0015687802 0.001334931 -0.002004911 -0.0007706365 0.0014624215 0.001150452 -0.0011889698 -0.002998036 3.043997e-07 -0.0011823318 -0.001376106 0.00016413185 4.1417286e-05 -0.00018623837 -0.0008548671 0.0018522638 -0.0021301187 -0.0008353831 0.0010988767 7.221941e-05 0.0024666907 -0.0007342537 -5.6017474e-05 -0.0009537517 0.000383276 -0.0023123797 0.00028070284 -0.00031328254 0.0013396874 0.0020524843 0.0014135316 -0.0016977063 0.00054938195 -0.001602279 0.0009315167 -0.0020596045 0.00097300904 0.0005207755 -0.0014337598 -0.0021955934 0.0015868192 -0.0019893816 -0.0012318216 0.00015313744 0.0020437292 -0.0018852331 0.000951718 0.0017379641 -0.0021847542 0.00094798935 0.00032327248 0.0016721976 7.6512166e-05 0.0026213396 0.00020461874 -0.000105062405 0.0012029374 -0.0014067885 0.00022981792 0.0010516874 -0.0007665305 0.0012049973 -0.00097205286 0.00067092635 0.0013783906 -0.001278698 -0.00041053368 0.0012428303 -0.0016900371 -0.0014002329 -0.0011634695 -0.0015282206 0.00085586903 -9.9056335e-05 -0.00094437663 -0.0015450239 -0.00062787795 8.824862e-05 0.0002121798 0.002488233 0.0011640914 0.00213429 -0.0025377732 0.0022188677 -0.0008512508 0.0031610762 0.00041030222 0.0007918995 -0.0022715896 -0.0024729033 0.0013013993 -0.0006438364 -0.00042691018 0.0017590488 -0.00045496188 0.0034326066 -0.00041530133 -0.0017719836 -0.0004790699 -5.9709455e-05 -0.002266295 0.0011541819 0.0017120596 -0.0019544284 0.00080365076 0.0014753216 0.0017422582 0.002577166 -0.002527543 -0.00022889924 -0.0021762822 -0.002528403 0.00026809477 1.3794759e-05 0.0010258008 0.0009816636 0.0002563042 0.0002494246 0.0023848927 -0.0016298243 0.003059671 0.0006484771 0.0017198015 0.00076237496 -0.00095274806 -0.001315838 0.000675223 -0.00018651802 0.0027860869 -5.554154e-06 0.0008043047 0.0014843397 -0.0016695837 0.00026221317 0.0025154022 -0.00012065538 -0.0006315518 -0.0011342347 -0.0013693575 0.0013327462 -0.0012921141 0.001576805 0.0005973607 -0.000985014 0.0005785472 -0.00033905482 -0.0006446573 0.0012492472 0.0014990118 0.00040214814 0.0002479087 -0.0017187139 0.0027967973 -0.0010007081 0.0014056922 0.00048609974 -0.0011543393 -0.002036365 -0.0010245369 9.22489e-05 0.0024653235 0.0019452061 -0.00028991583 -0.00034623663 0.0025701425 -0.0015143158 -0.00035431315 -0.00010028 -0.0023373477 -0.001959247 -0.0033076839 0.001680073 0.0022455347 -0.00045977236 -0.001835401 -7.884765e-05 -0.00034951678 -0.0008053549 -0.00014379117 -0.00051246135 0.0019088584 0.0012996793 0.0010212275 -0.0012479206 -0.0018721864 -0.002132098 0.00078165956 -0.0020857586 0.0011622441 -0.0015540209 -0.0004616429 0.00039745396 -0.0021009038 -0.00049120176 -0.0018209255 0.0014418894 0.0018403623 0.00022101386 0.0013510338 0.0004940879 -0.00085022417 0.0016020683 -0.0022201783 0.000866288 0.0008137403 -8.161531e-05 -0.0008917469 0.002414172 -0.0009523789 0.003518597 -0.0011031586 0.0023595395 0.00038296447 0.0010641379 -0.0007599216 0.0011171898 0.0018247002 0.00029208502 -0.0003977715 0.00090155815 0.0008283114 0.0019636794 0.0012579926 0.0018018736 0.0011091108 0.002437354 4.76452e-05 -0.00028485822 0.00014845192 -0.0008688207 -0.00013036621 -0.0023543602 -0.0034226107 -0.0011252337 0.0020818608 -0.001569355 -0.0016636516 0.0017973704 -0.00046930078 0.0012946284 0.0015107853 0.0015107819 0.0012240837 -0.0002730333 -0.00063320476 0.0013165871 -0.000182891 -0.0015780542 0.002381415 0.0013951975 0.0013172738 -0.00062831736 0.001849469 0.0013567846 0.0016108246 0.00040618336 -0.0021967883 0.0005989907 5.309261e-05 0.0013908277 -0.0018331199 0.0020042579 -0.0019118439 0.00092914124 -0.0024209279
was 0.0022030089 0.0019740139 0.0010427572 0.00012668548 -0.00080121256 -0.001088339 -0.0011371803 0.0025267638 0.00093321694 0.0010048072 -0.0015692019 0.0019504399 0.00015570557 -5.500408e-05 -0.0016239987 -0.0001250152 9.21487e-05 0.0009946133 -0.0013720461 -0.0014512428 -0.00088601036 -0.00039673693 -0.0011170616 -0.0014265514 -0.00036750123 5.442823e-05 -0.001555063 -0.0003963971 -0.001269744 0.0012296144 0.0011488127 -0.00040350456 -0.0016140298 -0.0013686783 0.00083004334 0.0024673003 0.0013542062 -0.00077283994 -0.00030445 -0.0027604946 -0.0009610964 -0.0010548763 -0.00020883862 -8.880294e-05 -0.0018162419 -0.0024437697 -0.0011808734 -0.00080487627 -0.0006144788 -0.0009608105 -0.0005068319 -0.0007988885 -0.0019129713 -0.0009464757 0.00030911382 -0.0014990276 -0.0008177097 -0.0009012815 -0.0022142192 -0.00047924797 0.001226172 -0.0007000403 0.0005934656 0.0009379633 0.0008248628 0.0021092491 0.0018801576 -0.0016793297 -0.001257492 -0.001145282 -0.0014642483 -0.0010048521 -0.0014440677 -0.00056559814 0.0011956765 0.00088379806 -0.0024899724 0.00090348616 0.00036224077 0.0013105215 0.0010848593 0.0016070026 -9.184372e-05 0.0025412343 -0.002388706 0.0009890106 0.000767192 0.0030466078 -3.0320054e-05 0.0015313198 -0.00054781954 -0.00027031195 0.0007552634 -0.00033168594 0.00043752248 -0.0011815063 -0.0011397714 0.0017207649 -0.00080569205 0.0009819914 -0.0015275725 -9.332956e-05 -0.0015955421 0.0026153703 0.0017038642 0.0011520338 0.0014339195 0.0010125019 -0.0023194754 0.0024508263 -0.00083746423 0.0011414721 0.0011749767 0.0005095805 -0.0021475628 -0.0001804405 0.0015815501 -0.0023961978 8.9583096e-05 -0.0024139965 0.0016490865 -0.00029752 0.0029896062 -0.001357543 -0.0017067831 -0.0014840704 -0.002258867 0.0011082693 -0.00040100073 0.002040009 0.0018387549 0.001372763 0.00037000858 0.0011278652 -0.0004940497 0.0024811684 -0.0023724614 -0.00024819956 -0.0013196033 -0.00177357 0.0020341845 -0.00089721516 -0.00023313312 -0.0005419303 0.00042944477 -0.00027701995 0.0017304732 -0.0023583595 0.0019180296 0.0005354977 0.000887515 -0.00013225488 -0.0005966633 0.002205549 -0.0022090692 0.00144517 0.0009455512 -0.0014636558 -0.0024309724 -0.0017980213 0.0003269298 -0.0012175889 -0.00067672285 -0.0011518365 -0.002800603 0.0008083631 0.0023347472 0.0005950558 -0.0011265212 0.0014158051 1.9588271e-05 0.000103017155 -0.00028424925 0.0008475812 -0.00058648904 -0.0028161388 0.0013039395 0.00026711312 -0.00085691025 0.0021986484 3.2299955e-05 0.0017115894 -0.0005126996 0.0018918461 0.00010877768 -0.0014513925 -0.001645969 0.002026913 -0.0004113412 0.0004000892 0.0029019539 -0.0018936367 -8.969192e-05 -0.0018298525 -0.0007250651 -0.0015035222 0.000499692 0.0003666618 0.0020186761 0.00068256696 0.00031524146 0.0010289229 0.00059565034 0.00011359666 0.002157765 0.00018179197 0.0015078224 -0.0019217582 0.00067317503 0.00082884607 0.001048719 -0.003084859 -0.000926539 0.00014233205 -0.0010140765 -0.0024650905 0.001003931 -0.0012671864 -0.0019325194 0.0005804295 -0.0009890758 0.003230635 0.00028146323 0.00095203094 -0.00017810578 -0.0010985155 -0.0010388287 -0.0006030835 -0.0011667758 -6.92126e-05 0.0014647024 -0.0021527766 -0.001111071 -0.0010712129 -0.0013997542 -0.0019376029 -0.0006090887 0.00078500586 0.0026699037 -0.0014747804 -0.0017683182 -0.00082796137 -0.0031913032 -3.768407e-05 -0.0014948387 -0.00013189814 -0.0015450178 0.00038645533 0.0008367271 0.0013590163 -0.0003005372 -0.0030605071 0.0015319543 -0.0016135945 0.00058726483 0.0011069071 0.0019356256 0.0015036475 -0.0014791501 0.0018261488 -0.001877196 -0.001098768 -0.00020721526 -0.0005062562 -0.00029077902 0.00022217252 -0.0027819655 0.0009381057 -0.00091127446 -0.0007875979 -0.00016448536 0.0014131521 0.001998022 -0.0018726098 -0.0017659885 -0.0014456966 -0.0020977138 -0.0018587272 -0.00068082544 -0.0011123264 -0.0015585938 -0.00012938555 0.00107001 -0.00044290608 0.003196448 -0.002281174 -0.00048191822 -0.00046302768 0.0027057847 0.00030520893 -0.00015066349 0.0016630723 0.00069529057 -0.0022087889 0.0013645935 0.0019403105 0.0023244438 -4.514336e-05 -0.001026008 -0.0012058535 0.00085943966 0.0005698377 -0.0021540958 0.0007490034 -0.0009248225 0.0005905165 0.0012381041 -0.00034589026 9.76439e-05 0.00063227164 -0.00089189364 -0.0008047644 0.0021046265 0.0013449814 -0.0010472301 0.0015822712 0.0023885362 -0.0012127063 0.0007428553 -0.0009047127 0.0030513618 -8.1474085e-05 0.0012379079 0.0014906276 0.00024377056 -0.0018308951 -0.00051511545 -0.00075614045 0.0007877036 0.00016070755 0.0032857694 0.00071485195 0.0021725558 -0.0008343229 -0.0010966955 -6.141403e-05 0.0004149022 0.00070982805 -0.0015655094 -0.0015337545 -0.0020371687 0.002462522 0.0018510247 -0.0021705248 0.00039564256 0.00042068708 -0.0028035548 -0.0009298741 0.0002701066 0.0024216985 -0.0017421362 -0.00019457885 -0.0021341396 0.00069014507 0.0001117416 0.0003713302 -0.0009849165 -9.892763e-05 -0.0014715204 0.0011383769 0.00035841405 -0.0009764039 -0.00026387497 0.0014082341 -0.0018268893 -0.0014536757 -0.0010152077 -0.0010239161 0.00074441684 0.0022099442 0.00076313264 -0.0027289228 0.0013805634 0.0008245629 -0.0002415973 -0.0023453624 -0.000148688 0.00028091803 -0.0021064992 0.0003884966 0.0005418058 -0.0017547245 -0.0007333328 0.0017018284 -0.001106508 -0.000956552 0.0009904467 0.0006476831 -5.5826626e-05 -0.0010867569 -0.0004953876 0.0013535712 -0.002024559 -0.00045321154 2.0221592e-06 4.0339728e-05 -0.0015919986 -0.0026191787 0.0011110677 0.002222199 -0.0013887787 -0.0019826663 -0.0011268314 -0.0017452786 0.0018095259 -0.0006752418 -0.0013499848 0.00032896077 -0.001491949 0.0002661248 -0.0010884422 -0.0013711031 0.00049425865 0.0011149355 0.0012106935 -0.0005007237 0.002201406 -0.0026638606 -0.0006649543 -0.0024100558 -0.0007475006 0.00091051584 -0.0012814829 0.00043813747 0.0015027437 0.0020176165 -0.00079120597 0.001403493 -0.00044584335 -0.00079267914 -0.001808363 0.001462761 -0.001977559 -0.0001346299 0.0011321215 -7.910968e-05 -7.226045e-06 -0.0015832217 0.00025823875 0.0016827809 -0.0013115924 -0.0008997039 0.002124987 0.0006367906 0.0018481765 0.00012695145 -0.0013469323 0.0025465863 -0.0008624725 -0.0011165759 0.00056764734 0.0003093842 -0.0013086093 0.00052076596 -0.0005469254 -0.0020140628 0.0015983226 0.00090916554 0.0020715417 -0.00028822318 0.00077383424 -0.001542891 0.00079555024 0.0018016932 -0.00092601945 -0.0006091291 -0.0013951726 -0.0015028955 -0.0021332155 0.0013902267 -0.0004692215 0.0016055516 -0.0004518836 -0.0017185401 -0.00038941295 -0.00073692034 0.0013439568 0.0009825799 -0.00022949988 -0.000117957235 -0.0023284971 -0.0008580439 -0.0021823202 0.0015493016 -0.0001797247 0.0023882724 -0.0007749434 0.0024099858 0.0009939623 0.0004375797 0.00018503584 0.0011349317 0.0010462462 0.0017156983 0.0012673399 0.0011011587 0.001078481 -0.002059198 -0.0014207214 -0.00015522403
. 0.00018694374 0.00078243436 0.0008084362 0.0021790694 -0.0014039058 -0.0008465426 0.0015113446 0.0014654088 0.0012051677 0.00105195 -0.00039064098 -0.0014641677 0.00060304423 -0.0017946613 -0.00040164444 -0.002608561 -0.0010192059 -0.0019111556 0.0013531088 -0.00089152413 0.002176118 -0.0019920366 -0.00044707066 0.0005684496 -0.00055705325 8.764557e-05 -0.00044603192 0.00012942094 -0.0022789715 -0.0020417443 0.0018725543 -0.00017460993 0.0012008217 -0.0015518416 0.0014623948 -0.0012759211 0.0017141207 0.0008480452 -0.0016260498 0.0010327956 -0.0016657029 -0.001820511 -0.00073247234 0.000963648 -0.0022292084 -0.0022176404 0.001145592 0.0007801386 -3.6700778e-05 0.00046937022 -0.0007072745 0.00020514756 0.00018336986 0.001462633 -0.0011630694 -0.00011128314 0.0017837007 -0.0015530955 -0.0021311939 0.0015125218 0.0013739625 -0.0008461476 0.0010784446 9.310607e-05 -0.0016579583 0.00049304735 -0.0010636535 0.0014678126 0.000663211 -0.0015294048 1.6403226e-05 -2.9195875e-05 0.0014224608 -0.00021517332 0.0022330808 0.0014888328 -0.0013081776 0.0015794717 0.0006846897 -0.00054122746 -0.0014190896 -0.0005381622 -0.0009808864 0.0020090803 -0.00290011 -0.0007345796 0.0005947633 0.0008748348 0.0016565841 3.3780147e-05 0.0004410752 0.0006263819 0.00045552623 0.0006309197 0.0025268062 0.0013280214 -0.00089173875 -0.00031073377 -0.0014253106 -0.0011426001 -0.00051475235 -0.0016183148 0.0019035537 0.0012261643 0.00011483898 -0.0010601617 -0.0018801588 -0.0010787555 0.0014743423 -1.671661e-05 0.0009600243 -0.0012857218 0.0021208958 0.0013125452 -0.0002848989 -0.0007323691 0.00060262013 -0.0012135593 0.0013810302 0.00028846273 0.00014020938 0.0008442664 0.0016037155 -0.0015621085 0.0019558573 0.00058329105 -0.0021876495 0.0018872535 -0.0005897905 0.0017889882 0.0006678906 0.0018225969 0.0004174657 -0.001312132 -0.0007919284 0.002608226 -7.649965e-05 -0.0018343233 -0.0007832946 -0.0017840846 0.0008348507 -0.0017730924 0.0017061037 -0.00013081281 0.001984588 0.0012371186 -0.0004989942 -7.9838355e-05 0.000119590804 -0.0016070659 0.0019436034 0.0013621416 0.0015080827 0.00064699235 -0.0028665296 0.0013554579 -0.0008272019 0.0011692508 2.746112e-06 0.0012468076 0.0014677438 5.4471406e-05 -0.0008127763 -4.486183e-05 0.0011617084 -0.0009711823 0.0005436965 0.00032848067 0.0012539995 0.0018505615 -0.00071987294 0.001630951 -0.00093586143 0.0013321005 0.0017327783 0.000100915 -0.0011124819 -0.0009935382 0.0013334267 0.0025400014 0.0010906899 -0.00041850616 -0.00045137704 -0.0010094441 -0.0007025207 0.00045956287 -0.0017816509 -0.0011360967 0.0012513706 0.0020723655 0.002609064 -0.00019337998 -0.0015658101 -0.0016863828 0.0007388934 -0.0017351588 -0.0017539674 0.0002524909 6.202264e-05 -0.0016778946 0.0011869329 -0.0018224587 -0.000728252 -0.00066798093 0.00066270237 -0.00015949037 -0.000893567 0.00087915 0.0012025839 -0.0015706498 0.0019306906 0.0006516008 -0.0021690398 -0.0007308922 0.0009944278 0.0005318049 -0.00095659296 -0.0012659074 0.00026807404 -0.0025877354 -0.0008741988 0.0008762162 0.0012255837 -0.001114433 0.0013205482 -0.000127675 0.0011189808 0.0009755277 0.00023732781 0.0019281965 -0.00016585703 -0.0021527752 0.001992429 -0.0009481212 0.00089733297 -0.00092774164 -0.0017356013 -0.0021105006 0.0017497136 -0.0004636047 0.00016250432 -0.0020942232 -0.0020205686 -0.0005363548 0.0013839663 -0.0022755635 0.00095354643 -8.489794e-05 0.00030186208 0.0019542833 -0.00069318176 -0.0023262985 0.00044224274 0.001172061 0.001545547 -0.00021001181 0.00068233715 0.0019424243 -0.0019688117 0.0017282141 -0.0017260829 0.00082410366 0.00023379392 0.00093394227 -0.00051334547 0.0011199458 0.0007921203 0.002336598 -0.0025817507 0.00092355424 0.00041746633 9.1083806e-05 0.0024258303 -0.0010480304 -0.0008886001 -0.0011166414 -0.0010739325 -0.00068669335 -0.0010555923 -0.00068452855 0.0010014905 -0.0008179169 -0.0014342992 0.0010380076 0.0031097496 0.00038264354 0.00038432874 -9.9172e-05 0.00050437363 0.0013954192 -0.0016096573 0.0011568913 0.00096401107 -0.0006734046 0.0007089203 0.0013828314 0.0028618798 -0.00023098079 0.0023419075 -0.0015008028 0.0003866039 -0.00026884166 -0.0010530977 0.00012294222 -0.00060593523 -0.0016587025 0.0007590395 0.0022189764 -0.0015719353 -0.0021433136 -0.0007785704 0.0011765211 -0.001722089 0.0015603185 0.00053521345 0.0004751893 -4.4125027e-05 -0.0016946613 0.0008075243 0.0010594439 -0.0004020026 -0.00028342762 0.00045000788 0.0006585694 0.0010174633 -0.0010720339 0.001356677 -0.0018229381 -0.00015779666 0.0015889471 0.002108358 -0.001795741 -0.0002776575 -0.0010887448 -0.00024749167 0.0007723462 -0.0016903082 0.0017400614 0.0010532448 -0.0013965813 -0.0021236045 -4.3920212e-05 0.00036902237 0.00026406284 0.0015416628 6.565487e-05 -0.0016712818 0.00073465705 -0.0013321275 0.0002511429 -0.00013984775 0.0018459463 -0.0017226669 -0.0007624032 0.00014956637 0.0015163521 -0.0016727292 -0.0013379961 -0.0003587806 -0.0009123916 -0.002198338 -0.00021946178 -0.00042561512 0.0019058454 6.449409e-05 0.00029984408 0.0006082153 -0.00062696484 -0.00010948825 0.0007418414 0.0013664154 -0.0010003921 -0.0016575933 8.366707e-05 0.001750603 -0.001607369 -0.0008489301 -0.000329961 0.0012749124 -0.00026568933 0.002209477 -0.0019578394 0.0025247259 -0.0015862184 0.002376333 0.0005146667 0.00048204022 -0.0006074452 0.0022127884 0.0011892376 -0.0013231565 -0.0017214866 0.00078024826 -0.00067425874 -0.0011582804 0.0013085221 -0.0010301147 -0.002000975 0.0016180062 9.721705e-05 -0.00071369694 -0.0009386827 -0.0014508362 -0.0016565346 -0.0011205624 -0.001998465 -0.0016855998 0.002732509 0.0016357556 -0.00082212564 0.00022559032 -0.0022080631 0.0010537263 0.0014086646 0.00037874497 -0.00073758187 1.3370796e-05 0.00047467157 -1.7105027e-05 1.94783e-05 0.0016478354 0.0014630419 -0.0014634548 0.0011686651 -0.00077650655 -0.0008067812 0.0008904075 -0.0022388748 -0.0007605495 -0.00060719333 -0.0019710446 -0.0001376639 0.001032991 -0.0008894051 -0.0016993993 0.0015554412 -0.0009113855 -0.0016910927 -0.00044693743 0.00016207526 0.001927862 -6.733411e-05 0.0019723452 -0.0019391539 0.0022343143 0.0013505253 0.00067850086 -0.000221302 -0.00010298636 -0.0002511492 -0.0016459429 -0.0012511215 0.00013383149 -0.0008671111 0.0019093166 -0.00077400747 0.001304001 4.802801e-05 0.001883925 -0.0023164125 0.0009991535 -0.00031700157 0.0004202777 -0.00017189534 -0.0019264601 0.0015581069 -0.0009610666 -0.0007090173 -0.0017698478 0.0009688688 0.0014228293 -0.0004014407 0.0019445925 -0.00046208265 0.0022548283 0.0024156312 0.000488565 -0.00032579017 -0.0023026906 0.0013972188 -0.0008863215 -0.00010633655 -0.0008486024 0.0024795616 0.0018739477 0.00082166615 0.0005467437 0.002072965 0.00053681456 0.0013859891 0.00017178194 -0.0008037138 0.0015386419 -0.0005724467 -6.626687e-05 0.0017283984 -0.0017569948 -0.0010062592 -0.0007652565 0.00083242985
of 0.001981161 -0.00047491156 0.0026112993 0.0015090588 -0.0030273655 -0.002517542 -0.00017427199 0.0014241858 0.00059259613 -0.0007004529 0.0009925611 0.002227913 -0.00023598534 0.00072959583 0.00018785072 -0.0017370012 -0.0034890866 -0.00060808106 0.00060682005 0.0015548284 0.0018037022 0.0002895139 0.0018573017 -0.0010879943 -0.00025314433 -0.0014831746 0.0019913476 0.002314916 -0.0032900325 -3.8155158e-05 0.0023256827 -7.3634226e-05 -9.302586e-06 -0.0014543565 0.0035483036 1.4972206e-05 -0.0007211091 -0.0019766605 -0.0021924628 -0.002102797 -0.0031709126 8.110543e-06 -0.0030720234 0.00012346306 -0.00015162295 -0.00024969166 -0.001163928 0.0007972438 0.0015517557 -5.3271644e-05 0.0009305652 0.0016521383 -0.002524139 -0.0030106478 0.001988502 -0.0005843879 0.000718791 0.00051385973 -0.001622606 -0.0017167612 -0.0016302174 0.0012980237 -0.00065652834 -0.0016258684 -0.0026295166 0.002910269 -0.000666799 -0.00069441414 0.00039852716 4.4988024e-05 -0.0005524432 0.00066525413 0.0010190179 0.00026484983 0.0009840041 0.0029990354 -0.0001197425 -0.0020164407 -0.0012605267 0.001726922 -0.0024618402 0.00027732848 -0.0016997039 0.004699625 -0.0031744768 -0.00027065116 -0.0004948161 0.0015545848 0.0025824143 0.0034964348 0.0009751206 0.00080804684 -0.0004860335 0.000726469 -4.7522626e-06 0.0011524049 0.0016478269 0.001517444 -0.00014443097 -0.0020249386 0.00083971047 0.002700208 -0.0013380208 0.0017189104 -0.0002774618 0.0014882841 0.0015742292 0.0019504715 0.0003393931 0.0023394728 0.0010004624 -0.0023934222 0.00076049124 0.000980645 -0.0014597296 0.0012498552 0.00041395772 0.00038214124 -0.00036335154 -0.0013106473 -0.0006964637 -0.0013147104 -0.00012995335 0.00053852954 -0.00087662356 0.0010250072 -0.0018231439 -0.0010710389 -0.0013534176 -0.00070421945 0.00041216775 0.0009730334 0.001599139 -0.0022384743 -0.0008764905 0.003485506 0.0011829865 0.00059029623 -0.004002296 -0.0020669473 -0.00019464179 0.0008202408 0.0016717913 -0.0015809268 0.0022717228 -0.0008130569 0.0017999011 -0.00075192883 0.0017427194 0.0020201511 0.00014736793 -0.0005598117 -0.002115169 0.001859978 -0.0020478836 -0.0010875367 0.0014408992 -0.0010102125 0.000420609 -0.0010675231 4.4403805e-05 -0.00088650105 -0.0018647359 -0.00058196555 -0.00080683455 1.5029282e-05 0.0016178496 0.0034161676 0.00026170138 0.0005795798 0.0017002863 0.0022160257 -9.078514e-05 0.003427996 0.0017326286 -0.0007352726 0.00018263265 -0.0013073189 0.00110542 0.0022959916 -0.0013037517 -0.0007337902 -0.00035939534 -0.00094275665 0.00083263253 -0.0023960823 -0.0014658298 0.0009404196 -0.0002889958 0.0010379994 0.00029058268 -0.00037125195 0.0016466166 0.00033315513 0.002492033 0.00060490624 0.0008017013 0.0014709302 0.0012409564 0.00019436717 0.00030028197 -0.0016335574 0.0028054444 -0.00180856 0.00013065894 -0.00036406674 0.0020305323 -0.0005146703 -0.0013738435 -0.0007316465 -0.00036235183 -0.0020928746 -0.0025636153 -0.0017308978 0.00035264238 -0.0010021544 -0.000115190254 0.001626088 -0.0013257441 -0.0025240364 -0.00090855674 0.0036291135 0.0016412867 -0.0011129752 0.0016142591 0.0018358344 5.675531e-05 -0.0013781583 -0.0020552785 0.0014909416 -0.0009705218 -0.0007214549 0.0020909896 -0.0017089752 -0.0020189586 0.00016191718 -0.0022132103 -0.0036424592 -8.947644e-05 -0.0008387163 -0.00044885647 -0.00063565164 -0.0024750864 0.003350502 0.0011975712 -0.00239415 0.0016451904 -0.0015972533 0.00038735938 0.0009102741 -4.3675478e-05 -0.002792961 0.00065322616 -0.0005737243 -0.0025698142 0.00028600916 -0.001223139 0.0028266532 -0.002184031 -0.00069568004 0.0003011002 0.00095307996 -0.0010761325 0.0011504211 0.0001091377 0.002766342 -0.002880817 0.00082052016 -0.0029008277 -0.00011633262 -0.0026571192 0.0026500754 0.002410038 -0.0018601489 -3.689235e-05 0.0019328393 -0.001995539 -0.00072419655 -0.0023676038 0.0027678346 0.00027920894 0.00041075065 -0.0022027907 -0.0013938859 0.0024952656 -0.00076064427 0.0025832325 -0.0010402544 -0.00017544294 -0.0017437956 -0.0010260495 0.002736515 0.00027171356 -0.0010305111 0.002883871 0.0014822267 0.0033763032 -0.0007909442 -0.00050321023 -0.0011219752 -0.0029445556 -0.0001544254 -0.0010609205 0.00093470275 0.00037207716 0.0005163874 -0.00024966037 6.547533e-05 1.7014998e-05 -0.000262917 -0.00035322265 -0.0013599808 -0.00075245934 3.1586605e-05 -0.00018747886 -0.0017355963 -0.0010948068 0.00072139676 0.0011886946 0.0009837723 0.004223315 -0.001548046 0.0010060456 -2.5395866e-05 0.00021665881 -0.0014766314 0.0016861709 -0.0026783592 0.0020732312 0.0008014079 0.0022440464 0.0008226035 0.0016035577 0.0017801363 0.0016691927 -0.00034435847 -0.0007622377 0.0028970714 0.0005491086 -0.0019524432 -0.00014242769 0.00090450654 0.0029250388 -0.0021903305 -0.001221721 -0.00097150385 -0.0020205725 -0.001026758 0.0017446125 0.00045951313 0.0015717609 0.00029038766 2.7104272e-05 0.00054923474 -0.001482356 0.00282995 -0.0011802285 0.00084718096 -0.0014994142 -1.36243e-05 -0.0010343745 0.0010811237 0.0008840948 0.00084821455 -0.0011227789 -0.0017533703 0.0017888717 0.0012756768 -0.0029476213 0.0031080754 0.0011618616 -0.0028229116 7.081888e-05 0.00060053245 -0.0019327708 -0.0007068195 0.0014561769 0.0017116845 9.342197e-05 0.0005753362 0.00021265712 -0.0017085542 0.0033291387 -0.00062740035 0.00076012383 -0.00034418624 0.0011796802 3.7572194e-05 0.0017792523 0.0003389712 -0.001246192 -0.0012784414 -0.0029811317 0.0015758352 -0.00020809285 0.0029392224 -0.0006536692 -0.0029728317 -0.0016657149 0.002629449 -0.0012792619 0.001085241 -0.0031917614 -0.003568187 -0.0011263401 -0.0019456758 -0.0016008493 -8.0772166e-05 -0.0009980355 -0.00039736426 0.0009988192 -0.0031067363 -0.0019462479 -0.00036271702 0.0011824084 -0.0002881253 0.0029457319 -0.0027137005 0.0022598414 0.0005162781 0.00057671784 0.002542758 0.00074694457 0.0009127461 -0.0018899237 0.002269674 -0.0027526105 -0.0018533748 -6.743179e-05 -0.0022377071 -0.0019908224 -0.00046832746 0.00038526749 0.0012722115 -0.00029412715 0.0017413232 -0.0010753351 0.00056352676 -0.0025353867 1.5306556e-05 -0.00070065435 -0.00037483504 0.0018158824 0.0010399885 0.002268095 0.0005269565 0.0026787997 -0.00027379807 -0.0015307016 -0.00036798537 -0.00103291 0.0020013577 0.0012479736 0.00081747567 0.0018819792 -0.0029179228 0.00023190334 -0.002326713 -0.00044561093 -0.0027087554 0.0017980866 -5.992562e-05 -0.0014464655 0.001414335 -0.0011551618 -0.00044234816 -0.0016407093 -0.0030786889 -0.0016306366 0.0020694037 -0.0008471446 -0.0013153915 0.0023471296 -0.000888293 0.001011271 0.0026685437 0.0004701359 0.0016394668 -0.001568733 -0.0028071653 -0.0016684862 -0.0020111613 -0.0012544789 0.0013319106 0.0016504637 0.0021227796 -0.00043135995 0.0025607797 -0.0002170443 0.00048141758 0.00013043152 -0.0012940944 3.1998592e-05 -0.00076663576 0.0010716985 0.00042328326 -0.0018725031 0.00040601142 -0.00064502435 -0.001300428
i -0.0006226573 -0.00025026145 -5.807785e-06 -0.0007050657 -0.0011072418 -0.0030960352 -0.00081077765 0.00034256838 0.002617192 6.644348e-05 -0.0017934071 0.0014780476 -0.0016781307 -0.0003820266 0.0007230275 -0.0026928117 -0.0033321723 -0.0019114661 0.0013255745 0.0019806898 0.0010929885 0.00017333949 0.0015322294 -0.00035765328 0.0019552126 0.0011137223 0.0013052219 0.002320337 -0.0036318428 -7.2902294e-05 0.0028890888 -0.0005884135 -0.0014822199 -0.00055676815 0.0007224122 0.0008285453 -8.379131e-05 0.00085804134 -0.0007784209 -0.00015208688 -0.001731687 0.001510451 -0.0030417852 -0.0012941574 -0.0019895863 -0.002158235 -0.0021233952 0.00085004774 0.0001914037 0.0003996049 0.0009922605 -0.0004859503 -4.8019006e-05 -0.0007340762 0.001558547 0.000660898 0.0004649029 7.266968e-05 -0.0017298566 -0.0012915977 -0.0013856388 -0.00011460558 -0.0009728068 -0.000862968 -0.00089365075 0.0018129124 -0.0019609646 0.00078263355 0.001479829 0.001073784 -0.0004077438 0.0027475618 0.0020228026 3.2717275e-05 0.0014618364 6.397247e-05 -0.0019264171 -6.916725e-05 0.00087371917 0.00045878245 -0.0023749175 0.0012339473 -0.0013223784 0.004103229 -0.00069613283 -0.00066731503 0.00049588503 0.0030096213 -0.00040975524 8.893591e-06 0.0026833205 0.0005505918 0.00086039945 -0.0013756898 0.0006025044 0.002427804 0.00060120574 -0.00043651144 -0.0010526676 -0.0012140304 -0.001351737 0.0023655104 -9.050267e-05 -0.0001445733 0.002353185 -0.0004874358 -0.0006422042 0.0014102184 1.698352e-05 -0.0002004494 8.6127504e-05 -0.0011828524 0.0018942488 0.0022991148 -0.0005181556 -0.001087529 0.0012625904 -0.00101666 -0.0014995 -0.0021710363 -0.0008423899 0.00077877706 -4.5475423e-05 -0.0013555023 0.0019591835 -0.00037925396 -0.0001572501 0.0003652314 -0.0016647809 -0.0007803507 0.0015618207 0.001649246 -0.0014763231 -0.0018678125 -0.0013267574 0.0026484907 -0.0012244212 -0.00037226026 -0.0018031122 -0.004057184 0.0005610357 -0.00022273953 0.0010164621 -0.0024787884 -0.0006150332 -0.0007171363 0.001338536 -0.0022248037 0.0005966491 0.0013509741 0.0014637057 -0.0005547382 -0.001340192 0.0025425856 -0.0032232092 -0.0006251523 0.0030486954 -0.0017037115 -0.002789479 0.0009668836 0.0020657293 -0.00010497008 -0.0002550585 -0.0010474208 -0.002253298 -0.0009668718 -1.059086e-05 -0.00046808334 -0.00083754805 0.0027087943 0.0020338232 0.00124396 -0.000121290555 0.002897375 0.00034318364 -0.0021607862 0.00010044523 -0.00029881456 -0.0010946324 1.5670692e-05 0.001888389 0.0019650178 -0.0019468955 -0.00066396303 0.0005586939 -0.00010318933 -0.0025251254 0.00213377 -0.00172347 0.0012322401 0.0034372807 -0.00057972403 0.0011286295 -0.00082295266 -0.0010807114 0.00040402796 -0.00063871493 -0.0022865876 0.0025273575 -0.0013187452 0.0008689117 -0.0009826706 -0.00056423014 -0.0024295973 0.0018985391 -0.0009920888 0.0013874705 -0.0010071394 0.0010349761 0.0012594432 0.0018904264 0.00019218987 -0.002719214 -0.0026085116 -0.00087803655 -0.0016755096 0.0007073147 0.00088851154 -0.001477837 -0.00039535132 -0.00011152807 0.0006240503 0.0012695356 -0.0019805946 0.0007895896 -0.0009475955 0.0025960412 -0.0012567159 0.0003868888 -0.00062616 0.0016233545 -0.0020098109 0.00091646664 0.00062579935 0.0017077589 -0.0013472143 -0.0015193315 -0.0026881224 0.0026087922 -0.001511114 0.0007729386 -0.00060161244 -0.00029916043 2.4204295e-05 -0.00054589 -0.001003012 -0.0018092202 0.001883118 2.8235003e-05 0.0015308055 8.910551e-05 -0.00061198365 0.00087539945 0.0011697873 -0.002219308 0.002635955 0.0020166258 0.0018372745 -0.0005163845 0.0014198127 0.00011342508 6.287813e-05 -0.00060616684 0.00022016343 0.0017677788 0.002797785 -0.0026735242 0.0010785692 -0.002886241 -0.00055743626 -0.0028068486 0.0013943366 0.0006471809 -0.00042717275 0.00023910124 -0.0012979183 -0.00027055157 -0.0018521501 -0.0014240043 -0.00078159844 -0.002260498 0.0020875575 -0.001759632 8.140958e-05 0.0012236843 -0.0009427734 0.0012389879 -0.0021220916 0.00017589923 -0.0014228852 -0.0025234143 0.0009046754 -0.00047485114 -0.00042791088 0.000713665 -0.00048922515 0.0008561635 -0.001781358 -0.00047701408 -0.0018488114 -0.001574694 -0.00075457466 -0.0020806908 -0.0018070247 0.0012243249 -0.0024792184 -0.0005629868 0.0022130888 0.0008862802 -0.0018796824 0.001130948 -0.002194056 0.00033445895 0.00068965653 0.0005508912 0.0019136944 0.0005037336 5.270681e-05 0.0016862294 -0.00205076 0.0004858382 -0.0015825436 -2.2656144e-05 -0.0018230288 -0.0007473933 -0.002186546 -9.425288e-05 -0.0013425823 0.0017466357 -0.002235354 0.0012951272 0.0010220653 0.0019005429 0.0008160044 0.0003183355 -0.0018007046 -0.00019995577 -0.00045923548 -0.0018777959 -0.0007540019 -0.00035145538 0.0019072659 -0.00046220765 -0.000493015 -2.9960069e-05 -0.0016579865 -0.002234063 0.0014641936 -0.0012911884 0.0009109688 0.0010615997 0.00023380748 -0.00040728063 0.0027269293 0.0007486638 0.0024764086 0.0011428789 -0.0017499779 0.0013097617 0.00036217857 -0.001950965 0.0002640142 0.0015132818 0.0021999627 -0.0021189242 0.00020950177 0.0008963508 0.00034009386 0.00014642847 -0.0004014601 0.0021514145 -0.003299787 0.0013900399 0.0017487268 -0.0011160481 -0.0026985935 0.0016229908 -0.0014531232 -0.0024223074 -0.00039580234 -0.00078212254 0.0012420181 0.002761673 0.00079013675 0.0023898594 0.0022363632 0.0009344908 0.0018601462 0.0019255341 0.0012922931 0.00073024863 0.0016146605 -0.0026257 0.0025214823 0.002857777 0.0031692742 -0.0019246951 -0.0015365131 -0.00055168703 0.0016198065 -0.002379637 -0.00020759556 0.00024236797 0.00054193294 -0.00060425693 -0.001320888 0.0011488972 0.0010765808 0.0010303371 -0.0019985773 -0.00023382364 -0.00015703462 0.00016114955 -0.0025306323 -0.0006061848 0.0017856603 0.0013093472 -0.0017508006 0.0021004828 -0.00036530287 -0.0019307728 0.0030634194 -0.002277343 -0.000513464 0.0015528254 0.0012018221 -0.0019512548 -0.00041598556 -0.0017624967 -0.0019370125 -0.0021169796 0.001128667 -0.0019770064 0.0011142828 -0.0016966215 0.0015644951 -0.0011989087 -0.0013289063 0.00037859826 -0.0015121883 0.0010174762 -0.0008030894 -0.0006405688 -0.0015102801 0.003917745 -0.0008737948 0.0017355989 -0.0013186942 -0.00014097134 -0.0005942032 -0.0011846892 -0.0005218183 -0.0020309195 -0.0015027118 -0.0005880687 -0.0013882053 -0.0008765553 -0.0024972772 0.0015234713 -0.0009789048 0.0021253743 0.00059633615 0.0016881049 -0.0009467923 -0.0028131425 3.2884316e-06 -0.00258475 -0.0007200073 0.0007821044 0.00036246423 0.00042490996 0.0013786922 0.0018686868 0.00023674268 0.002926608 0.0010702527 -0.00075854786 -0.0016468163 -0.001001382 -0.0011762725 0.0012103764 -0.002779073 -0.0014008229 0.003268841 0.00018819797 -0.0010357627 0.00028255302 0.0002748668 -0.0010262529 -0.0010177483 0.00036426546 0.0008789907 0.001628684 0.0018034024 0.0026915025 0.0007780614 -0.0011241591 0.0008811659 -0.002178783 -0.0014973851
a 0.0019185749 0.0021838858 5.388222e-05 -0.00039937193 0.0006456957 -0.0023568354 -0.00073060155 0.003119021 0.0016505737 0.0010979908 -0.0003500793 0.002011234 0.0017539798 0.001391933 0.0020613638 -0.0024112063 -0.0015126958 -0.0010271783 0.0011037268 0.0021237894 0.0014739364 0.00043091728 0.0020256536 0.001467663 -4.2709748e-05 -0.0019167453 4.1746465e-05 0.0023694036 -0.0029579322 -7.976225e-05 0.0020774 -0.0016822582 0.0015492664 0.00023106489 0.0017962769 0.0028204082 0.0006338947 -0.00047655695 -0.0026725023 0.0008876834 -0.0029342375 0.0015800813 -0.0007544098 0.00056209374 -0.0026574736 0.0010797235 -0.0014361298 0.0019598866 -0.0009097544 -0.0010485303 -6.62203e-05 -0.0017474694 -0.0016884117 -0.002855073 0.0010742481 -0.0008349103 0.0007278778 0.0007420273 -0.0010208109 -0.001858443 0.0006178343 -0.0013682768 -5.0085877e-05 0.0017710499 -0.001280576 0.0025138452 0.00071523647 -0.00030804815 -0.0005669576 0.0021100154 0.0005037584 0.00077039376 0.0004098668 -0.001083462 0.0020164244 0.0012743402 -6.8100446e-05 -0.0009843596 5.094162e-05 0.0011692492 -0.001992993 -0.0003159706 -0.0017469939 0.0027810857 -0.0013944153 0.0013032086 7.720062e-05 0.0014352024 0.0013518308 0.0011031113 0.0019955912 -0.00036845176 -0.002227212 -0.0005613666 -0.0010790086 -0.0006745737 0.0014193059 0.0007183827 -0.0006604378 -0.0020202398 -0.0013989477 0.0014192562 -0.0017681409 0.002464754 0.0018518979 0.0013455683 -0.0018359745 0.0020910413 -0.0016579158 0.0026303732 -0.0007024706 -0.0010495996 0.0011500996 0.0007655141 0.0002856096 -0.0007243323 0.0015251962 -0.0032032083 0.001029318 -0.0013138456 -0.0012808922 0.00031091366 0.001115033 -0.00046655745 9.694198e-06 -0.0015053656 -0.0034619416 -0.0010714959 -0.0023282897 -0.0006767275 0.0035685168 0.00037180778 -0.0018591288 -0.001904415 0.0008209786 0.00083278766 -0.00081704697 -0.0019567441 -0.00043737603 -0.004124319 -0.0006441437 0.0010321584 -0.001072347 -0.0002873126 0.00078545004 0.002567295 0.0014884484 -0.00093156425 0.0009720529 0.0011253819 0.00095207896 -0.0016199074 0.00016463548 0.0037223038 -0.00026303405 0.00050802284 0.0008843846 0.00033296307 -0.002559835 0.00013557007 -0.0009702285 0.0009679286 -0.0024375168 0.00032039997 0.00046621676 0.00041995067 -0.00028756494 -0.0002840556 0.0011606924 -9.8433266e-05 0.0013225185 0.0013730559 0.0015215533 0.001167271 -0.0011339213 -0.0022175175 -0.00017083969 -0.0016605554 0.00093356706 0.0003444611 -0.001225276 0.00055000425 -0.0011867934 -0.001148861 -0.00086921605 -0.0007478928 -0.0008122755 0.0010388389 0.0006451028 0.0015985245 0.0028716791 -0.0006986149 -0.00078924984 0.0014933482 0.00066159945 0.0011983681 -0.0006946893 0.0009048869 0.0022463182 -0.0012094036 -0.00073013187 -0.00015138226 0.0017417067 -0.0025216404 0.0015920345 0.00067534094 0.00031866843 -0.0014714344 -0.0024803553 0.0013206754 -0.0017998883 -0.0029443118 -0.00029185473 -0.0024362593 -0.00043616138 -0.0018764318 -0.00082857395 -0.0011695762 -0.00027508265 -0.0013225762 0.0012970374 0.0017115448 0.001584606 -0.0017843005 0.0017178042 -0.0009876578 0.0014027791 -0.0020246431 -0.0006558397 -0.00062047335 -0.0008688963 0.0010482423 0.00076787645 0.00031689057 -0.0012836558 0.0009669194 -0.0021554623 -0.0019326278 0.00013197717 -0.001894923 0.00023408941 -0.0012720377 -0.0012563103 0.0020745595 -0.0017022805 -0.0012156682 -0.00059099874 -0.0018373873 -0.0014327047 0.00057731837 0.0008858146 -0.0014829691 -0.00040853518 0.00012781263 -0.00014244152 -0.0009019634 0.0016648223 0.003235293 -0.003067989 0.00039237872 0.0005815104 0.00016290584 -0.0013060248 -0.00080196734 0.0019420937 0.0023416355 -0.000584646 0.0001978702 -0.0014031848 -0.0010404133 -0.0029294307 0.0022146925 0.0008588378 -0.00045465745 0.0004081948 -0.0013755728 0.00088549213 -0.0028699865 -0.00170151 0.0016611279 -0.0011975443 -0.00030601144 -0.0015997177 -0.0017617504 0.0015605222 -0.0016502936 0.0025400955 0.0014704684 0.001111195 -6.4671704e-06 -0.0018210334 0.0035070372 -0.00076734694 0.00072525244 0.0027650082 0.0022420576 0.0014938377 -7.865689e-05 0.0021831924 -0.0012742761 -0.0009295711 0.002173675 0.00076423155 -0.00033815167 0.0009601286 -0.00228082 -0.001710561 -9.075782e-05 -0.0016204495 -0.00048613406 -0.0010277353 -0.000647406 0.001949001 0.0012916491 0.0025981006 0.00047396668 -4.3686407e-05 -0.0003459399 -0.00020523564 -0.0020964346 0.003089478 -0.0018808001 0.0008566634 -0.0012451509 -0.0018730235 -0.0008754127 -0.001448038 0.0005451147 -0.00081608427 -0.0022688142 0.0029348822 0.0006778116 0.0011353289 0.0016617693 -0.0005867769 -0.0017589077 -9.762997e-05 0.00284865 -0.0013766869 -0.0016022632 -8.068201e-05 0.0020307263 0.00026079133 -0.0017197517 -0.00086802396 -0.00029261116 -0.0011519127 0.0013318367 -0.0017193578 0.0023539325 -0.00021250613 -0.0007854427 -0.002868703 2.0790158e-05 0.0012332752 0.0024388065 -0.002081688 0.00027178356 -0.0016376843 -0.0021993064 5.95204e-05 0.0014542238 0.00046321668 0.002746043 0.0009849435 -0.0011076395 0.0015606773 0.000723665 -0.000841412 0.0027119007 -0.0011170227 -0.0018400701 0.00042355317 0.0011898257 -0.00057852006 0.0006376204 -0.0005924117 -0.0014554596 -0.002134144 -0.0009119576 0.0024852802 -0.0013966955 0.00030517837 0.0022556032 -0.0006582666 0.0005631576 0.0009660227 -0.00046108756 0.0008209945 -0.0006113736 0.0006789554 -0.000581767 -0.0023899535 0.0028285389 0.00039701324 0.002914369 -0.0017819605 0.00047844683 -0.0012050036 -0.000769468 -0.00090046495 -0.0006141931 -0.0013401867 -0.0015643641 -0.0013949565 -0.0023782486 -0.0007620856 0.0030132046 0.0018246927 -0.00033190806 -0.0014063013 -0.00014049411 -0.002473726 -0.00022129448 0.0012080834 0.000699329 0.0001922669 -0.002435018 -0.00059200043 0.00039971017 0.00031693955 0.00092077564 0.0013036528 -0.0015330713 -0.00027262425 0.000845956 -0.002474806 -0.0024574797 0.00041553067 -0.0012061052 -0.0021529736 0.0018201232 -0.0014400282 -0.00044127493 -0.00019492826 -0.00014744079 -0.0020117662 -0.0010420268 -0.00272789 0.0005275333 -0.00024533563 -0.0002534068 0.0012638682 -0.00036680876 0.004286946 0.0015470398 0.00075403444 0.0004970679 -0.0005082251 0.0011983471 0.0017439751 -0.00021137268 -0.0005305319 -0.0014887953 7.403147e-05 -0.0022210055 -0.00012849092 -0.0023802384 0.0005601374 -0.0004452403 0.0015846395 -0.0005486569 0.0010371365 -0.0016232192 0.00090982777 -0.0001834582 -0.00028116404 -0.0010338298 -0.0007237733 0.00086921983 -0.00077216484 -0.0021275468 0.00047569725 -0.0013731534 -0.0006457092 0.0016238762 0.0019177953 -0.000330332 0.00085522153 -0.0013309066 -0.0006324864 0.00033230064 -0.0025042868 -7.192511e-05 0.0019393503 -0.0004894753 0.0016047898 0.0024258788 -0.0014190652 0.0019605772 0.0015661534 -0.0019844559 -0.0009184137 -0.0017246762 0.0015448767 0.0013423827 -0.0004902109 -0.0003289846 -0.0019003236 -0.0016025729
down 0.0012287792 -0.001361464 -0.0010435464 0.0009867124 -0.002425543 -0.002563792 0.0010352716 0.0029821554 -0.0009953086 0.0018605522 0.0017892343 0.0011258009 -0.0007807838 0.001975618 -0.0013781836 -0.0017064168 -0.0008860178 -0.0019877371 -0.002161147 0.0007424902 0.0018978083 -0.0013228374 -0.00023002471 0.00096657116 0.00018553651 -0.0019089023 0.0016599621 -0.00017727452 -0.00073302607 0.00041030862 0.0025548232 0.0015368811 0.001390276 -0.0016918777 0.0011820635 0.00071253185 0.00039475068 0.0012252071 0.0003676874 -0.00252543 0.0012580451 -0.00030723406 -0.0012166572 0.0013845139 -0.0019936764 -0.0006350514 -0.0005137146 0.0020561533 0.0006990763 -0.0004766231 -0.0018170147 -0.00083534914 0.0014118631 -0.0025917646 0.0020169404 -0.0007661389 0.00038988295 0.0017834267 0.0014509584 0.0014204391 0.0019333045 -0.0020804903 0.0015578122 -0.0019621311 -0.0024420081 -0.00082534127 0.00042625697 0.0016890046 -0.00091824285 -0.00030153652 -0.0003671096 -0.00025356974 -0.00016079932 0.0009711464 0.0016911252 0.0007410264 -0.0014695462 -0.0005843556 -0.0005387288 0.0011355934 0.0015251476 0.0017049351 -0.0014624209 0.0005149381 -0.0032057317 -0.00055900734 0.00061215134 -0.00016305919 0.0009872814 0.0026676701 0.0012198966 0.00036530042 0.0009285088 0.0017099442 0.0003576355 -0.0005903933 0.0005135592 0.0014163549 0.0018005412 -0.0009210343 0.0019012054 0.0009008811 0.0009985912 -6.269913e-05 0.0014409247 0.00020350471 -0.0021703874 0.0022180849 -0.0022289667 -0.000741994 0.00064750493 0.0014143292 -0.000321084 0.002087463 0.00049379637 0.0009381774 -0.0008388041 4.6323916e-05 -0.0018324858 -0.0016012946 0.00091421435 -0.0014616792 0.0021944137 -0.00095402705 0.0002486982 -0.0012375587 -0.0026155745 -0.0005214733 0.0013546142 0.0011860727 -0.0006747819 -0.0007480521 0.0003865768 -0.002260946 0.0013791469 0.002177186 -0.0022906307 0.00091554783 0.00047030195 -0.0022640051 0.0009991911 -0.0013079352 0.0014333796 0.0009894313 0.0013606619 -0.0013474376 0.0015523877 -0.0016108304 -0.00010737557 0.0016181334 0.00080383883 0.00019547985 -0.0017556538 0.0028475528 -0.0022653672 0.0003610306 0.0021744247 0.00015343948 0.00079420436 -0.00064378814 0.000989738 0.0015021266 -0.0011389343 0.0008815327 -0.0029131453 0.0023209297 0.0018411585 0.0019930038 0.0012807688 0.001594199 -0.0005796116 -5.9334896e-05 -0.00048781678 0.0013026077 -0.0005747178 -0.0025035266 -0.0014988254 0.0011708009 0.0015432322 0.0019921062 -0.00094177993 0.000505939 -0.0019299098 0.0016943752 0.00019416811 0.0012017211 -0.001733667 -0.00029072646 6.8388385e-05 0.00088300585 -0.0001228889 -0.0020212464 0.0006663661 -0.002013402 0.0018232631 0.0013367195 -0.0010511535 -0.0013068244 -0.0007942106 -0.0001819687 0.001257748 -0.00014126094 -0.0006014574 0.0012507066 -0.0012411601 0.0011912262 0.0015564916 -0.00030035112 -0.0023523779 0.0010940833 -0.0014838481 -0.0020989357 0.0010907185 -0.002210318 -0.0014511289 -0.0020428686 0.00046347434 0.0004917583 -0.0019651942 -0.0017443965 0.002167985 0.0034207068 0.0022328766 0.00018913415 0.0012725936 0.00027827642 0.0011757265 0.0004851212 0.00031070368 0.00057041226 -0.000798859 -0.0019237832 0.0018032009 -0.0012167965 0.0004109394 -0.00034438082 -0.0011751459 -0.0021847202 0.0017303639 -0.001644557 -0.0017042081 -0.0009650478 -0.0003575372 0.0021842252 -0.00064767536 0.00079505506 -0.0015771743 -0.0008552553 -0.001189694 -0.0009475887 0.0015434657 -0.0030161405 -0.0014112402 -0.0023755846 0.0014325372 0.00017244775 0.00034747637 3.7492988e-05 -0.0016811574 0.00042638162 -0.0009820045 -0.0010725117 -0.0021294092 0.0005401386 -0.0013144572 0.0008996461 -0.0012182371 0.0024977257 -0.00090320286 0.0011004066 -0.00216996 -0.00096453144 0.0018891346 -8.99033e-05 -0.0018339844 -0.00027636607 0.0014285385 -0.0029275133 -0.0012252958 0.00071577955 -0.0004512734 0.0021648074 -0.0006112512 -0.0021455053 -8.226319e-05 -0.0025699034 -0.0010232131 -0.0015008975 -0.0002497713 -0.00020108066 -0.00065621646 0.0005168351 0.0006016169 0.0004829755 0.0025115532 -0.00017745867 0.0022387188 0.0006290313 -0.0002607891 -0.0019417059 -0.0015166415 -0.00072756637 0.0010327639 0.0016597 0.002023057 -0.0024706593 0.0011655581 0.0016463173 0.0008045726 -0.002007564 -0.0001643152 -0.0019239958 -0.001512619 -1.8036462e-05 0.002749764 0.001397482 -0.0010735919 -0.000101541606 -0.0005178128 0.0016757755 -0.00047183054 0.0018406815 -0.0012634491 -0.0017272034 -0.0002809673 -0.00056242227 -0.0018552192 -0.0010375653 0.00028018616 -0.0015893166 0.002537367 0.00061687874 0.0018527246 0.0023907318 -0.0012441465 0.00048285484 0.00082310603 0.0020573311 0.00077722286 -0.0017048431 0.0005876268 0.0008415567 0.0011770421 -0.001948886 7.834813e-05 0.000640974 -0.0035114596 0.0018988857 0.00066449284 0.00062328676 -0.00043034548 -0.00010640495 0.00046184516 0.0017835582 -0.0016822777 0.0029311967 -0.00047752762 -0.0017656025 0.001517643 0.00063088624 0.0002973152 0.0023399403 -0.0012776963 -0.00035267722 -0.0005827022 -0.0009122953 0.00037459505 1.7545428e-05 -0.0027299472 0.0011485817 0.0006674099 -0.0011724163 0.0011765076 0.00026690422 0.00090280216 -0.0010739994 0.0019784127 -8.989291e-05 3.8865044e-05 -0.0009045663 0.0016433924 0.00023544152 0.0009864235 0.002207839 -0.0010377597 0.0020930425 7.487063e-05 0.00028955212 -0.0002135263 -0.00192985 -0.0006602907 0.00081228913 0.0004956811 0.0024207006 -0.00085309974 0.0028153537 -0.0018929283 2.862895e-05 0.0013013217 2.592734e-05 -0.0020801928 -0.0017453061 -0.0005176723 -0.0011138945 -0.0019131798 -0.0005771035 0.00025245725 0.001964787 0.001388436 0.0005595451 -0.0022887401 0.00031125025 0.0002786924 -0.001970926 -6.8333626e-05 0.00096680725 0.0006622334 -0.0008343445 -0.00037335846 -0.00079098035 0.0006070303 0.0006301936 -0.0003678328 0.00051647273 -0.0010375654 -0.0008505307 0.0011614896 -0.0024082449 -0.001188121 -0.00064613443 -0.0020066767 0.00052898773 0.00146853 -9.574611e-05 0.0012253684 0.00047131564 -0.0014350542 -0.0005497057 -0.00086848537 0.0013894424 0.0019461723 0.0010657674 -0.0006566944 -0.0013863863 0.003194895 0.0005642145 0.00165264 0.00068774883 0.0010803926 -0.0018344026 0.0020696 -0.0015347237 -0.00053567305 0.0006428378 -0.0018182616 0.00017402438 -0.0012836152 -0.0018806038 0.0007029548 -0.00012347034 3.145948e-05 0.0016597781 -0.0014675452 -6.315653e-05 0.0010842707 0.00019976583 -0.001911167 -0.00068911066 -0.0016316407 0.0003620966 -0.00027922692 0.0013458052 0.0023013938 -0.0015709951 0.0027409953 -0.0003533084 0.002200961 -0.0015620469 -0.0020319095 -0.0009968363 -0.002078017 -0.0013172589 -0.00073037297 0.0009295427 -0.0015887214 -0.00068412576 -0.0015340688 0.0009392932 0.0011732653 0.00019634895 0.0021911648 -0.0011589277 0.0022153312 0.0012338955 0.0023010382 6.9705246e-05 -0.00014389097 -6.0832175e-05 -0.0022166446 0.0014820644
! -0.00023054927 0.0018551388 0.0009910257 0.0012345901 -0.0008237117 -0.0029071188 0.00040700645 0.0016787201 -0.0016131441 -0.00061289256 -0.0005554673 -0.0008209342 0.00081651384 0.00034825667 0.0009501151 -0.0020512776 -0.0021794403 0.00056879525 0.0012426352 0.0012249419 0.0010994724 -0.0017197292 0.0020304106 -0.0012312133 -0.0015252273 0.0015698094 -0.00016201388 -0.0015759015 -0.0016905844 0.0010364625 8.949129e-05 0.0007547258 -5.9205107e-05 0.00072731904 0.0009769404 -0.0011555165 -0.0005511287 0.0014502552 -9.882266e-05 -0.0018325001 0.0008286597 0.0014003414 0.000390147 0.00032765482 -0.0024845083 -0.0012351222 0.00036796185 -0.0008548235 0.001752961 -0.0019575218 -0.0016695255 -0.0011881742 0.00091059785 -0.0020325824 0.0016669764 -0.0025488208 0.0012125142 0.0005221719 -0.00031536006 0.00166808 0.0010398617 2.0567895e-05 0.00093565317 0.0012293606 -1.8656622e-06 0.002697986 -0.00033242544 -0.0014872423 -0.0006074307 -0.00017692534 -0.001421482 0.00021154991 0.0016808312 -0.0010032635 0.0017899484 0.0019743394 -0.00071717077 0.00019126506 0.0011969074 -0.001031949 0.0004686821 0.0018434883 -0.0006637609 -0.00014086821 -0.0029309655 -0.0014077513 0.00069758925 0.001827445 0.0019168296 0.00046949202 0.0006360272 0.000744785 -0.0026066399 -0.0016205182 0.0014623248 -0.0010933053 -0.0001399059 -0.0009528046 0.0014987113 -0.0006866312 0.0019351954 0.00045588406 -0.00095410284 0.00011607503 0.00058326544 -0.0010030066 0.0013862152 0.0026836959 0.00055298046 -0.0010382876 -0.0010782448 -0.0003483896 -5.5449425e-05 -0.00046625506 0.0010890177 0.0012816873 -0.00045976305 -0.00025253283 0.00086024305 -0.00015175776 0.0015445001 -5.3160846e-05 -0.0004176779 -0.00037662566 -0.0015025731 0.0021334095 -0.0028399327 -0.00010647596 -0.00083935185 0.0007506283 0.0019588517 -0.0012392196 -0.0010194667 -0.00030694273 0.00083122106 0.0017760958 -0.0006276998 -0.0007774138 -0.0025342135 -0.00056802115 -0.0010352411 0.00039572016 -0.00047888135 -0.002045182 0.0018046251 0.00030887342 -0.0015187226 -0.0027431129 0.0003792811 -0.0013057521 0.0010981469 9.173778e-05 0.00022560197 0.0002795795 0.00039255468 -0.0014462243 0.002189296 -0.0007165769 -0.00086575386 0.0009569661 -0.00025973222 -0.00095733843 -0.0008727299 -0.0013806537 -0.0008349045 -0.00056792673 0.0018270032 -0.0011727865 -0.00065877027 -0.001261888 -0.0018546727 0.0008268936 -0.0017055131 -0.00038765054 0.00065310963 -0.00089560123 0.00045889436 0.0013065754 -0.00215561 0.0017953617 -0.0015791974 0.0015563194 0.0014079863 0.0020477371 -0.0014623774 0.0004809351 -0.0020674428 -7.462079e-05 -0.0014901535 -0.0015502456 0.0019877807 0.00038921233 -0.00067303615 -0.0018160702 0.0011607705 -0.0006328891 -0.0020581125 -0.0010698885 0.00025723214 0.0018680881 -0.0014646498 0.0013371605 0.002046817 -0.0013590365 3.1270625e-05 -0.0004476188 0.00082367554 -0.00048403692 -0.0011225067 -0.001916144 0.0013107551 -0.0027729862 -0.002436458 -0.00016064626 0.00076121156 -0.0008615854 -0.0001353904 0.0006120231 -0.000298901 0.0007066392 -0.00039958998 -0.0002789858 -0.0014521212 0.0016036989 0.00075558905 -0.001247753 0.0019370125 0.0014111858 0.0015661081 -0.0009484028 -0.0011696533 -0.00084519037 -0.0012055638 0.0009989765 0.0010976018 -0.0013118751 0.0011040817 -0.0024136049 0.0020571493 -0.0013012575 0.00027488524 -0.0009411254 -0.000279814 0.0022550663 -0.00051990565 -0.0016204577 -0.0017295053 0.0008102757 0.0011427487 0.0015366111 -0.0009024708 -0.0029359977 0.0017085413 -0.001261574 0.00057814113 0.0022426154 -0.0006554734 0.0012958085 -0.0015111631 -0.00094374316 -0.0015535279 0.0003342831 -0.0022351462 -0.00036778892 -6.711956e-05 0.0018848467 -0.00035641142 0.0018258679 0.00017677517 -0.0008251368 -0.0015910775 0.0023756858 0.0020364537 -0.0020121469 0.00040422272 0.001829271 0.001647695 -0.0024594055 -0.0007559243 0.0006008203 0.00021840747 -8.788748e-05 -0.0010538471 0.0007866549 0.0026010326 -0.0005043736 -0.00084253575 -0.0011371196 -0.0002836039 0.00087832555 -0.00029463693 0.00062002585 -0.0016890244 -0.00052608625 0.0017838571 0.0018686272 0.001798214 -0.0013092787 0.0022447014 -0.0001545223 -0.00034844354 0.0016807781 -0.001611333 0.0011263523 0.0021997916 0.00018181636 0.00079901825 0.0012835711 -0.000672778 -0.0019564063 0.00015961859 -0.00019675767 -0.0010937273 1.33326785e-05 0.001717166 -0.0014022739 0.0008386722 0.0010376744 -0.0015130999 0.00055483414 -0.00070164126 -0.001717485 0.0014699036 -0.001787859 -0.000691822 -0.0019474655 -0.0017134993 -0.002228141 0.00033056954 9.973172e-05 -0.00050912716 -0.0017124332 -0.00054026523 0.00034852698 -0.0011522485 -0.0012170078 0.0004735172 0.0012506589 0.0011593723 0.00021352459 -0.0004010726 0.0010206004 0.0026965837 -3.5684094e-05 0.0001608244 -0.00023225791 -0.0031639128 0.0012282067 0.0010491969 0.0005397166 0.001997604 -0.0012205568 8.582332e-05 -0.0008995151 -0.002154637 0.001455535 0.00072829163 0.0010704095 -0.0018859097 0.0006675895 2.3524737e-05 0.0014409056 2.4302928e-05 0.0017384728 0.0013063183 -0.0016033353 -0.0014684064 0.0015516509 -0.0009768321 -0.0012707709 -0.00064304046 -0.0005640462 0.0018379717 -0.00038334104 -0.00045755485 -0.002054928 -0.0013660679 0.0004262486 -0.00052142824 -0.001685532 0.00047244984 -0.00202505 0.0002232665 0.0012012238 0.0007828502 0.0016985625 0.0013023294 0.00037427922 0.0014881595 0.0011731365 0.0015476478 0.0020586157 0.00035161816 0.0014102907 0.002266473 0.00043092913 -0.0012026683 0.0012513779 -3.7351274e-05 -0.0005653316 -0.00056198577 -0.0011237724 0.0012714443 -6.2278894e-05 0.0008216096 0.00038234377 0.0016232977 -7.046002e-05 -0.0008371294 -0.0008493908 -0.00091791345 -0.002562967 -0.00054308726 -0.001988514 0.0022569052 -5.0938863e-05 -0.00066147244 -0.0021075031 -0.00013927976 -0.0025520467 -0.00011421103 0.0017151958 -0.0010122494 0.0015856458 -0.0006018471 -0.0009184538 -0.001136504 -0.0009828128 -0.0019446388 -0.0022742858 -0.001156063 -0.00025151254 0.0008120803 -0.0013519314 -0.0013763364 0.0006066198 -0.0006057279 0.00057589175 -0.0008734567 0.0010526208 0.0020672653 -0.001748515 0.0011536746 0.0012439938 0.0013690637 0.0014147962 -0.0005697003 -0.00048013526 -0.0018885358 0.0017484281 -0.0019564251 -0.00057334296 -0.00030528073 -0.0015237469 0.0018710742 -0.0019536922 -0.0015171905 0.001490034 -0.0013716437 0.0014977201 -0.0003568534 0.0010989541 -0.00011622408 -0.0008620833 -0.0021517265 -0.0014659205 0.0008799289 0.00018770921 -0.00044017154 0.0014506741 7.525234e-05 0.0006077445 0.0011431045 -0.0024533675 0.002621769 -0.0012005292 -2.0445692e-05 0.00034823938 0.00069179304 -0.0024313377 6.9064554e-05 0.00072921015 -0.002221465 0.0027463997 -0.0007812957 0.0023792705 -0.0014074867 0.0021352442 0.0019960357 -0.0017327211 0.00019569178 -0.0018748341 0.002141322 0.002014928 -0.00070938084 0.00019496994 -0.000479627 -0.0018996949 7.751125e-06 -0.0022484795
her 0.0008122768 -0.00096005294 0.0020707066 0.0025359713 -0.0014061368 -0.0022020745 -0.0018503583 0.0025118124 0.0010701097 0.0020522622 0.0004990253 -0.00034799907 0.00083205895 0.0017144285 0.0020707245 0.0004474549 -0.0031777916 -0.0020678751 0.0013807234 -0.0014554505 0.0009514327 0.0012806387 -3.2413074e-05 0.0016279492 -0.0017163599 0.0009859654 0.0015768718 0.0011021417 -0.0032656463 0.001637823 0.0025365495 -0.0006063994 0.00074750505 0.0011736477 0.0007308313 0.0020993603 -0.00040466638 -0.0008147285 -0.00085186254 -0.0018135938 -0.00095577206 -0.0017407485 -0.0009392302 0.002273222 5.379977e-05 0.000619021 -0.0020170892 0.0016465278 -0.0016799569 -0.0010636469 0.0019112787 0.0011897956 -0.0013929679 -0.002029585 0.0014007057 -0.00026362127 0.0021692903 -0.0016558574 -0.000703581 -0.0005434128 2.623123e-05 0.0003094418 -0.0014774435 0.00081804075 -0.0014970532 0.0028766235 -0.00033037126 0.0021601447 0.0002271568 0.0012627272 -0.001484793 -0.0010609033 2.230797e-05 -0.00047243843 0.003231518 0.0026187669 -0.0019486337 0.0014526638 0.00032800055 -0.0015401193 0.00067096605 -0.00025810764 -0.0017875589 0.0037569106 -0.00012131446 0.0023717016 -6.018877e-05 0.0028049285 0.0017809164 -0.0002291162 0.0026261532 -0.00053056673 -0.0029509857 0.0021354456 -0.00032909008 0.002562942 -0.000703842 0.0017609625 -0.00071685895 0.0007171442 0.001845164 0.0012868793 -0.000395991 0.000247268 -0.0014352504 0.0009227352 0.0012400108 0.00047663768 0.00071783515 0.0021532231 -0.0017020121 -7.112936e-05 -0.0012993558 2.0682346e-05 -0.0005087717 -0.00127822 -0.00035600457 -0.0026217315 -0.0015600541 -0.00231017 0.0018781001 0.0019566247 0.0012572084 -0.0008255026 0.0015376292 0.00050236145 -0.0034548407 -0.0010959011 -0.00026162143 0.0018602867 0.0021012023 0.0026247131 0.0011074074 -0.0005411565 0.0016661393 0.0030494325 0.001132016 0.0008939797 -0.0032421977 -0.0014726442 -0.0008589214 -0.0019422014 -0.0014188696 3.9108312e-05 0.00060292025 -0.0007345952 0.0017020447 0.0003743042 0.0012512025 0.0021772345 -0.00030039836 -0.0021197079 0.00016194295 0.0015683912 -0.00324429 0.0012807379 0.0003365417 -0.0019564454 -0.00024882812 0.001589725 0.0015468893 -2.1515287e-05 0.0010967089 0.00028278545 8.526574e-05 0.0005404703 0.0016721583 0.0024300788 -0.0015984074 0.00209653 0.0003204678 0.002525545 -0.00036634688 0.0005383397 -0.001014733 -0.0015877602 -0.0008244536 -0.0016087876 -0.0001595829 0.0025581345 0.0009293101 -0.0012153877 -0.0016985734 -0.00022305912 0.00087938854 -0.002242854 0.0004647422 0.0007862902 -0.0012223494 0.0021872015 0.003052163 -0.0006095394 0.0013042175 -0.0021982982 -0.0012236242 -0.00039456968 0.0015419621 0.00042779697 0.002027008 -0.00108711 0.0007436634 8.240134e-06 0.0009997409 -0.0011832257 0.0016324476 -0.001756067 0.0013288043 0.0005451422 -0.0013183904 -0.0010411722 -0.0015003941 -0.0025698505 -0.0020866983 2.4064368e-05 -0.00072915806 -0.0015859338 -0.0021105076 -0.00057051156 -0.0011469777 -0.0029417204 0.0010244141 0.0036825305 0.0009841786 0.0004894647 -0.0005049153 -0.00019608309 0.0012745629 -0.00013553287 0.0015806596 0.00042013862 0.0011436689 0.00041077344 0.000765077 0.0014329777 -0.0011022943 -0.00094684755 0.00091393496 0.0004335265 0.0018371776 -0.0012804008 0.0014343443 3.5733745e-05 -0.0015293772 0.0028094968 0.0005257924 -2.9765897e-05 -0.00010120018 -0.0017007914 -0.00012371324 0.0007781258 -0.0011428735 3.237481e-06 0.0019541946 -0.0022748073 -0.0015068296 -0.00036116067 7.705636e-05 0.0010583143 -0.0017071507 0.00011230211 0.00019655962 0.002602966 -0.0019781247 -0.0015987359 0.0013005224 -0.00043253184 0.0004784452 0.0015501318 -0.002527838 -0.0017499517 -0.0026551008 0.0010937885 0.0014392389 0.00020259875 -0.00082827325 0.00069256726 0.00029070608 -0.0015531768 -0.0020701766 0.0003923192 0.00038512118 -0.00015282058 -0.00077851006 -0.0012861372 0.0032638735 -0.0012666625 0.0024978225 -0.0012123822 -0.0009281847 -0.0012795276 -0.0014392292 0.0019026612 0.0012012764 8.0044636e-05 0.0027067254 0.0012053607 0.0025945068 -0.0011082204 0.00028273644 0.00080177316 -0.0005381067 0.0024536925 -0.001980704 -0.0020001456 0.00024166502 -0.001203463 -0.0002858431 0.0005994622 -0.0015428342 -0.0021531563 0.0014288935 -0.0011643881 -0.00018296363 -0.00089867605 0.0007280848 -0.0017698067 0.000108982895 -0.0010163398 0.0020483849 -0.0018987692 0.0005755375 -0.0004730823 0.00074004376 -0.0015868121 -0.0017519197 -0.002147717 0.00092018995 -0.0028190243 -9.960408e-05 -0.00036291368 0.0019095471 -0.002161042 0.0019435735 0.0005622538 0.00014570227 -0.002311867 -0.0020295132 0.0017799793 0.0006093024 -0.00040767557 0.00080358394 -0.0007467257 0.0010602272 -0.0012581536 -0.0006440169 0.0003543223 -0.0017029407 -0.0012298215 0.0007109656 0.0019649584 -0.0009922839 0.0004257415 -0.0018025469 0.0027633677 0.00027392176 0.0019033152 -0.0006049226 -0.0020649831 0.0015716257 -0.0006690731 0.0008853692 0.0016460571 -0.0014328213 0.0007567611 0.0003321221 -0.00057181116 0.0027870287 -0.0008216631 -0.002571928 0.0016729749 -0.00045608278 -0.0025530048 0.000646692 0.0009609113 -0.0014543625 -0.0017563199 -0.0012361448 0.0006345375 -0.0016666749 0.0015654664 0.00069540815 -2.755545e-06 0.00043523646 0.0020314818 0.00062053057 -0.0015134893 -0.001525095 0.0009835613 0.0023335253 0.00053878326 -0.0014465047 -0.0010718917 -0.0029483894 0.001371772 -0.0007924282 0.0018823065 0.00027278648 -0.0009769186 -0.0024557323 0.0018821957 -0.0006327891 -0.0022294591 -0.0023515483 0.0005407721 0.00035810325 -0.003155903 -0.00029155577 0.0023483713 -0.0013117637 -0.0015651563 -0.0005603546 -0.0030172032 -0.0004986197 1.2311839e-06 0.0019922748 0.0011653918 0.0012298953 0.00021371729 3.154592e-05 0.00051364367 -0.0002913211 0.00081548834 -0.002502593 0.0002637295 0.0010969245 0.0011765336 -0.0022742404 -0.001143682 -0.0020590283 0.0007190798 -0.0018498892 0.0012228484 -0.0011473909 -0.0011821223 -0.0020721082 0.0012058318 -0.0021181847 -0.0013804068 -0.0021456883 -0.00057502947 -0.0001977858 2.449602e-05 0.0019188339 -0.00019116425 0.0010385839 0.0004365667 0.0018465816 -0.00051292824 -0.0014736877 0.0009176588 0.0011661412 -0.001377444 0.0014772423 -0.0027356495 -0.0015364122 -0.0021031804 0.0005783377 -0.0005073568 0.001060538 0.0008327246 0.0017698364 -0.0007139543 -0.0013419281 -0.0018708002 -0.0010988154 0.0015848809 -0.0022074734 -0.00088711886 0.00015710467 -0.0005108253 -0.002352963 -0.0012864819 -4.1182695e-05 -0.00213915 0.0022341025 -0.00084284024 0.00033395385 0.0009896605 -0.00048389676 -0.0025089264 -0.0014078942 -3.292898e-05 -0.00023301927 0.0008200203 0.00033423916 0.0012335335 0.00019340348 0.00068000186 0.0012173379 -0.0013003469 0.0015132122 -0.0025381835 0.00021304436 0.0014690385 -8.629002e-06 0.0013493726 0.0011080267 -0.0020190664 -0.00027005535 -0.0013847111
very -0.0012310136 0.0005837561 0.0027129417 0.0033874407 -0.0023583202 -0.002585584 -0.0010711341 0.002645242 0.0013390589 -0.0015810932 0.00034950746 -0.0013484407 9.363158e-05 0.0009917802 -0.00080042856 -0.0015768228 -0.0026089153 -0.002679762 -0.0006597214 0.0011066032 -0.0013179409 -0.0016752135 0.0008442568 0.0021127807 0.00030173978 0.001681192 -0.00086258963 0.0025444343 -0.0035181444 -0.0015738783 -0.00021145209 -1.9673995e-05 -0.0007415229 0.0014470761 0.0016058168 0.0021111262 0.0016096192 -0.0026048124 -0.0012528808 -0.0024890706 -0.003067013 0.0005439613 -0.0018723084 0.00017653947 -0.0017768162 -0.0023216794 -0.0022857538 0.0013238012 0.001175148 0.0014819298 -0.0007961585 0.00054444367 -0.0010943331 -0.0022419223 -0.00078390306 -0.0025033753 0.0018245529 -0.0018978233 -0.0022552805 -0.0014073731 0.0015448066 0.00031704234 0.0010807863 0.0015722666 -0.0028059892 0.00079740386 0.001403442 0.0015789659 0.0015978818 0.0021936512 0.0019445352 0.0005281685 0.00041566484 0.0011504494 0.0035844224 0.0046674763 -0.002941443 -0.0012236066 0.001241388 0.0007092586 -0.0006393279 0.0016178214 0.0014625048 0.0016675518 -0.0029304435 -0.0007258824 0.0012171388 0.0024686162 0.0006511214 0.002077829 0.0027439115 0.0019198017 -0.0002671376 0.0013737979 0.0014526992 0.003067115 0.0015271262 -0.00018200939 -0.0012840556 0.0003080458 -0.0019208392 0.002092714 -0.0011445982 0.0016495183 0.0010139527 -0.000248254 -0.002230903 0.0029012435 -0.001979551 -0.0007221355 0.00091809616 -0.00094870443 0.001458749 -0.00013478934 -0.0009359553 -2.8921559e-05 0.0018952013 -0.003597086 0.00087347394 -0.0032862935 -0.0019129822 0.0005425506 0.0015082116 -0.0012170938 -0.0006188677 0.0013653272 -0.004424296 0.0006781932 0.000115731316 0.00034140257 0.0020310811 0.0024328062 -0.0022729763 -0.0027546186 0.00084351783 0.0035862366 -0.0023851348 -0.0031035347 -0.0022899685 -0.0052095884 0.0014798404 0.0012740188 -0.0009141372 -0.0023020727 0.0028326877 0.0005660655 0.00026826898 -0.0023734358 -0.0013146441 -9.62776e-05 -7.223942e-05 -0.0013332906 -0.0007581772 0.0047823247 -0.0014052799 0.00046508614 -0.00044890298 -0.00075078505 -0.0024561116 0.0022176576 0.0011802685 -0.00028924155 0.00043121373 -0.001218325 -0.002605909 0.00095295894 0.003710685 0.0029537086 0.00072170846 0.0020647473 -0.00047329182 0.003959532 -0.0016258293 0.0010989151 -0.0009862005 0.0003943943 -0.0011922335 -0.0013364506 0.0009480207 -0.00060972717 -0.000825818 0.0010787263 -0.0016272166 0.0025109688 0.00053656346 -0.0015672639 -0.00023262086 0.0019964091 -0.0007694849 0.0017820909 0.0007862192 -0.0018819451 0.0024720095 0.00078906084 0.0013795529 -0.00038361314 0.00043582567 0.00019595868 0.0033119542 0.00023940878 0.0015121903 -0.0013698061 0.00024608895 -0.0011632968 0.0015512685 -0.00027524796 0.0016397075 -0.0025581375 -0.003073679 0.0013808405 0.001335529 -0.0027451029 -0.0023957938 -0.0016302653 0.000267168 -0.00015682259 -0.0002815649 -0.00017794105 -0.002214894 -0.0024353678 -0.001181781 0.0039589703 -0.0015907364 -0.00062786456 -0.0007007624 0.0018114416 0.0025821181 -0.0008489443 0.00051245646 0.0004400316 0.0015347896 -0.0017239542 0.0012920722 -0.0007752099 0.001760996 0.0017437366 0.00056861417 -0.0020181981 0.0014710096 -0.0025912991 0.001713007 -0.0024780633 -0.0035700873 0.0027848145 -0.00097116316 0.0003962115 -0.0016953441 0.002113616 0.0011013318 -0.0014197709 0.0007379983 -0.003080918 0.0019196906 0.0004759987 -0.002575228 0.0025970542 0.0012982523 0.0034145124 -0.0033640258 -0.00046847077 -0.0026181473 0.0020967973 -0.0024580376 0.0010176041 0.0019933197 0.0029121726 -0.00088028796 0.0013301926 -0.0011218148 0.0003668634 -0.0029904295 -0.00032179567 0.0010996312 0.00048552713 -0.0013933433 -0.0014434293 -0.0005973493 -0.00045186945 0.00045803978 0.0015790953 -0.0016589293 -0.0002303785 -0.0008276361 -0.0024569165 0.0009712261 -0.0010732475 0.0013492611 0.00029220936 0.0023266238 0.0017233065 -0.0021882392 0.004328635 -0.00039884425 -0.00040921144 0.0003240384 0.0006410601 0.0019064117 -0.0033237499 0.0029052312 0.00022741701 -0.0019255398 0.0015681133 0.0010425575 -0.0016543983 0.0013437422 -0.001176668 0.0007566482 0.00065784674 -0.0028266893 0.00047940508 -0.00053055014 -0.0025961308 0.000604235 -0.0021475567 0.0030532454 -0.0013139055 0.0004386736 -0.0010817187 -0.0004618431 -0.0011596875 0.0037947188 0.0002656079 -0.0017486616 -0.0006668689 -0.0030191962 -0.0014553898 0.0007886715 -0.0009876689 -0.00045532183 -0.00030955137 0.0036529026 -0.0017444831 -0.00038215015 0.001132976 -0.0016328994 -0.00034294353 0.0007099942 0.0020401045 0.00012610307 -0.0015292233 -0.0007041335 -0.00030335257 0.0019041786 0.0002780211 0.00019161447 -0.00078835135 -0.0014045134 0.0009575353 -0.0013354188 0.00259934 0.002351212 -0.0020502605 7.3405856e-05 8.627667e-06 -0.0009604443 0.0032604672 -0.0018093747 -0.0019869695 -0.0018330226 -0.0025547713 -0.002240765 0.0033995567 0.000981424 -0.0004941546 0.0015087082 0.0014514816 0.002914284 0.0022408576 -0.0036358142 0.00092923327 0.0008071767 -0.0012555043 0.0012601274 -0.0017598758 0.00045004667 0.0008679589 -0.0015232997 0.002080603 -0.00036035528 -0.001112523 0.00048600195 -0.0023159285 0.00010225333 0.0019598696 0.00042838178 0.0024080905 -0.0017878691 -7.346717e-05 0.0024390286 0.0015968643 0.000292823 0.0019712981 -0.00024620554 -0.00025310603 0.0035379075 0.00054761756 -0.00077613496 -0.0024091443 0.00055270165 0.00017510468 -0.0003420963 -0.0006251911 -0.0015594275 -0.002987739 -0.0012024614 -0.0030708397 -0.00013112988 0.0022549692 0.00027986855 0.00012115355 -0.0015928356 0.00042797567 -0.0011498947 -0.0022264728 0.00017398827 0.003149203 0.0012174647 -0.0022541843 -0.0003162004 -0.0026189354 -0.0011819896 0.0029759617 -0.0023891246 0.00058236835 -0.0005674375 0.0020419515 -0.0027453487 0.0008830835 -0.0018096439 0.00043297702 -0.0027684462 0.0012701858 -0.002059661 -0.00036384162 -0.0010599002 -0.000105943735 -0.0007711108 -0.00038433424 -0.00034956896 -0.00010905131 0.00011358983 -0.001648099 0.0026444336 0.0009802225 0.0052593458 0.0012068261 0.00020770657 0.002604761 -0.0021972125 0.0004278598 -0.0007426657 0.00018274166 0.0005054851 -0.0016094234 -0.0009483801 -0.0018051182 0.00038213676 0.00039772788 -0.0007197037 -4.498011e-05 0.0003663293 -0.0016835595 -0.0012021335 0.00013726366 0.0003567202 0.0011690789 0.00085903844 -0.0011070395 -0.0017502153 -2.9505156e-05 0.00029466095 0.0010129639 0.0026298005 0.00029353757 0.0019353478 0.0016516068 -0.00047495522 0.0017237875 0.0011176764 -0.0028864895 -0.00045461205 0.0005737059 -0.00034264402 0.0032515188 0.0022376077 0.0006856405 0.0016642053 0.0031303347 -0.00013385128 0.0004315115 0.002441158 0.0004555192 -0.00030420834 -0.00048192934 0.00042699248 0.00073006714 0.0002558781 -0.002530086 0.00014171148 0.0011280547
